tree
version=v4
num_class=1
num_tree_per_iteration=1
label_index=0
max_feature_idx=233
objective=regression
feature_names=Column_0 Column_1 Column_2 Column_3 Column_4 Column_5 Column_6 Column_7 Column_8 Column_9 Column_10 Column_11 Column_12 Column_13 Column_14 Column_15 Column_16 Column_17 Column_18 Column_19 Column_20 Column_21 Column_22 Column_23 Column_24 Column_25 Column_26 Column_27 Column_28 Column_29 Column_30 Column_31 Column_32 Column_33 Column_34 Column_35 Column_36 Column_37 Column_38 Column_39 Column_40 Column_41 Column_42 Column_43 Column_44 Column_45 Column_46 Column_47 Column_48 Column_49 Column_50 Column_51 Column_52 Column_53 Column_54 Column_55 Column_56 Column_57 Column_58 Column_59 Column_60 Column_61 Column_62 Column_63 Column_64 Column_65 Column_66 Column_67 Column_68 Column_69 Column_70 Column_71 Column_72 Column_73 Column_74 Column_75 Column_76 Column_77 Column_78 Column_79 Column_80 Column_81 Column_82 Column_83 Column_84 Column_85 Column_86 Column_87 Column_88 Column_89 Column_90 Column_91 Column_92 Column_93 Column_94 Column_95 Column_96 Column_97 Column_98 Column_99 Column_100 Column_101 Column_102 Column_103 Column_104 Column_105 Column_106 Column_107 Column_108 Column_109 Column_110 Column_111 Column_112 Column_113 Column_114 Column_115 Column_116 Column_117 Column_118 Column_119 Column_120 Column_121 Column_122 Column_123 Column_124 Column_125 Column_126 Column_127 Column_128 Column_129 Column_130 Column_131 Column_132 Column_133 Column_134 Column_135 Column_136 Column_137 Column_138 Column_139 Column_140 Column_141 Column_142 Column_143 Column_144 Column_145 Column_146 Column_147 Column_148 Column_149 Column_150 Column_151 Column_152 Column_153 Column_154 Column_155 Column_156 Column_157 Column_158 Column_159 Column_160 Column_161 Column_162 Column_163 Column_164 Column_165 Column_166 Column_167 Column_168 Column_169 Column_170 Column_171 Column_172 Column_173 Column_174 Column_175 Column_176 Column_177 Column_178 Column_179 Column_180 Column_181 Column_182 Column_183 Column_184 Column_185 Column_186 Column_187 Column_188 Column_189 Column_190 Column_191 Column_192 Column_193 Column_194 Column_195 Column_196 Column_197 Column_198 Column_199 Column_200 Column_201 Column_202 Column_203 Column_204 Column_205 Column_206 Column_207 Column_208 Column_209 Column_210 Column_211 Column_212 Column_213 Column_214 Column_215 Column_216 Column_217 Column_218 Column_219 Column_220 Column_221 Column_222 Column_223 Column_224 Column_225 Column_226 Column_227 Column_228 Column_229 Column_230 Column_231 Column_232 Column_233
feature_infos=[2.7828148736299231e-06:21.892280847677767] [2.2985745986402479e-06:21.890073629548858] [0:0.039462667880346296] [0:21.891058533008028] [0:0.051028249626691002] [0:0.032684468557870452] [112:167179440000] [0.0065279999999999999:12818] [0:0.61880851230279443] [0:21.273472335374972] [-0.97025856318400217:0.99930006597150245] [0.018399379802163173:0.99905968135162837] [0.026481490670933548:74.275532805997415] [0:12.487583637369729] [0:73.218269772745202] [2.7828148736299231e-06:21.892280847677767] [3.696306459337914e-05:4.3950410199349914] [5.7391890845613281e-05:2.1985688946902551] [6.7697637016835778e-05:1.000045257452796] [7.455240193711105e-05:0.33417332171439884] [0:21.273472335374972] [0:21.273472335374972] [0:21.273472335374972] [0.032833737095363837:1.0904175531284426] [2532.8499999999999:5979.3199999999997] [0.032833737095363837:1.0904175531284426] [-1.382267322834885:1.1759398484581292] [-1.2160482650833639:1.6436839090988375] [-1.5067693317332576:1.9776810191319922] [0.065642307607028744:0.58612313911987257] [0.075516963065937692:0.38077991251259741] [0.012780065917138768:0.20548707637835967] [0.027768110011027625:1.1907849462064284] [1360.1199999999999:2266.0500000000002] [0.027768110011027625:1.1907849462064284] [-1.2074940178782316:1.3857816308767303] [-1.4036834097682385:1.4690445737903777] [-1.6311259914599137:2.0455558087144379] [0.053629656686048299:0.65780657134407217] [0.064434193805457049:0.38148204107059219] [0.012345474604356659:0.25800244616902457] [0.0320909692380177:1.6867506399479515] [1422.1400000000001:2203.77] [0.0320909692380177:1.6867506399479515] [-1.3328121711281018:1.681689034782859] [-1.7602726512629652:1.9133101494837943] [-2.0582178666213218:2.0049498320342436] [0.077897629953745495:1.012237188260797] [0.09110011358738733:0.55549088009556635] [0.017661389415660561:0.3950830242395591] [0.036108133976489896:1.4721099541081835] [695.87:2189.8600000000001] [0.036108133976489896:1.4721099541081835] [-1.4467509424084273:1.4451482488520389] [-1.7481482573724116:1.4489224024735987] [-1.7950053769891481:2.6692424871595986] [0.061045022669609574:0.62496049673934451] [0.071390880770804813:0.33327264013655095] [0.011929896878390864:0.29739987745113283] [0.003513698507071937:3.8465741268686626] [5.8635999999999999:12.593] [0.003513698507071937:3.8465741268686626] [-6.9400235085265001:4.1206237511693713] [-5.629043620730962:5.3188474978908076] [-5.0151235344418295:5.4396749273789631] [0.03588428994660442:2.3770331380531928] [0.03588428994660442:1.1372708229338147] [0.011873329073155359:1.2873051443615477] [0.0059712274040120642:5.537021313147509] [14.58:99.319999999999993] [0.0059712274040120642:5.537021313147509] [-5.3202498442428316:5.2139473036268846] [-4.713902010297315:4.5596678663174357] [-5.2153212806274265:4.4766016044629353] [0.36098639406439786:2.8787563924636927] [0.36098639406439786:2.057296875292693] [0.14387399570199272:1.1154476728215363] [0.033697960597691257:1.4208879036612077] [6172.2399999999998:15162.299999999999] [0.033697960597691257:1.4208879036612077] [-1.581421420005205:1.8437830014443535] [-1.7813414903420057:1.5849267773299791] [-2.2915420137114979:2.5104833319333149] [0.067905028165807402:0.69963940726956309] [0.088467456480453163:0.422305454860744] [0.023536331531169647:0.2756061747976955] [0.043195306424904822:1.2253506025020229] [3547.5700000000002:8627.8700000000008] [0.043195306424904822:1.2253506025020229] [-1.1113869255333406:1.2674098829210663] [-1.4721611465767244:1.4552941705424591] [-1.6150585387871621:1.951528809921601] [0.069137563971054847:0.86637454150091409] [0.081891116625775168:0.49807362803009575] [0.013372372156271543:0.29526717946554465] [0.031683839621542621:0.8180204704889974] [5221.2700000000004:7177.9200000000001] [0.031683839621542621:0.8180204704889974] [-1.9231891576569229:1.4484168383493907] [-1.7643409134399535:1.41052701540415] [-1.5582112639504215:1.93434600008345] [0.057407769499043651:0.54922911245489403] [0.073751266580796324:0.39015812987073256] [0.018060802812256894:0.17762548661033087] [0.0040805421485319788:0.35076543074951444] [97.859999999999999:141.5] [0.0040805421485319788:0.35076543074951444] [-2.1049637176815592:2.1678443563666625] [-2.4589342882157958:2.1253065924939469] [-2.468630439378912:2.6342936078246075] [0.0077503268302210951:0.22022755741481914] [0.0094599795414513996:0.15417147843528717] [2.6274320523901373e-09:0.089943122751212606] [0.035105826870325853:1.3240675112081954] [3339.54:5840.5100000000002] [0.035105826870325853:1.3240675112081954] [-1.0368764746229688:1.3791241625479269] [-1.3664182031341578:1.4731141470567728] [-1.6475204532977452:2.2110148553160691] [0.06186461376698784:0.82445450546662502] [0.075086837145534643:0.46445160710338745] [0.010662782090199611:0.31912674649954098] [27.879999160766602:103.19000244140625] [9.1400003433227539:40.740001678466797] [1829.0799560546875:2690.159912109375] [1050.800048828125:1364.9000244140625] [82.430000305175781:103.29000091552734] [22.630243301391602:39.242099761962891] [26.209999084472656:95.959999084472656] [0.0030000000260770321:1.4079999923706055] [1.3660000562667847:2.6289999485015869] [0.93800002336502075:2.250999927520752] [27.879999160766602:103.19000244140625] [-0.10286272275921436:0.10416222922801542] [-0.20536861056120875:0.23779333302478728] [-0.37586553235880094:0.28677466375486238] [29.581999969482421:102.81200103759765] [31.842272758483887:102.81200103759765] [0.35898611092108806:7.2905229317234497] [9.1400003433227539:40.740001678466797] [-0.29983121276650487:0.40101076664394841] [-0.55622478258522834:1.1407237800592156] [-0.68003476173691657:1.1703440361178172] [9.4579999923706062:32.242000579833984] [9.8136363462968301:26.58136376467618] [0.2109977228847171:9.0519539003374927] [1829.0799560546875:2690.159912109375] [-0.040211444346519278:0.038291299434531641] [-0.11581003347479667:0.054438317729791783] [-0.10754003264305849:0.10511872912903163] [1850.273974609375:2683.7580078125002] [1883.684531471946:2664.442305131392] [2.3385347810652561:80.635993000395686] [1050.800048828125:1364.9000244140625] [-0.035633359108181793:0.045568126625119755] [-0.070609569258193991:0.075113282850892818] [-0.1090279879145746:0.1430883853211973] [1060.3399902343749:1358.5999999999999] [1069.345458984375:1341.7500055486505] [2.5406434985164479:52.445382100152287] [82.430000305175781:103.29000091552734] [-0.023987741028871697:0.02032029080443867] [-0.036926324278092157:0.04529932982228059] [-0.064947767837762668:0.062547545974246915] [82.520001729329422:103.10999908447266] [82.520001729329422:102.54045382412997] [0.15006591773338529:2.2784373612132014] [22.630243301391602:39.222343444824219] [-0.06262263305959441:0.043296933948146217] [-0.11508330404674466:0.087842790536900375] [-0.18274715660413113:0.14366905252788628] [22.81608772277832:39.063193511962893] [23.478282755071465:38.338576230135828] [0.17428760358087686:1.4763959670961515] [26.209999084472656:95.959999084472656] [-0.10794222428175793:0.11621332959636449] [-0.19080639271470809:0.25201150692900209] [-0.35706552842381772:0.32677808476206655] [28.096000289916994:94.97799987792969] [30.121818108992144:94.841999816894528] [0.49478980196769307:7.4008817009444448] [0.0030000000260770321:1.4079999923706055] [-2.8716796043832007:2.5389738302107943] [-2.9618306844113094:3.1208954621610627] [-3.3440389696483295:4.0661736595331615] [0.0040000000968575481:1.3467999935150146] [0.005772727329961278:1.2982272776690396] [0.0024855139917150573:0.10334680753755063] [1.3660000562667847:2.6289999485015869] [-0.096518481126784433:0.10686316457598086] [-0.1558772538598194:0.19518519347381766] [-0.30131999657280556:0.3035045529910762] [1.3878000020980834:2.6046000003814695] [1.4925909150730481:2.5252727161754263] [0.022689213421781203:0.23129604763543171] [0.93800002336502075:2.250999927520752] [-0.13649771370652317:0.11880817863157449] [-0.21539842431645589:0.24353830546785976] [-0.40488523732218462:0.38899827923522035] [0.96299999952316284:2.2451999664306639] [1.0494090887633236:2.1794545325365933] [0.011798301087138122:0.22429485463925816] [132.69999999999999:169.59999999999999] [234.81200000000001:246.81899999999999] [4.0999999999999996:5.9000000000000004] [29832900000000:42442200000000] [47.899999999999999:54.700000000000003] [7.75:17] [0.059999999999999998:1.4199999999999999] [36.268999999999998:84.837999999999994] [132.69999999999999:169.59999999999999] [-0.79999999999998295:11] [-0.79999999999998295:11] [234.81200000000001:246.81899999999999] [-2.6209999999999809:2.1710000000000207] [-2.6209999999999809:2.3689999999999998] [4.0999999999999996:5.9000000000000004] [-0.29999999999999982:0.10000000000000053] [-0.29999999999999982:0.10000000000000053] [29832900000000:42442200000000] [-1213199999999.9961:2434699999999.9961] [-1213199999999.9961:3018699999999.9961] [47.899999999999999:54.700000000000003] [-2.2000000000000028:2.4000000000000057] [-2.2000000000000028:3.2000000000000028] [7.75:17] [-2:6.5] [-2:7.5] [0.059999999999999998:1.4199999999999999] [-0.12:0.25000000000000006] [-0.10999999999999999:0.32999999999999996] [36.268999999999998:84.837999999999994] [-7.5599999999999952:6.0330000000000084] [-13.75:23.313999999999993]
tree_sizes=8704 9378 8555 8882 9493 8712 9446 9350 9806 8843 9279 1092 2028 2202 2113 2313 2580 2209 2394 1100 2023 909 1382 995 1275 1269 1375 1652 1550 1459 1460 1373 1369 1368 1456 1460 1469 906 1378 1461 1007 913 1372 1096 1368 1184 1272 914 1466 1356 1452 1182 1279 1094 999 1087 1178 1368 1376 1086 993 1188 998 908 1269 1090 1098 1091 1182 1276 1270 1182 1378 1372 1198 1184 1186 1375 1280 1274 1183 1175 1182 1184 1197 1194 912 914 1183 912 1179 1179 1089 1181 1086 1270 1193 1185 903 1281 1094 1191 1003 1094 1005 904 1183 1187 1182 991 1191 1183 1079 1185 910 1087 1278 1274 1286 1096 1374 1277 997 1180 993 1186 909 1002 1096 1005 1176 1277 1095 1003 1185 1001 1090 1177 1268 1000 1003 1275 1087 1093 1092 990 1191 1086 1000 1185 1180 1091 1182 1185 1095 1101 994 1181 1094 1191 1090 1098 999 1194 1181 1186 1271 1278 1089 1091 1372 1185 997 1001 1094 1278 1096 994 1097 901 1173 1281 1187 1272 1007 999 1095 1371 1373 1002 1273 1276 1084 1099 1093 1168 1091 997 1176 1096 1375 1004 1181 1003 994 1089 910 1002 1086 1095 1183 1183 1278 907 998 909 997 1004 1186 1094 999 1001 904 996 1000 1090 993 1183 1276 995 1097 989 1090 1001 991 1090 1191 1093 1094 1275 1088 1099 1090 1097 1087 1364 815 910 907 1091 1099 998 1075 1184 1086 1274 999 1183 1100 913 989 1003 1097 1087 1095 999 1175 1002 1100 1182 1078 1184 1085 1005 1176 1181 1188 1099 1192 1005 1276 1176 999 1090 1099 1004 914 1274 728 1006 1000 1366 1007 909 1005 1089 1276 1084 1005 910 999 1092 901 908 910 1005 816 1005 1096 996 1099 1086 1366 1093 1006 992 1086 911 1183 1179 904 1193 1270 1467 1097 1083 1547 1015 998 913 1353 923 1362 1007 1003 1452 1280 1007 726 909 1012 1373 1005 1098 818 1366 1008 722 1001 995 887 1086 1186 1189 1090 1009 631 905 1107 908 1098 1094 1105 911 718 996 1279 917 810 894 1194 906 1096 1008 1098 1084 811 1088 994 815 1180 822 827 809 1172 816 1357 726 1173 1176 1084 1546 629 912 723 1099 1084 1279 1008 1183 993 913 1179 911 1087 632 911 999 1450 725 1555 1546 915 1368 1366 1448 724 726 1361 823 925 1090 1281 1352 1181 725 1180 1109 921 1011 1006 920 1087 735 1187 826 1182 1095 1452 834 823 997 1274 1737 1094 1375 1282 2031 922 1916 917 922 2101 633 1456 917 734 1745 827 1564 823 920 1561 1470 1008 1561 1469 1565 925 1379 922 1019 2019 1645 1923 1913 1757 2127 2498 2385 631 2290 1936 827 630 924 825 2014 824 915 1747 2215 1458 819 1462 2405 820 626 827 927 920 824 1455 1740 916 1272 823 731 989 828 1375 1450 1834 736 1830 1462 832 831 1193 926 1454 1650 831 922 926 1016 1192 2124 1476 828 1095 635 1553 1469 1548 1852 737 733 1739 1679 918 1833 924 912 1469 1842 1559 729 922 1364 1840 916 826 822 1939 1280 734 1370 921 921 827 819 1646 1189 541 1369 1281 830 734 1455 829 1552 832 1461 821 824 830 827 1563 821 1180 1091 634 1087 1180 1630 826 826 1735 1267 1450 1831 730 2190 1945 2127 1960 728 539 826 1660 730 1180 819 1458 2114 1832 829 537 1272 1277 1560 823 2212 2400 2306 538 2008 2104 2014 734 2298 1724 2206 2298 929 825 2487 831 831 2483 730 1712 828 737 539 1283 1002 732 634 1542 1560 1758 1460 1841 732 2221 2014 2114 2635 1718 1915 735 722 736 734 737 641 543 1176 1834 729 1637 831 1461 1647 1460 642 641 1660 1930 640 637 824 641 627 729 730 1178 732 729 642 635 735 1090 637 730 736 734 739 1185 993 1189 907 725 542 993 632 632 1088 636 638 731 1183 987 543 728 986 994 826 1177 724 731 728 719 903 1264 734 639 825 729 925 830 811 735 829 995 738 734 907 989 1082 908 996 1173 640 906 833 636 1089 635 1359 1082 826 1367 910 1832 962 903 1279 1642 641 638 811 734 732 732 1607 1822 640 1373 1187 734 730 733 728 819 816 637 1268 1175 1189 733 1095 1633 1631 1521 825 1826 1457 828 1271 735 731 730 1172 819 1542 1828 1841 2115 825 1825 729 636 640 641 1463 2100 637 637 1458 1609 1732 735 996 636 2525 2979 731 730 730 634 736 2175 735 1656 820 1650 737 1267 730 1353 540 1172 545 546 995 830 826 1265 1798 738 640 640 738 1175 733 1173 1360 1095 731 1092 1551 545 729 737 1184 912 1800 2105 735 1618 549 737 727 638 726 1842 1923 822 640 638 637 828 1830 731 996 1460 452 544 641 720 544 545 546 640 643 904 820 637 895 827 814 718 636 727 1087 1186 539 1072 636 740 1000 911 1099 732 993 730 736 1556 640 642 1081 1089 722 1352 1352 2195 643 728 1643 1828 2196 640 640 1452 638 824 826 733 828 826 823 1176 543 641 542 635 1082 1175 1360 729 987 1738 546 1269 731 818 736 1649 731 1266 1173 1370 1452 914 737 721 1090 1085 633 632 1159 2081 1558 633 1372 1369 1468 643 645 1920 732 1999 1726 735 2082 642 731 1915 2097 639 735 2287 641 1828 736 1491 2151 1919 3541 2342 2995 2591 637 637 3610 3802 3662 921 829 826 642 3081 2699 640 2966 639 825 733 2837 3257 733 2910 2619 638 642 3171 733 2494 727 2149 831 2419 2899 1013 827 2798 2970 547 638 642 728 726 1830 731 637 634 1449 546 978 734 642 1525 1803 1805 2262 737 735 736 2109 639 639 1727 1268 2093 638 1890 2619 545 644 734 1909 636 638 2462 548 1335 1224 1524 544 644 828 644 1892 2600 1858 640 639 638 545 2108 2471 912 1719 910 1783 2301 727 2138 1877 2631 731 731 728 542 1680 2872 543 1427 1722 452 1791 638 637 636 641 1637 736 828 643 1534 1356 642 1857 2068 2645 547 545 1717 1875 1719 449 732 2257 546 548 549 543 1410 1324 1517 641 1819 1074 1257 640 734 2013 636 2336 639 640 454 2102 733 732 1595 1054 634 640 731 1070 1808 2361 642 732 450 1261 542 1079 546 1720 545 454 1269 1360 1957 2153 2366 729 2182 2057 836 2413 2097 544 545 545 2555 2647 641 636 1538 638 2176 828 2547 822 735 2070 643 549 550 637 1524 545 832 1892 1169 724 1624 448 545 544 1596 546 546 1257 639 1433 631 730 1630 1707 549 977 1358 1619 728 1900 2084 2351 545 547 2224 2523 2495 647 640 737 1722 644 728 735 1933 726 734 732 643 641 1052 643 1701 637 1739 3845 3513 2314 2391 2039 638 2234 2501 2704 991 925 639 641 2501 2744 826 454 738 2319 3011 2291 736 825 731 642 734 1336 637 638 452 1793 822 1691 2268 2237 636 2394 2496 448 448 446 450 1511 637 640 1080 1773 1117 2910 639 2399 2611 2633 2775 2958 3529 2685 3723 3304 633 3464 822 633 2478 1965 3551 632 822 2333 2784 3186 3513 633 3563 1982 637 3229 2894 4593 4906 732 5112 356 547 546 547 2098 2952 640 823 917 3141 631 638 546 2171 545 545 645 1439 355 637 453 1401 2021 2113 1485 644 2311 644 2144 2687 2096 2035 544 546 1607 2419 2308 3154 3909 4005 4451 3662 729 735 732 736 4053 2720 735 3307 2753 544 3059 3267 3868 547 545 545 824 735 735 2526 3764 545 544 2787 2782 541 542 2424 2207 3234 642 733 730 3172 2047 731 1650 2749 2208 639 2461 2629 543 4398 639 637 3513 630 2658 739 2389 729 546 2314 2506 539 2362 729 637 541 635 1405 545 1296 631 2152 634 1836 2044 3052 539 1869 2549 642 2135 3488 2485 731 3808 2844 3136 3385 4376 4205 2055 5393 5555 4700 630 630 821 4341 734 825 3742 3664 3017 5045 5468 550 3288 734 731 3728 3494 832 3914 547 545 540 4232 728 3156 3007 545 734 636 636 2381 3152 2840 823 2486 730 642 640 2536 628 453 1991 2190 537 544 739 2044 730 640 1529 1371 547 2562 635 1519 2201 1875 2303 637 2762 2326 2073 2231 737 840 1294 2301 727 814 1506 539 540 3239 1010 911 2519 636 2376 1809 640 1258 2012 741 729 641 643 640 634 732 729 637 725 1845 639 546 638 786 452 531 1214 819 1796 1005 1180 543 1833 2041 548 2376 2471 646 453 549 548 1401 637 641 1722 2126 547 544 972 450 2231 546 1884 1840 1631 544 1004 825 2405 638 3495 4258 2215 638 727 2232 3184 549 547 978 1809 2274 2055 2804 3616 3325 4732 3224 3801 639 730 2565 3057 637 354 2373 545 2103 2713 3396 4573 641 448 2822 2733 4017 4791 4487 1432 2230 636 733 727 5176 4421 355 3745 635 634 639 3877 549 2977 731 739 2603 541 2903 734 729 642 2722 634 727 724 2087 736 547 2636 551 547 910 356 1546 731 2588 2465 2020 450 545 1521 636 1294 453 453 1959 544 545 1562 1289 2051 644 453 1264 642 550 1454 1920 548 549 549 1529 542 638 732 1951 637 994 995 551 823 542 733 722 545 1002 526 991 449 2367 637 1552 1523 1441 452 548 1542 1835 635 1322 731 2749 732 825 1866 727 726 1564 638 643 638 1132 537 988 453 453 1060 1441 643 542 551 553 544 673 968 1889 769 1522 1141 1138 1560 545 2007 636 1896 635 543 736 549 545 546 545 546 545 635 637 549 996 551 645 647 644 515 707 608 731 640 826 1147 957 542 638 638 714 1218 544 1262 1264 1273 1228 730 549 636 450 878 635 453 729 1885 1093 1551 728 546 1218 544 905 452 800 1324 1832 1603 632 542 730 899 633 1096 451 453 1418 910 541 960 641 1877 546 788 965 1028 825 1633 738 2375 1712 643 1998 637 354 547 832 1012 544 1215 541 1613 640 642 545 1346 637 550 888 1349 1350 1204 1495 541 1932 545 3089 2093 2267 2173 2411 449 3497 442 639 1542 1522 735 1583 1574 547 2413 2038 636 543 2269 818 3304 3689 3471 643 1263 643 3050 4151 2878 2052 638 636 642 641 2411 639 638 637 1243 2022 454 548 547 544 448 445 1471 646 1803 1706 636 633 2608 354 1420 546 636 729 1863 693 542 711 1687 2360 730 355 449 1262 1296 1624 550 730 1518 789 1857 543 635 449 547 448 1179 1496 1316 724 2701 2668 1429 546 1239 2239 2352 639 545 2184 1645 2962 550 3143 640 904 733 724 732 2186 542 543 549 544 537 1127 633 1312 1127 638 2224 2627 1757 1881 545 1928 2391 3619 546 547 543 736 728 825 1342 642 637 1099 639 641 551 1374 635 1288 1664 633 545 545 1044 644 1463 640 454 550 979 452 884 545 2440 2357 2170 673 355 696 1041 1152 639 1438 820 542 3038 641 1932 1400 450 1693 1757 549 1538 547 1967 2299 539 636 799 644 640 2008 1969 1177 640 818 2858 2327 543 639 1972 721 2004 821 972 637 1808 1835 546 641 544 1679 2381 638 544 2796 2245 2564 635 738 636 632 1198 540 543 1527 538 1614 445 444 1254 1973 638 543 549 650 1671 635 1570 1891 447 1129 447 546 1503 1828 638 734 635 996 548 1000 639 628 1164 455 355 605 1555 451 354 553 449 551 542 955 981 1219 812 642 1488 1559 1606 449 545 1232 451 453 1338 731 1463 545 1736 735 733 2673 1675 550 637 449 545 1046 356 732 543 718 544 984 789 356 637 1089 812 550 733 738 542 1359 854 642 1516 1892 1590 2264 2108 1319 1904 2806 3649 540 2474 1659 544 639 723 1834 633 642 982 1079 542 540 1746 642 547 1784 2930 544 2494 731 728 818 542 700 447 637 1485 454 630 1802 1651 644 1618 1636 544 1390 1386 453 631 642 1995 1015 449 1462 2097 1641 2502 542 889 821 908 2937 636 2475 2357 2414 643 1663 2046 2566 537 2919 821 2647 2627 3891 643 2477 2660 3210 2899 3414 2685 630 3213 884 4566 4784 636 627 627 6698 638 3324 544 2848 3155 644 548 449 452 3092 3555 3110 538 541 724 639 1005 2646 445 443 447 639 640 640 1450 1397 355 550 546 1037 875 640 450 544 1050 640 541 948 1586 1270 543 919 1048 1119 449 732 546 2789 825 637 541 2079 1290 355 735 542 1583 626 2068 815 545 599 720 545 544 1475 2495 909 631 766 1519 1399 725 2729 640 640 730 637 633 734 945 1868 453 1903 1983 1858 2631 1916 450 2002 449 1802 2524 637 447 639 2203 2264 2198 636 1632 734 2605 536 2337 1737 1372 545 453 647 4052 2383 2173 2891 3268 454 454 3042 452 544 4249 721 3590 546 2377 734 2828 3221 3984 830 452 548 827 3002 1502 1009 893 1094 646 2089 2623 1798 2136 546 1776 1923 1964 3517 2074 3185 5552 886 4365 454 2080 3369 641 546 736 653 2841 3360 3441 3166 2894 644 5539 355 451 4539 356 3104 3525 734 4041 545 833 4171 1021 3945 3090 2964 2968 4658 543 4363 712 713 546 2819 453 3374 728 2001 732 4257 4039 732 540 448 3295 2269 735 643 550 2070 803 2688 641 739 2379 447 449 1234 1396 1253 1956 452 450 639 2034 539 551 645 1731 1998 453 548 2330 642 543 1733 543 545 536 1616 449 3061 2857 443 873 542 901 541 1015 642 2586 448 1445 1037 356 547 547 844 1205 544 643 1098 2109 453 2168 636 542 2353 1845 353 354 642 545 1133 723 541 539 541 1035 728 1309 733 731 1500 1404 1778 453 634 547 1735 1250 1873 1750 1887 2210 1874 1699 1159 1104 2503 804 2367 2508 3303 2298 640 2152 3540 3834 5227 2852 641 638 4795 455 3806 734 734 4622 633 1904 734 729 633 546 2381 549 1642 3568 2509 638 450 446 1302 639 908 2738 632 634 972 546 639 547 1569 1665 547 2356 2023 517 703 2459 1145 539 2648 2929 727 733 639 546 636 732 702 538 630 1197 2239 1522 1472 2568 451 2329 453 1865 628 540 539 638 2146 639 545 545 645 547 549 421 543 1281 548 964 445 1011 1805 1898 642 1486 642 2090 1480 550 550 546 2186 1599 1491 1684 639 637 638 868 736 640 921 764 1256 544 638 2171 2236 2910 2362 3120 2628 538 633 2537 2576 451 638 549 2375 2360 446 1763 1495 1356 633 2577 450 2939 3197 3441 639 627 2866 3055 639 1714 447 2091 2387 449 2519 547 735 451 2137 1462 544 537 3090 2566 547 545 637 448 2037 3223 619 3360 3260 2944 357 3025 1942 2712 699 3181 539 450 2019 538 2135 449 449 2812 2474 542 543 731 631 819 1584 634 1523 548 547 452 453 453 649 744 745 2294 447 1964 550 454 1346 2964 541 635 2848 2625 1892 2591 642 1412 2766 454 2524 1835 1377 356 2878 453 1650 452 453 450 740 1647 1688 4096 4019 449 546 448 356 922 1831 608 1557 3048 2727 453 453 2100 544 1034 913 4350 2647 734 3565 3379 550 641 1809 2870 3776 3643 3613 2423 536 4403 3400 5593 4516 641 799 4238 1022 5354 4845 4323 449 4913 2790 963 985 549 452 542 2945 545 3383 3675 707 1182 549 3558 3908 734 1636 543 4456 3779 453 3131 3234 449 543 448 356 547 1222 544 2093 2167 447 3483 628 834 448 543 545 648 2005 1241 544 542 2262 3127 2211 450 833 1908 926 455 1868 356 2249 2482 548 1846 2385 635 447 445 3015 2798 2317

Tree=0
num_leaves=98
num_cat=0
split_feature=0 8 0 18 16 94 16 0 17 152 0 0 16 18 18 18 16 18 66 38 27 17 112 151 151 34 31 16 4 176 2 0 0 195 64 105 11 5 16 115 149 0 26 17 5 0 73 74 117 61 77 5 209 0 50 0 183 156 163 166 163 75 63 17 18 65 55 21 50 11 48 8 104 100 176 5 196 176 71 71 8 27 166 86 72 143 112 9 3 89 191 11 16 56 5 88 32
split_gain=2359.82 590.707 518.005 241.416 154.293 133.168 126.838 54.8229 38.5661 36.8074 34.4936 34.4137 30.4167 27.914 26.2744 22.0833 20.0669 19.6034 14.0855 13.033 12.4368 11.7487 11.042 10.4899 10.1617 9.89113 8.75486 9.92976 8.63402 8.5839 7.80964 6.93597 6.9084 6.84064 6.69462 5.61204 5.41474 5.00814 5.22587 4.87345 4.78315 4.75278 4.63408 4.58932 4.53661 4.48031 3.97359 3.95118 3.94198 3.58276 3.50805 3.49682 3.4629 3.19687 3.18919 3.17277 3.16824 3.75826 3.09497 3.19781 2.84873 2.67102 3.19586 2.59456 2.46555 2.45806 2.32056 2.31549 3.85009 2.8762 2.24726 2.2417 2.19323 2.16759 2.13314 2.07752 1.99389 1.94934 1.90821 1.77135 1.63881 1.59401 1.5144 1.50091 1.33475 1.9973 1.07152 1.06713 0.998976 0.788769 0.738981 0.720869 0.399233 0.331517 0.320598 0.220215 0.140312
threshold=0.00042754897229270098 0.0013290125130358337 0.00016755902883485867 0.00070762095071769441 0.00035514602969413206 0.073534255479578134 0.00021638599492773434 0.00069600994284093525 0.00064220575098687378 30.084167158213067 0.00029530334706372353 0.0010525787848259178 0.00012691320406324938 0.00054025768872770761 0.00035455426721811025 0.00027401371287982254 0.00034276197256252213 0.00039944898477828247 0.29508476526828475 0.1248954506979338 0.037666920820031889 0.0012704485354341781 0.010126379782667875 2091.1868286132817 2085.1334089799366 0.15053821194364689 0.024882727938585921 0.0011665322676667007 0.00012199825282938088 -0.049419151852018887 0.00019689917164177707 0.00057076869374706113 0.0031428376386380681 1.2140000462532046 -0.073106537442462829 123.19500000000001 0.12053555836481282 0.00013331907664384848 0.00043207050804466618 0.19093131678062267 -0.0050278453707193983 0.00012250142353943051 0.24902258540800526 0.00039263392396326932 0.0001159616507786185 0.00034307468714535355 -0.048958186756839064 0.8325512077615661 -0.50060085543067323 0.072892833165469295 0.19694883112424627 0.00017034290669862921 66.292000000000016 0.00012250142353943051 0.1624761044829573 0.00024784807633846431 -0.245461518665646 0.0081105398023320775 -0.010633003153860883 0.94277866634998719 -0.019909180620517799 1.14640585293006 0.07402911915377694 0.00028592690458376194 0.00062544940304055626 0.099756515138270788 0.064415259793514992 5.6683180666051956e-05 0.11588660787484793 0.11768878475857805 0.16656494385641549 0.00061648222329889067 0.03643077235375921 0.1024721104620971 -0.040526915979536525 4.4752126586373248e-05 0.0060975319652553884 -0.008602780854624301 -0.049141409954077953 0.32490717115647755 0.0002143150799514516 -0.0040628941461158764 0.78052941488410632 0.13478736007227202 -0.053904540773902984 14.017000102996828 0.0096916177874457575 3.041709917931013e-05 0.00015269149253029508 -0.052696172100361136 -0.047569553693015902 0.097731696598264736 0.00024266944967709395 0.13224016441396294 9.0101574987536936e-05 0.14963944657455255 0.16956956528414358
decision_type=2 2 2 2 2 2 2 2 2 2 2 2 2 2 2 2 2 2 2 2 2 2 2 2 2 2 2 2 2 2 2 2 2 2 2 2 2 2 2 2 2 2 2 2 2 2 2 2 2 2 2 2 2 2 2 2 2 2 2 2 2 2 2 2 2 2 2 2 2 2 2 2 2 2 2 2 2 2 2 2 2 2 2 2 2 2 2 2 2 2 2 2 2 2 2 2 2
left_child=2 3 6 7 10 13 12 16 20 -7 15 21 53 -3 28 19 31 24 37 74 30 33 46 -14 47 40 -10 64 -9 35 39 36 -15 -5 49 -18 88 38 -16 45 -19 -25 55 -24 52 67 -22 -8 -31 -17 71 -13 54 -1 77 94 -45 -58 -39 -60 -50 62 -62 -38 -28 -48 -63 69 -69 -6 -33 93 -41 78 -4 -42 95 89 -46 91 -66 -80 -47 -57 -21 -86 -30 -26 -2 -12 -76 -51 -79 -35 -36 -32 -53
right_child=1 5 4 11 8 9 17 14 26 -11 44 51 23 32 18 34 29 25 -20 84 22 -23 43 41 87 -27 27 -29 86 48 76 70 -34 50 42 -37 63 58 -40 72 75 -43 -44 56 73 82 65 -49 60 79 -52 96 -54 -55 -56 83 57 -59 59 -61 61 66 -64 -65 80 -67 -68 68 -70 -71 -72 -73 -74 -75 90 -77 -78 92 81 -81 -82 -83 -84 -85 85 -87 -88 -89 -90 -91 -92 -93 -94 -95 -96 -97 -98
leaf_value=-0.28761608035026393 -0.28606502714389254 -0.28559797789021774 -0.2866023613460838 -0.28592736640600247 -0.28642018244918171 -0.28305598009436722 -0.28635101243995703 -0.2863365724464435 -0.28620264612552332 -0.28425654977539144 -0.28620450311615891 -0.28526964245379949 -0.28674730578854235 -0.28487307531470873 -0.2861492596012295 -0.28631186256351576 -0.28544409063661769 -0.28624442332953975 -0.2850005755451876 -0.28673359160800466 -0.28612999030129221 -0.28516155442076463 -0.28620264612552332 -0.28730029407101232 -0.2870184802452948 -0.28616820802873544 -0.28611042602521197 -0.28537822616520447 -0.28608918770599201 -0.28621949193659507 -0.28617311637589554 -0.28620264612552332 -0.28426615226392021 -0.28584688052376167 -0.28657882950772573 -0.28594293790445013 -0.28656895771917029 -0.28580923857657148 -0.28569483300847009 -0.28629481791839184 -0.28677039395513476 -0.2870165926898135 -0.28619406437546169 -0.28614459476531212 -0.28631021396039552 -0.28608636101221968 -0.28620264612552332 -0.28675118030410374 -0.28620264612552332 -0.28660349004709373 -0.28530897642179193 -0.2850942958574807 -0.28621144458724163 -0.28718082942141715 -0.28621199361527838 -0.28641574332397735 -0.28562993166481404 -0.28607879803454306 -0.28538949778220779 -0.28580423749460981 -0.28600733830552494 -0.28622683641989033 -0.2857846908237997 -0.28623262542242528 -0.28608299148550304 -0.28651586236332183 -0.28598742055821025 -0.28651021464334037 -0.28621338078520792 -0.28672620065352589 -0.28586983020103174 -0.28539092700694574 -0.28604557944217879 -0.28638910475067775 -0.28667870354871322 -0.2864170357117542 -0.28623433337356768 -0.28672913836870295 -0.28620264612552332 -0.28643900214397405 -0.28575481194932068 -0.28596633212192069 -0.28632948745158848 -0.28620264612552332 -0.28655804323410877 -0.28623470417117974 -0.28575488044850195 -0.2867187391133752 -0.28622491007428863 -0.28644973355726516 -0.28699137627294713 -0.28686668343427851 -0.28648053668440004 -0.28555951871029972 -0.28633995516851635 -0.28595548740473498 -0.28466212576790356
leaf_weight=353 70 68 82 74 227 97 88 71 113 90 66 108 124 187 69 67 78 64 63 102 102 241 93 420 345 71 104 67 63 63 63 70 81 124 235 102 105 107 141 117 153 291 64 78 82 63 67 119 88 155 235 103 108 98 78 69 93 68 247 74 321 71 213 80 65 93 85 110 175 92 70 119 73 95 84 75 70 99 63 84 155 63 67 82 137 65 74 106 84 82 396 142 140 88 68 64 136
leaf_count=353 70 68 82 74 227 97 88 71 113 90 66 108 124 187 69 67 78 64 63 102 102 241 93 420 345 71 104 67 63 63 63 70 81 124 235 102 105 107 141 117 153 291 64 78 82 63 67 119 88 155 235 103 108 98 78 69 93 68 247 74 321 71 213 80 65 93 85 110 175 92 70 119 73 95 84 75 70 99 63 84 155 63 67 82 137 65 74 106 84 82 396 142 140 88 68 64 136
internal_value=-0.286203 -0.285525 -0.286592 -0.285688 -0.286384 -0.2844 -0.287034 -0.285898 -0.286165 -0.283613 -0.286565 -0.285279 -0.287273 -0.28485 -0.285677 -0.286655 -0.286034 -0.286729 -0.28557 -0.286791 -0.286244 -0.28541 -0.286115 -0.287129 -0.286851 -0.286498 -0.28589 -0.285809 -0.286055 -0.285945 -0.286315 -0.286217 -0.284675 -0.28551 -0.286528 -0.285705 -0.286312 -0.285633 -0.285825 -0.28636 -0.286591 -0.28719 -0.286424 -0.285975 -0.286373 -0.286402 -0.286277 -0.2866 -0.286001 -0.286639 -0.285462 -0.284957 -0.286434 -0.28753 -0.286478 -0.286465 -0.285893 -0.285795 -0.285548 -0.285473 -0.285978 -0.285953 -0.285911 -0.286445 -0.28591 -0.286396 -0.286122 -0.286443 -0.286342 -0.286521 -0.286016 -0.285583 -0.286203 -0.286245 -0.286902 -0.286671 -0.286124 -0.286521 -0.286198 -0.286686 -0.285834 -0.286094 -0.286203 -0.286293 -0.286574 -0.286474 -0.28588 -0.286957 -0.286178 -0.286367 -0.286945 -0.286743 -0.2866 -0.285709 -0.286538 -0.286032 -0.284832
internal_weight=11394 4160 7234 3637 4927 523 2307 2409 2219 187 2708 1228 1286 336 909 1832 1500 1021 701 866 1715 881 594 835 658 363 504 391 208 1021 1121 479 268 640 966 180 339 638 210 924 292 711 518 332 876 734 262 207 841 448 566 347 573 451 465 454 239 161 428 321 778 690 534 185 324 160 156 604 285 319 140 331 190 303 562 228 197 387 208 381 220 126 130 151 304 202 137 451 154 148 480 297 239 212 303 127 239
internal_count=11394 4160 7234 3637 4927 523 2307 2409 2219 187 2708 1228 1286 336 909 1832 1500 1021 701 866 1715 881 594 835 658 363 504 391 208 1021 1121 479 268 640 966 180 339 638 210 924 292 711 518 332 876 734 262 207 841 448 566 347 573 451 465 454 239 161 428 321 778 690 534 185 324 160 156 604 285 319 140 331 190 303 562 228 197 387 208 381 220 126 130 151 304 202 137 451 154 148 480 297 239 212 303 127 239
is_linear=0
shrinkage=0.0358619


Tree=1
num_leaves=102
num_cat=0
split_feature=0 13 0 18 16 94 16 0 19 152 0 0 16 18 18 19 18 18 151 13 66 29 16 17 151 115 19 4 142 84 232 15 195 64 15 16 11 15 97 139 183 5 16 5 70 137 0 15 15 176 155 17 1 5 19 0 18 180 39 107 168 179 163 142 53 54 15 3 0 97 114 112 233 16 199 52 18 197 107 23 16 124 50 5 2 16 141 112 16 111 191 33 19 72 50 5 11 150 59 135 5
split_gain=2218.37 554.259 486.152 226.604 145.578 124.554 118.714 51.5562 41.6146 34.0369 32.4549 32.104 28.3239 25.9615 24.6475 22.0806 19.117 18.9545 14.3364 13.1679 13.0458 12.8067 12.778 10.7953 9.67632 9.32542 8.39838 8.16568 7.71455 7.51702 7.20315 6.87252 6.31265 6.08314 6.42671 5.95439 5.31887 6.58791 5.26924 5.07726 5.05922 4.58578 4.83065 4.57478 4.315 4.29668 4.27163 4.14856 3.96729 4.19068 3.6682 3.62117 3.50991 3.46952 3.39037 3.36938 3.25163 3.15295 3.12639 3.09407 3.01171 2.92547 2.79344 2.75655 2.64739 2.59523 4.34552 3.25288 2.58031 2.51729 2.51361 2.41685 2.22764 2.19706 2.18922 2.10424 1.97434 2.10817 1.97113 1.92283 1.83549 1.77814 1.7634 1.74449 1.57853 1.45023 1.4194 1.24316 1.20291 1.1225 1.06211 1.02049 0.905152 0.874382 0.831798 0.519492 0.431217 0.262916 0.245155 0.0627867 0.00821295
threshold=0.00042754897229270098 0.57871508591821008 0.00016755902883485867 0.00070762095071769441 0.00034902243826884103 0.073534255479578134 0.00021638599492773434 0.00069600994284093525 0.00074236601221670101 30.084167158213067 0.00029530334706372353 0.0010525787848259178 0.00012691320406324938 0.00054025768872770761 0.00035455426721811025 0.00059293456822693007 0.00027401371287982254 0.00031946855678873523 2084.5674882368612 0.245550433034502 0.29508476526828475 0.11996423986082895 0.00089865232691101486 0.0012704485354341781 2091.1868286132817 0.19501523410562557 0.0005042974075144933 0.0001320248694133558 0.058515095761511017 0.20199466724558293 0.7069999999999973 0.0018939518547706274 1.2140000462532046 -0.073106537442462829 0.00022298505564296014 0.0001967573460391437 0.095747075935817424 0.00074978016146311666 0.093770869222784506 16.800000190734867 0.014108451606362213 0.00013331907664384848 0.00043207050804466618 0.0001159616507786185 0.88537276523602593 46.198636228388018 0.00012250142353943051 0.00031316160632314448 0.00045149361337805296 -0.015966424871554804 -0.010824005808049706 0.00039055077897381826 9.5763741411782714e-05 4.3477322481311264e-05 0.00044099109343228194 0.00024504370815683891 0.0003864390241554021 1.2994818930348708 0.18682859227020934 -0.022685335856751771 -0.00066730074774723166 49.148409063165843 -0.010633003153860883 0.19471593728596628 0.068101198922407805 0.11352702231298369 0.0003767301004325493 0.0002054153639321463 0.00013132188944955532 0.14787688702235055 4883.0550000000012 0.0076856354794576373 -0.87949999999999651 0.00065149549374964564 1.5457000136375429 0.12787836359331642 0.0002451736762761192 -0.027541587328574885 1.0000000180025095e-35 0.11287270043530685 0.00037409062819958972 2031.5650024414065 0.11797433240001616 0.00043475821316290767 0.00015195537783318336 0.00038221547302541781 0.047883806952795822 0.0097238082177861715 0.00026696316689604017 0.023540768676212805 -0.047569553693015902 1689.8100000000002 0.00025522951873278925 -0.062530079576303924 0.12734183993152953 0.00017034290669862921 0.097731696598264736 2090.8239990234383 0.11944391349622076 0.13423546066551034 2.1424199597332376e-05
decision_type=2 2 2 2 2 2 2 2 2 2 2 2 2 2 2 2 2 2 2 2 2 2 2 2 2 2 2 2 2 2 2 2 2 2 2 2 2 2 2 2 2 2 2 2 2 2 2 2 2 2 2 2 2 2 2 2 2 2 2 2 2 2 2 2 2 2 2 2 2 2 2 2 2 2 2 2 2 2 2 2 2 2 2 2 2 2 2 2 2 2 2 2 2 2 2 2 2 2 2 2 2
left_child=2 3 6 7 10 13 12 17 19 -7 16 23 57 -3 27 18 21 35 25 26 41 90 50 32 -14 53 30 -9 38 36 39 83 -5 56 55 -2 80 65 -21 69 86 42 -16 48 -31 -40 -26 -34 49 75 -10 85 -28 -8 72 -35 96 -1 95 -53 -58 78 -43 93 87 66 -38 -67 70 71 -20 -6 -45 74 -52 -12 -51 -78 -36 -49 -19 -64 -54 -15 -42 -47 -30 -37 -74 -29 -4 -46 -70 -23 -79 -13 -18 -83 -82 -81 -59
right_child=1 5 4 11 8 9 15 14 22 -11 43 58 24 31 20 -17 33 29 68 28 -22 63 -24 -25 46 -27 52 89 40 44 -32 -33 47 34 61 64 37 -39 45 -41 84 62 -44 54 91 51 -48 79 -50 76 73 59 82 -55 -56 -57 60 100 -60 -61 -62 -63 81 -65 -66 67 -68 -69 92 -71 -72 -73 88 -75 -76 -77 77 94 -80 99 98 97 -84 -85 -86 -87 -88 -89 -90 -91 -92 -93 -94 -95 -96 -97 -98 -99 -100 -101 -102
leaf_value=-0.0012752536003589128 -0.00030189969856816729 0.00050606840324093482 -0.00038657753053452683 0.00023039142462663004 -0.00044858331249618541 0.0026335569945257218 -0.00049632679446174461 -0.00010429261740983793 0.00037010326692160064 0.0016287574201570224 -0.00017594408608770961 0.00061425985345056838 -0.00045584511692314323 0.00088281316455266032 4.4681081819282287e-05 -3.0080744574322841e-06 -0.00033648454731779922 7.6010154759090511e-05 -0.00080519604823842735 -0.00025566031920078424 0.0010060557397280749 -0.00050887559317442819 0.00060826331770483504 0.00087132676846979134 -0.00091866073332919713 0 0.00022657113060167526 0.000110082045437063 -8.0591474722504079e-05 0.00014295116741002312 6.3071215696021556e-05 0.0015933090103282717 0.00027800152889610735 -0.00041729063667668816 -0.00024422918686278512 0 7.9929441964823598e-05 0.00033029211761121963 -0.00016798302896659295 0 8.6937112537651599e-05 0.00032925680588926357 0.00042500690583288837 2.1152681228959204e-06 0.00056728262781885789 -0.00016754120939858135 -0.00068122092120345657 0.00040415297161700985 0 -0.00047903453460444376 0.00013386330000386386 0 -0.00015861131062283094 -0.00015878651871488556 0.00013136529039609206 -7.276134007138608e-05 -1.2882167840362801e-05 -0.0011717936816376339 0.001220917569746336 0.00018007418096956121 -0.00033423014507788951 3.5544592953001922e-05 0.00079799674786552334 -6.7207465558091029e-05 -9.4569006451899245e-05 0 -0.00014500227544597902 0.00027551678780126174 -0.00066067763122950598 -9.5626336646083604e-05 -0.00050974437661848826 -0.00021629580488065033 -0.00025471474538532341 0.00026398804060280204 -7.1406753551979808e-05 1.3308014304762629e-05 -1.0430571834232066e-05 -0.00036322432803079284 0 0.00073947449166675695 0.00016567620104040816 0.00030210440168389451 2.3675832245724064e-05 0.0013450468982684172 0.000371977062575868 0 0.0001203515575914254 0.00019684802293441135 -1.0915264843772237e-05 0.00040261840900406986 -0.00063742189670541879 0.00026074098892309074 -0.00039506135470115559 -0.00027460516494623671 -0.00011367904840591946 0.00099812503168597989 -0.00057303268163158029 0.00058077214603674684 0.00036680814263220616 0.00044297551529291675 -0.00083369093770267288
leaf_weight=200 75 68 99 74 131 97 132 74 93 90 92 68 124 103 69 113 134 90 165 78 63 93 105 241 420 64 63 70 63 107 77 93 64 144 105 64 174 89 99 93 68 107 141 67 99 70 291 86 68 80 101 142 73 84 73 66 69 89 157 221 109 94 102 65 115 80 146 78 76 118 154 217 85 67 77 71 64 107 85 351 90 69 94 72 104 79 65 69 67 64 431 75 233 172 71 122 118 150 149 65 162
leaf_count=200 75 68 99 74 131 97 132 74 93 90 92 68 124 103 69 113 134 90 165 78 63 93 105 241 420 64 63 70 63 107 77 93 64 144 105 64 174 89 99 93 68 107 141 67 99 70 291 86 68 80 101 142 73 84 73 66 69 89 157 221 109 94 102 65 115 80 146 78 76 118 154 217 85 67 77 71 64 107 85 351 90 69 94 72 104 79 65 69 67 64 431 75 233 172 71 122 118 150 149 65 162
internal_value=2.2576e-08 0.000567925 -0.000326085 0.000431585 -0.000152155 0.00150952 -0.000696062 0.000255617 2.5826e-05 0.00216822 -0.000309026 0.000774005 -0.000895854 0.00113276 0.000440743 -0.00044107 -0.000384822 0.000141154 -0.000491826 -3.66915e-05 0.000529908 -0.000494866 0.000295317 0.000664029 -0.000775361 -0.000283217 -0.000125458 0.000123825 3.75831e-05 0.000199306 -0.000183935 0.00127903 0.000580634 -0.000278704 -0.000189955 -6.0177e-05 0.000148803 8.23229e-05 -1.47653e-05 -0.000224067 0.000169192 0.000477538 0.000316303 -0.000144962 0.00034819 1.03987e-05 -0.000826283 0.000620392 -0.00019863 -0.000229716 0.000187998 5.15597e-05 2.13951e-05 -0.000380869 -3.16305e-05 -0.00032527 -0.000372722 -0.00111137 0.00104338 0.000107847 -0.000228846 -7.78741e-05 0.00054867 -0.00032047 0 2.90094e-05 -1.2025e-05 0.000133728 -0.000579399 -0.000265695 -0.000673268 -0.000313549 -0.000101554 0.000104935 2.58836e-05 -7.25607e-05 -0.000298666 -0.00022493 -0.000151958 0.000657242 0.000252995 0.000611171 -3.55599e-05 0.0010925 0.000279139 -6.26533e-05 0 0.00010587 -0.000169715 0.000275283 -0.000597009 0.000454777 -0.000471441 -0.000369706 -0.00028287 0.000878713 -0.000460799 0.000508564 0.000305355 0.000701355 -0.00096718
internal_weight=11394 4160 7234 3637 4927 523 2307 2409 2298 187 2629 1228 1286 336 909 1021 1784 1500 908 1855 701 860 443 881 835 280 866 208 989 1177 636 268 640 924 494 323 896 567 689 559 300 638 210 845 281 611 711 566 553 485 338 512 230 216 292 210 430 451 347 363 178 284 428 330 248 478 320 158 628 466 319 348 219 245 178 163 322 242 190 502 329 321 167 175 172 149 128 133 152 134 530 174 309 265 178 190 252 219 239 416 251
internal_count=11394 4160 7234 3637 4927 523 2307 2409 2298 187 2629 1228 1286 336 909 1021 1784 1500 908 1855 701 860 443 881 835 280 866 208 989 1177 636 268 640 924 494 323 896 567 689 559 300 638 210 845 281 611 711 566 553 485 338 512 230 216 292 210 430 451 347 363 178 284 428 330 248 478 320 158 628 466 319 348 219 245 178 163 322 242 190 502 329 321 167 175 172 149 128 133 152 134 530 174 309 265 178 190 252 219 239 416 251
is_linear=0
shrinkage=0.00097549


Tree=2
num_leaves=94
num_cat=0
split_feature=0 8 0 18 16 94 16 0 19 152 0 0 0 18 16 19 17 16 151 24 8 16 16 17 5 115 113 176 19 142 5 0 183 195 106 88 25 134 11 5 173 143 117 17 134 98 117 61 18 155 125 16 68 170 209 77 19 5 50 18 5 117 163 5 54 44 166 78 17 50 176 3 8 16 48 199 11 116 37 176 121 18 19 65 4 18 3 111 128 60 89 77 16
split_gain=2086.27 520.133 456.386 212.526 137.15 116.402 111.206 48.4378 37.9314 31.4533 30.2477 29.9428 24.88 24.1688 23.2143 21.9231 19.5779 17.9924 15.1773 12.5783 12.087 11.7413 10.833 9.90807 9.51574 8.51275 8.38158 7.78063 7.70849 7.55719 6.53231 6.5068 6.0481 5.82043 5.60977 5.41415 5.11415 5.03856 5.00522 4.02737 3.81525 3.75592 3.7553 4.86543 3.7528 3.87723 3.70267 3.69959 3.51312 3.35722 3.27914 3.27319 3.16962 3.71135 3.16956 3.15245 3.15108 2.90802 2.87088 2.82371 2.82063 2.71079 2.60726 2.58543 2.44998 3.64566 2.47166 2.30334 2.25367 2.23537 2.14406 2.10418 2.08634 2.08004 2.00523 1.88597 1.79796 1.78734 1.70695 1.63205 1.50805 1.4855 1.24184 1.18977 1.05094 1.59651 0.936279 0.91338 1.85418 0.81452 0.728941 0.61406 0.225698
threshold=0.00042754897229270098 0.0013290125130358337 0.00016755902883485867 0.00070762095071769441 0.00035514602969413206 0.073534255479578134 0.00020909115871772156 0.00069600994284093525 0.00074236601221670101 30.084167158213067 0.00029530334706372353 0.0010525787848259178 0.00012250142353943051 0.00054025768872770761 0.00041180954956800505 0.00059293456822693007 0.00025631361024035568 0.00034276197256252213 2084.5674882368612 3658.7150000000006 0.0002392659338723985 0.00089865232691101486 0.00011846824684649523 0.0012704485354341781 7.7066665789661898e-05 0.19501523410562557 0.15049260567971159 -0.049419151852018887 0.0005042974075144933 0.074588331092752633 0.00056934906869922082 0.00057076869374706113 0.014108451606362213 1.2140000462532046 0.034888710438212123 0.12805770583496698 0.15717615701187673 -0.06419290243142943 0.12053555836481282 0.0001159616507786185 0.61379628103864559 14.259999942779542 0.16895035655255911 0.0003597079686538124 0.065637160896749772 0.32985279213359775 -0.50060085543067323 0.12889666008967055 0.00040745376916177524 -0.010824005808049706 1226.549987792969 0.00019002177535360515 0.66471107618935099 0.037237112497846885 66.292000000000016 0.19694883112424627 0.00044099109343228194 0.00011925977350810531 0.1624761044829573 0.00027401371287982254 0.00017034290669862921 0.25057713632887862 -0.019371656775463864 4.7979030618498611e-05 -0.0077166228803850706 0.06705489880003955 0.74473234644005248 13217.805000000002 0.00028592690458376194 0.11779413127874773 0.00062577728195576407 9.4572496879616609e-05 0.00061648222329889067 0.00065149549374964564 0.16656494385641549 1.5457000136375429 0.13250326588217184 -0.26466158071465462 0.062485506959742566 -0.008602780854624301 0.038288316837254317 0.00033262606276458518 0.00078121119406466719 0.15410907294632761 1.429465015173312e-05 0.00031719754488513616 0.00015269149253029508 0.022388577117041092 52.845001220703132 8.5931500000000014 -0.052696172100361136 0.16084234755249591 0.00024266944967709395
decision_type=2 2 2 2 2 2 2 2 2 2 2 2 2 2 2 2 2 2 2 2 2 2 2 2 2 2 2 2 2 2 2 2 2 2 2 2 2 2 2 2 2 2 2 2 2 2 2 2 2 2 2 2 2 2 2 2 2 2 2 2 2 2 2 2 2 2 2 2 2 2 2 2 2 2 2 2 2 2 2 2 2 2 2 2 2 2 2 2 2 2 2 2 2
left_child=2 3 6 7 10 13 12 17 20 -7 16 23 22 -3 24 18 26 31 25 -16 28 49 -1 33 -9 63 59 36 34 35 -15 38 -31 -5 52 40 -19 -18 86 54 -22 -24 43 -37 45 57 -29 -45 -21 -10 -14 -28 -6 76 58 72 71 89 79 87 -13 84 -48 -8 65 -64 -66 -34 -40 -30 -26 78 82 75 -33 -51 -54 -50 -41 90 -53 -47 -35 -71 -20 -86 -2 88 -4 -39 -12 -84 -81
right_child=1 5 4 11 8 9 15 14 21 -11 39 60 50 30 19 -17 37 27 61 48 29 -23 41 -25 70 -27 51 46 69 32 -32 74 67 55 -36 42 -38 44 68 56 -42 -43 -44 47 -46 81 62 -49 77 73 -52 80 53 -55 -56 -57 -58 -59 -60 -61 -62 -63 64 -65 66 -67 -68 -69 -70 83 -72 -73 -74 -75 -76 -77 -78 -79 -80 92 -82 -83 91 -85 85 -87 -88 -89 -90 -91 -92 -93 -94
leaf_value=-0.0013166502133947731 0.00012744400691359862 0.00054749562922910627 -0.00077660439219669642 0.00024925147835594224 -3.2131685215858081e-05 0.0028491424195578757 -0.00051150893913050853 -9.6521665009301606e-05 0.00040040025994186678 0.001762089007514655 0 0.00084274399435061939 -0.00047451749623831708 0.0011769456685601014 0.0010005861025054938 -3.2543181303210626e-06 0 0.00022733542732312042 -0.00096158280349594794 0.00024353497348404639 0 0.0006580563224433335 -0.0010293696784675083 0.00094265441107754409 0.00042894020246379816 0 -0.00051618690373361449 -2.1253303637848024e-05 -7.7431841735990274e-05 0 0.0017226811772902226 0 9.4088674928409586e-05 0.00020042001144441912 5.8485376168883437e-05 -0.00027747555740675021 0.0006883849397238789 -0.00023143648218182635 -0.00033861324784865336 -0.0003300007922133772 -0.00034879160973835842 -0.0005740954916021617 0.00022819488508647737 0.00016400516663856002 0 -0.00024200018158497601 0 -4.9003560463640563e-05 0.00027713247055570229 0.00013927965478308067 -0.00081901859609881898 -8.6984008201352445e-05 -0.00025007767019890145 -4.1288302565964255e-05 -4.3622104756611502e-06 0.00081341280330254158 0.00012915871909158642 -7.2506829430811102e-05 -5.5589528276662369e-06 -0.00039051484562532043 0.0012431040641620358 -0.00033640951645012553 0 -0.00016120322656547979 0.00038675326233205299 0.00028368348772453525 0.00017267576537870072 0.00046456363379078014 -3.0159815365440605e-05 0.00023605016955594631 0.00014689290133994615 0 0.00073818069907334051 0.00028559835421140855 0.00030786541386072205 -7.6050116620117201e-05 -0.00051157265008589079 0.00062268660102378359 -6.2041323756255023e-06 -0.0004791914290371551 -0.00035734443057967944 0 0.00065574174477709671 0 -0.0007258527883727908 -0.00050073214122654569 -2.2417982128337874e-05 -0.00037548823961051686 -0.00044752779973333909 -0.00043932125952850611 -0.00022641222679538391 0.00029681589528075336 -0.00025278657261316138
leaf_weight=292 70 68 304 74 112 97 151 68 93 90 66 108 107 173 103 113 87 99 66 91 82 105 437 241 148 66 134 63 97 112 95 70 64 66 66 66 81 117 105 68 84 66 101 173 63 64 94 181 65 99 320 106 228 94 108 235 78 64 78 130 239 80 150 75 212 91 231 94 80 65 108 93 119 67 70 74 98 326 64 99 85 70 82 64 295 239 84 64 91 453 82 64 140
leaf_count=292 70 68 304 74 112 97 151 68 93 90 66 108 107 173 103 113 87 99 66 91 82 105 437 241 148 66 134 63 97 112 95 70 64 66 66 66 81 117 105 68 84 66 101 173 63 64 94 181 65 99 320 106 228 94 108 235 78 64 78 130 239 80 150 75 212 91 231 94 80 65 108 93 119 67 70 74 98 326 64 99 85 70 82 64 295 239 84 64 91 453 82 64 140
internal_value=6.14387e-08 0.000615254 -0.000353185 0.000467676 -0.000164912 0.00163424 -0.000753622 0.000277242 3.43684e-05 0.00234636 -0.000329616 0.000838148 -0.000982244 0.00122656 0.000477747 -0.000492617 -0.000410576 0.000153193 -0.000545584 0.000611409 -3.43514e-05 0.000322506 -0.00110669 0.000719069 0.000224642 -0.000311205 -0.00052873 0.00023519 -0.000132317 4.60142e-05 0.00138463 -1.36235e-05 0.000201271 0.000628915 -0.000197993 -9.45193e-06 0.000455998 -0.000288782 -0.000102488 -0.000155949 -0.000185127 -0.000977215 3.92003e-05 0 -0.000315158 -0.000336563 0.000183395 4.43194e-05 0.000520331 0.000205248 -0.000741624 -0.000358129 -0.000236982 -0.000282527 -0.00021155 0.000671814 -3.82145e-05 -0.000375961 -0.000251469 -0.00061639 0.00112949 -0.00064062 0.000204869 -0.000412134 0.000228616 0.000111474 0.000283734 0.000338638 -0.000225845 2.4585e-05 0.000324851 -0.000113189 0.000559761 0.000113734 0.000174311 2.5126e-05 -0.000340387 0.000574996 -0.000201904 -0.000291176 -0.000227271 -0.00012169 0.000441618 0.000130863 -0.000674824 -0.000632239 2.09337e-05 -0.000672053 -0.000710448 -0.000403342 -0.000150181 0.000524529 -0.000362528
internal_weight=11394 4160 7234 3637 4927 523 2307 2409 2219 187 2708 1228 1222 336 909 1085 1832 1500 972 585 1781 438 795 881 324 292 914 1021 824 957 268 479 270 640 598 687 180 918 339 876 166 503 521 420 831 768 841 354 482 333 427 325 532 420 573 566 303 634 465 589 347 680 778 226 684 241 443 158 185 226 256 225 331 240 140 173 326 391 132 387 191 134 212 129 600 534 154 459 395 570 148 146 239
internal_count=11394 4160 7234 3637 4927 523 2307 2409 2219 187 2708 1228 1222 336 909 1085 1832 1500 972 585 1781 438 795 881 324 292 914 1021 824 957 268 479 270 640 598 687 180 918 339 876 166 503 521 420 831 768 841 354 482 333 427 325 532 420 573 566 303 634 465 589 347 680 778 226 684 241 443 158 185 226 256 225 331 240 140 173 326 391 132 387 191 134 212 129 600 534 154 459 395 570 148 146 239
is_linear=0
shrinkage=0.00108964


Tree=3
num_leaves=97
num_cat=0
split_feature=0 8 0 17 18 17 1 29 19 95 18 18 17 19 8 233 8 19 15 8 15 8 17 154 18 30 0 0 123 134 63 0 138 159 17 27 84 86 189 1 161 32 194 101 149 26 48 131 106 29 196 88 198 142 45 133 15 150 196 230 83 32 97 5 8 19 19 165 32 82 50 144 197 5 149 86 71 62 73 33 164 95 71 17 5 97 15 17 18 159 47 63 72 36 9 1
split_gain=1970.56 500.309 437.985 194.701 123.422 118.322 86.6872 52.8642 40.5368 29.9704 29.841 27.0939 22.4579 21.9084 20.5367 20.413 16.0056 12.3217 12.2039 11.1689 11.0647 10.5079 9.53238 9.3196 7.59123 6.94073 6.75674 6.42654 6.29761 5.59713 5.57914 5.56988 5.47014 5.41846 5.33851 5.13954 4.74816 6.04456 4.67487 4.65498 4.57561 4.49433 4.21849 4.6891 4.2126 4.10509 4.07944 3.95663 3.84697 3.75762 3.69235 3.62543 3.5645 4.62691 3.11086 2.99851 2.92178 2.89519 2.85876 4.09962 3.84624 2.69601 2.60793 2.53698 2.44826 3.42904 2.43917 2.42487 2.42141 2.39297 2.3866 2.31526 2.21003 2.13452 2.12166 2.10574 2.03177 2.60693 1.97461 1.78012 1.69483 1.65347 1.64725 1.42842 1.3724 1.12662 0.985375 0.958583 0.899552 0.871756 0.67895 0.626231 0.509447 0.45627 0.416515 0.3749
threshold=0.00042754897229270098 0.0013290125130358337 0.00018593276320580255 0.00056063081233267119 0.00038360574079966708 0.00021610289034041489 0.0019492487694750466 0.24990309185904436 0.00074236601221670101 0.29961009206457173 0.0009957806237020808 0.00031719754488513616 0.00023315715761720819 0.0004574815414433862 6.3853237792303562e-05 6.0850000000000088 0.00057410966498100532 0.00067128710831644599 0.0028540909750951536 0.00071403104060222889 0.00020165008131626291 0.00026699217069053416 0.00020741116955516037 -0.003284434594750149 0.00095193416687595932 0.12194144325480653 0.00029794962076047491 0.00022673332528248773 17.020000457763675 -0.050306471920809268 -1.3440147754244778 0.00083232620093078881 1.0711779178075536 25.789235517164471 0.00016454892851737606 -0.052579168595086469 0.13202200931245808 0.1192210721890755 -0.0051925687808304878 0.00044267697131247205 -0.0051181916375291478 0.13423798748042937 0.10842000218978932 0.096091807147100264 -0.018819472755953883 -0.038028177332975928 0.19883241128080523 1.3355000019073489 0.0278024784448778 0.11977077449396532 0.031524360244606531 0.1454820122059868 0.012991850336912832 -0.096503859252586074 0.026640962246720478 -0.0037754062374438413 0.00024238875961007936 2130.7700195312505 0.024521190120192441 0.010000000000000004 0.16917505463636082 0.16173372442766387 0.15307097790768207 9.6952627027212788e-05 0.00037445112641800691 0.00053282416538507986 0.00040574072757702632 97.10886383056642 0.13423798748042937 0.055565369617719094 0.13720297555052072 21.15454552390359 -0.027763545520600976 5.4104250498091883e-05 0.017067464998624417 0.14449289181645908 -0.25640474557684378 0.0013886923718870836 0.27299287127448196 1682.0200000000002 100.31899948120119 0.14101284786886017 -1.0000000180025095e-35 0.00046472813258868181 8.8992293472365947e-05 0.12904685213876546 0.00039032748838128988 0.001496564765247162 0.00027525985836009684 19.232794452810626 0.17022920232001462 0.027545387727664482 -0.13642788599058214 0.202457749934805 4.0026415138382959e-05 0.0002888761357065644
decision_type=2 2 2 2 2 2 2 2 2 2 2 2 2 2 2 2 2 2 2 2 2 2 2 2 2 2 2 2 2 2 2 2 2 2 2 2 2 2 2 2 2 2 2 2 2 2 2 2 2 2 2 2 2 2 2 2 2 2 2 2 2 2 2 2 2 2 2 2 2 2 2 2 2 2 2 2 2 2 2 2 2 2 2 2 2 2 2 2 2 2 2 2 2 2 2 2
left_child=2 3 5 11 12 14 9 10 21 17 16 22 26 20 -1 19 61 -3 -8 42 41 23 -2 35 33 74 49 48 32 -22 -9 47 80 38 57 67 -23 86 -10 63 -34 72 43 -13 -45 -26 58 -12 92 81 56 82 53 -39 -21 -27 -42 -16 59 60 -25 64 -40 -24 -5 -66 -55 -6 -37 -65 -46 -18 -7 -74 -15 88 -30 -78 -32 -17 -29 -4 -28 -48 -51 -54 -38 -19 -31 -57 -61 -77 -14 -36 -94 -44
right_child=1 6 4 7 8 13 18 30 24 -11 31 15 27 25 34 79 71 87 -20 54 29 36 39 46 45 55 51 28 76 75 78 -33 40 -35 93 68 37 52 62 -41 50 -43 95 44 70 -47 83 -49 -50 84 -52 -53 85 66 -56 89 -58 -59 -60 90 -62 -63 -64 69 65 -67 -68 -69 -70 -71 -72 -73 73 -75 -76 91 77 -79 -80 -81 -82 -83 -84 -85 -86 -87 -88 -89 -90 -91 -92 -93 94 -95 -96 -97
leaf_value=-0.0011708186662181988 -0.00031438594239800483 0.00059529189659679818 -0.00061430203877019729 4.0082595509027215e-05 -0.0002251895526472101 -0.00041806769238143706 0.001748168458650951 0.00076381961348727444 6.1212732413346615e-05 0.0019261131809345706 0.00032899475389503146 -1.5522057186790159e-05 -0.00052201394553670491 -0.00016710941402331412 -0.00058388801909085039 0.00072607293926014007 0.00066845697855505665 0.0010181885863050951 0.0026285981509639308 0.000618774241992815 -4.417435906725799e-05 0.00032898012750309482 -0.00015858090795895606 -0.00020319009395329798 0.00074335433987989929 5.0019712494075197e-05 -0.00048101579001299572 -0.00012301211627439688 -0.00015173381909929613 -0.00069590682435231963 0.00098293183798502711 0.00095706771890809509 0 0 -0.00073764583214204309 2.1252223041279032e-05 -0.00024818356910588922 -4.8730980373593448e-06 0.00018770059366014687 0.00026509188553751236 -0.00038673630617523652 -0.00027387486139895988 -6.5453392154554067e-05 0 0.00015790662618915999 0.00029144380959801125 -0.00010890385803095427 0.0007450762770778109 -6.1742238213654334e-05 -0.00040839641503838717 0 0 -0.00013682154798799051 5.9065972532474357e-06 0.00026349706705628166 -0.00025911479943983628 -0.00020822283312710809 -0.0009592527586443167 0 -0.0004722254448797724 4.0517885437816551e-05 0.0004837676294044182 0.00057172745759545074 -2.1165776419940383e-05 0.0001185506386957856 0.00041666650780950853 0.00029836268589897649 1.8116783847121417e-05 0.0003591353704579812 0.00020256525890281925 0.00030706901475082582 0.00031147997901220993 -0.00079433311002090497 -0.00045193152884136152 -0.00055201735305938048 -0.000372049238864422 -3.6541989103773998e-05 0.00021566487519935609 0.0015306220583580484 0.00033319149829909056 0.00010989387062517693 -0.00028462650940638855 -0.00013024415857681887 9.6080925931606143e-05 -0.00011178719165372191 2.1994084613678971e-05 0 0.0014392939178266208 -0.00042754708151445194 -2.1437890132962559e-05 -0.00017615358480544069 -0.0001192368079234742 -0.00019454092118654598 -0.00047165820229407008 -0.00044202569381533545 4.1873970472723102e-05
leaf_weight=269 98 76 340 75 64 90 75 69 103 66 67 79 115 63 81 110 423 139 74 92 63 69 90 260 69 78 68 69 71 89 69 250 78 79 396 76 69 98 78 81 278 64 67 70 408 90 73 227 71 138 72 68 64 69 114 80 390 432 69 100 63 169 73 101 107 174 170 69 63 72 351 63 311 81 75 118 72 69 86 63 63 64 65 71 63 104 63 89 231 69 63 68 117 96 65 64
leaf_count=269 98 76 340 75 64 90 75 69 103 66 67 79 115 63 81 110 423 139 74 92 63 69 90 260 69 78 68 69 71 89 69 250 78 79 396 76 69 98 78 81 278 64 67 70 408 90 73 227 71 138 72 68 64 69 114 80 390 432 69 100 63 169 73 101 107 174 170 69 63 72 351 63 311 81 75 118 72 69 86 63 63 64 65 71 63 104 63 89 231 69 63 68 117 96 65 64
internal_value=-2.94088e-06 0.000563218 -0.000327738 0.000426646 -0.000128542 -0.00065227 0.00151384 0.000671537 4.72918e-05 0.00122386 0.000599144 0.000190477 -0.000293352 -0.000448825 -0.000885776 0.00026027 0.000485054 0.00105951 0.00220967 0.000209622 -0.000523039 -2.71496e-05 -2.5255e-05 -9.83211e-05 0.00030837 -0.000212221 -0.000437246 -0.000215188 -0.000171154 -0.000404115 0.00115796 0.000804534 -0.0002071 0.000201117 -0.000805887 5.40108e-05 6.56198e-05 3.14217e-05 0.000275222 4.66128e-05 -0.000238607 -0.000640357 0.000160528 0.000185566 0.000209087 0.000510275 -0.000162765 0.000662542 -0.000344416 -0.000498045 -0.000263665 -0.000236275 8.749e-05 0.000150302 0.0004397 -8.0647e-05 -0.000287922 -0.000907026 -0.000202964 -0.000230883 -0.000144472 0.000344352 0.000397279 -6.9404e-06 0.000268022 0.000316004 0.000229044 -7.18027e-05 0.000200381 5.10673e-05 0.000231646 0.000629615 -0.000681524 -0.000732797 -0.000402475 -0.00044179 0 6.12592e-05 0.00131012 0.000603881 0 -0.000571018 -0.000336746 0 -0.000333401 -1.70053e-05 -0.000155716 0.00119841 -0.000513473 -0.000173293 -0.000379954 -0.000299044 -0.000399829 -0.000693088 -0.000302776 0
internal_weight=11417 4158 7259 3639 4505 2754 519 1779 2169 370 1555 1860 2336 1480 1274 1418 1011 304 149 1245 1115 1677 442 971 492 365 806 1530 1162 569 224 544 950 333 1005 272 706 637 254 344 818 546 1039 908 829 159 699 294 368 605 740 201 505 337 206 227 668 513 555 486 323 525 151 263 356 281 239 133 139 173 759 486 482 392 138 506 212 141 155 173 132 404 133 144 201 168 132 228 320 149 163 186 297 492 182 131
internal_count=11417 4158 7259 3639 4505 2754 519 1779 2169 370 1555 1860 2336 1480 1274 1418 1011 304 149 1245 1115 1677 442 971 492 365 806 1530 1162 569 224 544 950 333 1005 272 706 637 254 344 818 546 1039 908 829 159 699 294 368 605 740 201 505 337 206 227 668 513 555 486 323 525 151 263 356 281 239 133 139 173 759 486 482 392 138 506 212 141 155 173 132 404 133 144 201 168 132 228 320 149 163 186 297 492 182 131
is_linear=0
shrinkage=0.00103197


Tree=4
num_leaves=103
num_cat=0
split_feature=0 8 0 17 18 17 1 101 19 94 18 18 17 15 233 8 8 15 19 8 23 23 8 17 19 165 0 17 0 81 15 0 4 63 97 115 5 63 72 17 84 108 71 1 86 106 15 194 166 156 189 86 85 65 115 72 159 83 102 57 71 43 23 45 74 144 166 143 5 198 161 86 150 15 74 198 50 7 19 23 163 11 5 43 27 162 58 23 52 34 198 85 173 206 233 175 15 72 155 172 18 36
split_gain=1852.61 469.77 411.464 182.992 116.376 110.586 80.9663 46.8339 38.1927 32.0788 25.5023 24.9097 21.0828 20.4854 19.1516 19.0313 11.6274 10.9906 10.8296 10.4881 10.0661 10.0211 8.97205 8.9321 8.13785 7.90459 7.27463 7.22547 6.96646 5.75312 5.71982 5.62758 5.62489 5.59114 5.32876 5.307 5.3419 5.24369 5.1933 4.83857 4.74541 4.56778 6.73701 4.37614 4.14771 4.10228 3.7267 3.63084 3.451 3.41984 3.14683 3.0748 3.0338 3.02322 3.01005 3.00349 2.97553 5.29922 3.52049 2.93773 2.87734 2.87679 2.8645 2.82709 2.74824 2.64574 2.58703 2.55288 2.53491 2.86146 2.53424 2.53159 2.52818 2.49463 2.47704 2.27232 2.23534 2.04657 2.03456 1.98431 1.95743 1.90677 1.78184 1.70725 1.6902 1.56571 2.01904 1.50989 1.37529 1.36741 1.22386 1.15024 1.07742 0.983509 0.85889 0.737011 0.720165 0.67386 0.536906 0.376623 0.303292 0.284921
threshold=0.00042754897229270098 0.0013290125130358337 0.00018593276320580255 0.00056063081233267119 0.00038360574079966708 0.00021610289034041489 0.0019492487694750466 0.2462429490377491 0.00074236601221670101 0.075697687477650752 0.00031719754488513616 0.00086884039790193813 0.00022711696191084535 0.000224231671007566 6.0850000000000088 6.3853237792303562e-05 0.00048969114222708243 0.0028540909750951536 0.00067128710831644599 0.00071403104060222889 0.1453014722570434 0.13647719527517535 0.00025945016421483779 0.00020741116955516037 0.0005517212176337369 94.020000631159022 0.00092367883513904845 0.0012129716006064252 0.00022673332528248773 0.5514307960863376 0.00024406047870967619 0.00029642745419254689 9.17844004277236e-05 0.45051715400644232 0.18174008679157536 0.20266336940787935 4.7644981551119402e-05 -1.3440147754244778 0.17246463771020884 0.00016454892851737606 0.13202200931245808 -0.54868032729076499 -0.036175286553973403 0.00044267697131247205 0.17926901109813026 0.0278024784448778 0.0005269244007131466 0.10635324078183478 0.8815484620861348 0.012369798071386714 -0.0042338120251911174 0.12958787776543099 0.038380254809889373 0.21466316101548363 0.13981711066433419 -0.081063528324427855 12.726694827779124 0.17429885626722311 0.11335143895155982 0.18934263525899328 0.081901058497091853 0.18640632416921302 0.11571123203856391 0.026640962246720478 0.81000560364951146 18.193636504086587 0.79007782425561357 14.67799987792969 5.9283344325108507e-05 -0.059428420823130483 -0.00032090627259844158 0.12069351473301754 2130.7700195312505 0.00056525533194073366 0.89106788378055957 -0.0030903007115314837 0.12269287584914605 375.12500000000006 0.00081760445301273809 0.1225315023278552 -0.0010941632007541141 0.08098585289491303 0.0001437487969580815 0.19036166869319038 -0.099604940530889169 0.0070743125503741795 0.031605212704582837 0.099872887228264734 0.12202676728554636 0.095826408741844532 0.008327324144996916 0.046810943262456092 0.48023221653176118 50.20000000000001 -1.0339999999999987 0.0083092444344913131 0.00023156728974791662 -0.39865983037241726 0.0053246261716765443 31.400647076693449 0.00039617751564252184 0.22620651712941117
decision_type=2 2 2 2 2 2 2 2 2 2 2 2 2 2 2 2 2 2 2 2 2 2 2 2 2 2 2 2 2 2 2 2 2 2 2 2 2 2 2 2 2 2 2 2 2 2 2 2 2 2 2 2 2 2 2 2 2 2 2 2 2 2 2 2 2 2 2 2 2 2 2 2 2 2 2 2 2 2 2 2 2 2 2 2 2 2 2 2 2 2 2 2 2 2 2 2 2 2 2 2 2 2
left_child=2 3 5 10 12 15 9 11 21 18 23 16 31 20 19 -1 44 -8 -3 32 33 22 56 -2 35 37 65 34 45 30 67 54 73 68 50 36 79 -9 62 72 -24 -23 61 66 51 97 49 80 71 -44 -10 -5 83 89 87 -56 -6 58 -58 -36 -33 -43 95 -21 -50 78 70 94 69 -7 -25 -42 -17 76 -52 -73 -12 -60 -13 100 -18 -64 -16 -34 -38 86 -40 -4 -69 -54 -26 -72 -31 -80 -30 -32 -57 -14 -99 -20 -15 -41
right_child=1 6 4 7 8 13 17 25 27 -11 14 26 28 24 82 39 47 -19 99 63 -22 41 40 43 90 -27 -28 -29 29 92 38 60 52 -35 59 -37 84 -39 85 101 48 42 46 -45 -46 -47 -48 -49 64 -51 74 -53 53 -55 55 96 57 -59 77 -61 -62 -63 81 -65 -66 -67 -68 88 -70 -71 91 75 -74 -75 -76 -77 -78 -79 93 -81 -82 -83 -84 -85 -86 -87 -88 -89 -90 -91 -92 -93 -94 -95 -96 -97 -98 98 -100 -101 -102 -103
leaf_value=-0.0011580961375334735 -0.00031096971598173112 0.00051177259094302809 -0.00073086988367173115 0.0003095146171497201 -0.00038676124163473507 -0.00037545285034380174 0.0017291722245030856 0.00076357156301247063 0 0.0017563771208440684 -0.00017704865249697473 0.00038372200731459698 -0.00058825865849705769 -0.00064829224491330152 0.00033344150513872682 -0.00057754329647750793 0.00042737159578976167 0.0026000348571464309 0.0012560493101578219 0.00061205043505582464 -0.00014481434801311054 -0.00011327877591657336 0.00028345704653209624 0.00021155421907209282 2.4308546025961643e-05 0.00061265729432568184 0.00092821797852429605 0.00065876849607147991 -0.00019841325999595289 -4.9884498370545196e-05 -0.00039584670490307497 -0.00035598401761457343 0.00016234168885702612 -0.00024563965333613999 0.00059894802450964288 -6.176609385233305e-06 -0.0003479711749408606 0.001325601812867159 -9.2078060895599207e-06 -0.00072829905199782875 -9.6692213368012293e-05 -0.00019165500214193002 0.00026839166922731114 0.00026221130405634183 0.00047355515187876278 -6.0508375249525589e-05 0.00050471198258676686 0.00025264913955759776 0 0 5.6451993248391863e-06 1.4608824665447273e-05 6.1224267400791988e-05 2.7737775936140961e-05 -0.00057222310119416141 -0.00031315144646543836 0 6.8453621641396403e-05 -0.00026860439747408731 0.00021940466545848099 -2.8385721864942967e-05 8.6491553191491254e-05 0 0.00026063382272309345 -0.00022807930796693918 0.00035757011535592786 -0.00019646132797544784 -0.00023972359625537234 -0.00041915146873994886 -0.00074516476617413269 -0.00014072593263339731 0.00027354152854369197 -0.00094882918506715712 0.00020282479315406033 0.00034655794708562758 3.2777175426240514e-06 3.553155318182154e-05 -3.0170065862924426e-05 0.00045916746339036093 -0.00029377827232363404 0.00068408864156692753 -0.0001792522603507189 0.00072669139640670988 -6.4717197735488638e-05 -7.3336500867026121e-05 -0.00014493291227746103 0.00020035088906780979 -0.00046153848580432043 0 0.00029285026303790856 -0.00014772106674479282 3.5765739634596917e-05 0.00012491755062211404 0.00081921365165418174 -0.00044645413188318774 -0.00011986541279666711 -5.9226051120892335e-05 -0.00023434069675149261 -0.00046548828553917267 0.00081030591255041163 -0.00034103400995546802 -0.00046088208963428607
leaf_weight=269 98 68 142 87 76 71 75 64 100 104 81 68 74 151 66 81 157 74 133 92 78 79 66 68 64 66 238 68 91 63 108 113 64 73 70 63 78 162 109 400 66 65 110 81 89 74 63 80 67 76 67 126 75 105 75 87 103 99 293 106 77 108 105 114 120 86 67 68 120 424 64 73 432 63 81 124 119 89 66 116 272 150 107 63 104 63 66 195 63 469 69 64 68 218 173 64 65 155 88 65 69 92
leaf_count=269 98 68 142 87 76 71 75 64 100 104 81 68 74 151 66 81 157 74 133 92 78 79 66 68 64 66 238 68 91 63 108 113 64 73 70 63 78 162 109 400 66 65 110 81 89 74 63 80 67 76 67 126 75 105 75 87 103 99 293 106 77 108 105 114 120 86 67 68 120 424 64 73 432 63 81 124 119 89 66 116 272 150 107 63 104 63 66 195 63 469 69 64 68 218 173 64 65 155 88 65 69 92
internal_value=-2.96088e-06 0.000557665 -0.000324599 0.000422467 -0.000127388 -0.000645857 0.00149851 0.000664958 4.69448e-05 0.0012115 0.000188552 0.000583619 -0.000290838 -0.000444811 0.000257713 -0.000876515 0.000447278 0.00218644 0.000984599 0.000207467 -0.000570351 -2.67902e-05 -8.16727e-05 -2.49806e-05 -0.000304962 0.00106654 0.000741731 0.000305772 -0.000217046 -0.00017071 -0.000196855 -0.000440771 0.000158707 -0.000613233 0.000240458 -0.000359906 -0.000395805 0.00118277 -0.000127292 -0.000797476 1.60436e-05 9.46723e-05 0.000142344 4.57687e-05 0.000259249 -0.000348752 0.000253757 0.000551591 -1.49788e-05 0.000148922 0.000118518 0.000152383 0.000204307 0.00023456 -0.000500977 -0.000358542 -0.000163659 -0.000128308 -0.000176078 0.000391321 -0.000242637 0 -0.000196835 0.000435486 -0.000130604 0.000631976 -6.86499e-06 -0.000304629 -0.000650868 -0.000699588 3.91236e-05 5.32064e-05 -0.000897396 1.01341e-05 0.000217153 0.000122153 -3.21175e-05 -0.00022271 0.000688537 -0.000484762 0.000598738 -0.000102932 0.00059799 2.06575e-05 -0.000211307 0 4.87447e-05 -0.000585972 -0.000134792 0.000267698 -3.72017e-05 -2.36584e-05 1.26907e-05 0.000748531 -0.000374929 -0.000314605 -0.000228836 -0.000404402 -0.00033323 0.00112835 -0.000568694 -0.000685793
internal_weight=11417 4158 7259 3639 4505 2754 519 1779 2169 370 1860 1487 2336 1480 1418 1274 811 149 266 1245 766 1677 1176 442 714 292 676 492 1582 1191 1060 754 1039 688 424 581 518 226 665 1005 516 501 422 344 302 391 249 509 450 186 248 213 776 649 564 227 660 584 485 176 190 173 427 206 187 438 263 395 615 495 196 263 513 263 148 197 200 382 352 336 429 255 173 127 182 238 175 337 131 544 133 128 131 284 264 172 152 317 243 198 220 492
internal_count=11417 4158 7259 3639 4505 2754 519 1779 2169 370 1860 1487 2336 1480 1418 1274 811 149 266 1245 766 1677 1176 442 714 292 676 492 1582 1191 1060 754 1039 688 424 581 518 226 665 1005 516 501 422 344 302 391 249 509 450 186 248 213 776 649 564 227 660 584 485 176 190 173 427 206 187 438 263 395 615 495 196 263 513 263 148 197 200 382 352 336 429 255 173 127 182 238 175 337 131 544 133 128 131 284 264 172 152 317 243 198 220 492
is_linear=0
shrinkage=0.00105394


Tree=5
num_leaves=96
num_cat=0
split_feature=0 8 16 16 0 19 1 0 0 16 94 16 135 16 0 48 23 19 18 8 19 15 16 97 75 7 16 70 118 23 18 18 99 0 4 16 174 4 161 15 57 8 171 167 171 168 166 176 129 145 155 89 153 71 119 163 114 35 8 189 166 8 194 38 18 8 66 139 193 18 85 8 76 48 79 131 161 65 199 63 7 52 63 168 121 1 64 65 18 143 29 104 141 89 172
split_gain=1742.75 440.925 397.883 177.179 95.475 85.9203 75.6105 64.7067 34.1256 33.2004 29.7537 21.168 20.0323 19.0136 17.0417 15.3801 13.7374 13.1603 11.2988 10.0838 9.98815 9.86673 9.29269 8.98301 8.73612 8.55083 7.83842 7.80796 7.43948 7.39953 7.01829 6.77473 6.36271 6.2087 6.12443 5.85888 5.32885 5.30054 5.2453 5.17849 4.92777 4.89015 4.85693 4.5802 4.53994 4.39054 4.21826 4.07706 3.95114 3.47067 3.38078 3.58036 3.30272 3.14984 3.10699 2.74777 2.68324 2.66913 3.36582 3.71083 2.66324 2.58764 3.05331 2.53024 2.52587 2.47447 2.3703 2.36553 2.32037 2.31793 2.24599 2.93679 2.24279 2.21538 2.11569 2.01823 1.93981 1.8652 1.8346 1.82251 1.81161 1.60717 1.23819 1.15496 0.997724 0.972171 0.900097 1.20601 0.855361 0.781436 0.573809 0.400486 0.241812 0.153358 0.124721
threshold=0.00042754897229270098 0.0013290125130358337 0.00023823700030098249 0.00064039987431044017 0.00013669571545172428 0.00068579299527443216 0.0019492487694750466 0.00021839321301142902 0.00083232620093078881 0.00030625806197214167 0.075697687477650752 0.00012691320406324938 -0.17575415941753636 0.00065683656609252089 0.00023291777544102662 0.240183228658539 0.11763126383073226 0.00074236601221670101 0.00040745376916177524 0.00057410966498100532 0.00067128710831644599 0.0028540909750951536 0.00019127770335585845 0.18315937796220613 0.74590288157519391 79.330000000000013 0.00016146124552015982 0.61659997790382326 0.32882668357101741 0.14467632352822554 0.00032457880115574418 0.00037458858569265206 0.12332580044299275 0.00013361220065034963 0.00021500835082945057 0.00045284455545362758 43.105001449584968 8.4611044972079846e-05 -0.0045444723066066029 0.00023319933004324012 0.13490476723465575 0.00024463564895863926 27.708057594299323 27.405989646911625 26.241078948974614 -0.0042329617343722275 0.72776885412873915 -0.0015124322383148747 0.02400000020861626 0.65726461238960809 -0.012139008561960147 -0.22627615254318059 1229.2500000000002 0.10495834035110223 0.14292704011619448 -0.0080099487583441594 4781.2250000000013 -0.22930868006292565 0.0001733544557518887 -0.0066878709571228405 1.0791291864882957 0.00030529113116320401 0.080373782669607763 0.15745747426949017 0.00037900163187068345 4.8980017374046397e-05 0.094893504532583592 12.210000038146974 2.3597499836574909 0.0009957806237020808 0.046670010782952541 0.00017811182480370364 0.37917321606703064 0.17951228561778229 0.13053623616609913 1.2915000319480898 -0.0029578607588428593 0.086475575816982703 1.6292000174522403 0.32435327368022265 82.210000000000022 0.12481319654946192 -0.1968091672183562 -0.0082051422205965622 0.036821167961106599 8.2469179553199185e-05 0.37822541594690112 0.12866985635468853 0.00043798992464410608 14.403999996185304 0.10838286586486147 0.023981959727701379 -0.10964592482382185 -0.16381250904628233 31.400647076693449
decision_type=2 2 2 2 2 2 2 2 2 2 2 2 2 2 2 2 2 2 2 2 2 2 2 2 2 2 2 2 2 2 2 2 2 2 2 2 2 2 2 2 2 2 2 2 2 2 2 2 2 2 2 2 2 2 2 2 2 2 2 2 2 2 2 2 2 2 2 2 2 2 2 2 2 2 2 2 2 2 2 2 2 2 2 2 2 2 2 2 2 2 2 2 2 2 2
left_child=2 3 4 9 11 7 10 18 17 22 20 65 48 36 26 69 31 28 24 37 -3 -8 -2 81 -4 82 -6 32 40 33 43 76 -18 -26 55 44 -7 56 -28 -27 -5 73 -13 -16 -29 -17 52 -32 -11 -46 88 -52 -37 85 -51 -24 -14 -38 -59 -60 -53 62 -48 -31 -21 -1 -43 -68 83 84 -35 -72 -57 90 -66 -19 -9 -78 -74 92 -61 -15 -20 -45 -10 -41 87 -79 -39 -69 -33 -42 -40 -76 -22
right_child=1 6 5 8 14 13 21 16 15 12 -12 42 19 23 30 45 27 75 25 64 94 -23 34 -25 29 39 38 35 -30 63 47 41 -34 70 -36 46 57 50 79 53 91 66 -44 68 49 -47 61 -49 -50 54 51 60 -54 -55 -56 72 -58 58 59 80 -62 -63 -64 -65 74 -67 67 89 -70 -71 71 -73 78 -75 93 -77 77 86 -80 -81 -82 -83 -84 -85 -86 -87 -88 -89 -90 -91 -92 -93 -94 -95 -96
leaf_value=-0.0015237799596549658 -0.0003301758762227964 0.00053752389369077051 0 3.8823738092270588e-05 -0.00078263124772076946 -0.00017524043397756188 0.0018161804795937999 -6.6232018991437287e-05 0.00087883180438607679 0.00097889070679356427 0.0018447542949741158 -0.00043224906479428078 0.00015726663270787219 0.00040115856437651897 -7.5341713655393823e-05 0.0015172235846664963 0 0.00036723576294877945 -0.00015626965418688376 0.00019673594286109491 0.0013192510354891065 0.0027308631264635927 -0.00017993760826197304 0.00079300768517857119 -0.0007285272725227564 -0.0005717991753583574 -0.00017940737149501745 -0.00034677204971419681 0.00070663889098330861 0 7.5516222028521165e-05 -0.000420701019807571 0.0004611688334809748 -0.0005568893404291885 0.00028516184981434317 0.0003362857743048124 -1.0180236223964545e-05 0.00020940751659335896 -0.00033437329627532318 -0.00044278070285626287 0.00021391281046180964 0.00019035446789591497 -0.00085719330171094357 -0.00024065414326621376 -0.00030239987792383109 0.00099509505668219744 0 -0.00027038405568730723 0.00044747985017519926 0.0001564927611064009 0 0.00026215608227520113 0 0 -6.6451567503079297e-05 -9.18699855325041e-05 -9.3590025024478587e-05 0 0 0.00056123227965912935 0 0.00014028764307565504 -0.0003002563639918532 -0.00036024282228024892 0.00070639064309618914 -0.0010837830205219134 -0.00020289132022197897 0.00012258300877702517 -0.00020748151835336314 0.00096794199852167208 -0.00040698572273088957 -4.3864409152329325e-05 0 0 0.0001873095309317601 0.00074627753373236456 -0.00012702151416096519 -0.00057768030411704634 0.00028078498715597698 -0.00031684312509603328 0.00017787730017051922 6.3031644231298218e-05 2.9679388564743537e-05 -0.00056634311816324532 0.00054269323727744131 -0.00010678667075118519 -0.00015559029746727135 -0.00026084176745212262 0.00050312783838472538 -2.3575552711167396e-05 -0.00013204286897274667 0.00054964268419991627 -0.0006395698901419701 0.00043118272433459594 0.00085107878019753962
leaf_weight=84 102 68 64 117 315 72 75 83 86 71 104 80 104 84 72 93 107 66 63 121 133 74 103 98 233 109 87 95 80 70 65 73 77 265 111 99 63 90 64 63 67 69 644 65 75 144 114 87 83 89 104 381 85 63 545 68 109 70 66 64 88 70 68 68 79 301 89 66 88 167 211 64 65 75 72 439 97 109 65 100 81 66 121 280 180 64 65 95 102 93 74 63 393 219 65
leaf_count=84 102 68 64 117 315 72 75 83 86 71 104 80 104 84 72 93 107 66 63 121 133 74 103 98 233 109 87 95 80 70 65 73 77 265 111 99 63 90 64 63 67 69 644 65 75 144 114 87 83 89 104 381 85 63 545 68 109 70 66 64 88 70 68 68 79 301 89 66 88 167 211 64 65 75 72 439 97 109 65 100 81 66 121 280 180 64 65 95 102 93 74 63 393 219 65
internal_value=-3.11782e-06 0.000586543 -0.00034143 0.000444451 -0.000686946 -0.000132888 0.00157512 -0.000198632 0.000746471 0.000230303 0.00127348 -0.000949352 0.000310617 0.000244262 -0.00050439 0.000948223 -8.16222e-05 0.000579195 -0.00038946 0.000265138 0.00103509 0.0022973 -1.5513e-05 0.000498281 -0.000464627 -0.000229444 -0.000607482 -6.83335e-06 0.000373197 -0.000493529 -0.000347821 -0.000185366 0.000209351 -0.000540758 5.26784e-05 -4.21388e-05 8.32111e-05 0.000190143 -0.000515599 -0.000349724 0.000249002 -8.80497e-05 -0.000815764 -0.000415651 -0.000101881 0.00121686 5.8852e-05 -9.61454e-05 0.00071846 -6.34249e-05 0.000235039 0.000177379 0.000193387 -0.000201267 -2.88446e-05 -1.97631e-05 1.01111e-05 0.000148936 0.000198847 0.000271101 0.000220029 -2.35036e-05 -0.000108482 -0.000199989 0.00040637 -0.00119017 0 -4.90297e-05 -0.000462999 0.000791945 -0.000452331 -0.000337026 4.33541e-05 -0.000218171 0.000464113 0.000704662 -0.000293278 -0.000333836 0.000144862 -0.000560928 0.000374674 0.000279054 -1.22447e-05 -0.000516578 0.00066641 -0.000304963 -0.000393539 -0.000449744 0.000386284 1.19321e-05 -0.000302606 0.000407388 -0.000605583 0.000384591 0.00118576
internal_weight=11417 4158 7259 3639 2725 4534 519 3870 1502 2137 370 1109 1623 664 1616 670 2412 832 1458 1469 266 149 514 248 975 483 959 1424 327 911 657 988 184 773 412 1240 416 978 644 299 247 539 724 505 804 237 436 152 154 709 765 573 184 190 634 301 213 344 281 211 469 252 182 138 491 385 317 248 433 433 540 275 198 222 370 505 449 366 130 557 145 150 184 345 266 127 269 204 192 159 147 130 457 291 198
internal_count=11417 4158 7259 3639 2725 4534 519 3870 1502 2137 370 1109 1623 664 1616 670 2412 832 1458 1469 266 149 514 248 975 483 959 1424 327 911 657 988 184 773 412 1240 416 978 644 299 247 539 724 505 804 237 436 152 154 709 765 573 184 190 634 301 213 344 281 211 469 252 182 138 491 385 317 248 433 433 540 275 198 222 370 505 449 366 130 557 145 150 184 345 266 127 269 204 192 159 147 130 457 291 198
is_linear=0
shrinkage=0.00114294


Tree=6
num_leaves=103
num_cat=0
split_feature=0 8 16 16 8 0 19 95 0 17 16 17 16 15 15 177 16 113 102 5 23 101 134 18 23 16 179 19 19 16 8 70 4 90 8 115 18 25 167 95 5 72 108 8 107 88 23 166 169 4 177 158 92 95 113 190 182 5 106 64 120 19 5 28 5 19 1 30 139 5 141 149 166 54 6 27 126 19 9 5 15 115 80 19 40 1 70 41 24 62 1 5 25 77 168 15 8 182 158 1 42 42
split_gain=1874.38 603.393 323.998 172.226 152.036 84.7016 71.158 52.6838 41.0166 36.4078 35.3846 30.1797 29.2612 25.814 16.154 15.7003 14.8599 14.7821 11.2616 10.8486 10.8084 10.478 10.2876 9.0112 8.81759 8.67323 8.4135 8.26585 8.11832 7.53043 7.5168 7.21318 6.49839 6.47413 6.3664 6.16076 6.00813 5.58444 5.39837 5.31819 5.25427 4.78329 4.77239 4.72305 4.71017 4.68801 4.66906 4.34055 4.28635 5.4428 3.93383 3.76297 3.82054 3.7369 3.66859 3.49964 3.47035 3.78926 3.39757 3.34083 3.15265 3.14343 3.11489 2.91928 2.88784 2.67639 2.65704 3.10623 2.62071 2.54199 2.54436 2.39276 2.37918 2.30346 2.19698 2.11948 1.98058 1.67677 1.65071 1.62022 1.60997 2.3052 1.58231 1.52866 1.49818 1.31352 1.23107 1.19916 1.19697 1.63851 1.19632 1.06098 1.02446 0.80659 0.759237 0.613837 0.489613 0.487764 0.438539 0.288086 0.0702923 0.0678515
threshold=0.00035239961578914432 0.00086668353967073826 0.00023823700030098249 0.00063461195486604169 0.0017784864921774274 0.00016901264499676161 0.00049908496730783063 0.33219939481650179 0.00019072400241837502 0.00059825378839804594 0.00037409062819958972 0.00079326770614289552 0.00012691320406324938 0.0025936650108413163 0.00063152588694963404 -0.14436540431181472 0.00015682357776001022 0.21518538923514849 0.2012061623443622 0.00016506341658161186 0.14601252612113588 0.27252225507741329 -0.058366294235553319 0.00030730270282137273 0.1225315023278552 0.00056688436701261976 43.481363556601792 0.00051147569927523825 0.0004251993613957752 0.00016478930857252459 0.00012361875416086275 0.63305570308523718 0.00012604359825613606 -0.25337992428054024 0.00037714695625264323 0.14713597068021181 0.00039617751564252184 0.14358797133431409 27.971609115600589 0.12904685213876546 8.2281033654114537e-05 -0.10887489415624364 -0.27197888802256981 0.00055666704471216144 0.3979691342364699 0.14322279973421062 0.13076312027146222 0.90298809446802097 0.0071322498153085214 8.2270599907283148e-05 0.059454557241359139 1256.8818202163236 0.17517742657344185 0.094733415425327275 0.14230507929464073 -0.034123162865111849 0.0075829406234943853 3.1932055020018007e-05 0.026842933626241215 -0.15068041034580071 0.18420710919914704 0.00046297636827469105 7.4416932117719572e-05 0.16875529856261759 6.6575722278601775e-05 0.00071723357164857739 0.00028352638248836133 0.12906793942758613 16.695000648498539 2.8742896354141573e-05 0.11445647053028109 0.015948202835620338 0.74650287764590983 -0.25354035208928677 1146274.0000000002 -0.092121198701546739 96.865001678466811 0.00089939387272380898 2.631672166190634e-05 0.00015502417122804343 0.0003767301004325493 0.1419923001422419 -0.12680432238811995 0.0005014679442924704 0.034080304152366049 0.00015429482663461628 0.76892586581312761 0.20295438946039254 3744.8300000000004 -0.17986984474657244 0.00051921498163573444 0.0001760459243633909 0.12731856763693192 0.22080375626861218 0.00027523378349420669 0.00015185554521477134 0.00023327219636411095 -0.18903303692277384 1255.9250099875712 0.00018976423592767557 1702.3600000000004 1735.2900000000002
decision_type=2 2 2 2 2 2 2 2 2 2 2 2 2 2 2 2 2 2 2 2 2 2 2 2 2 2 2 2 2 2 2 2 2 2 2 2 2 2 2 2 2 2 2 2 2 2 2 2 2 2 2 2 2 2 2 2 2 2 2 2 2 2 2 2 2 2 2 2 2 2 2 2 2 2 2 2 2 2 2 2 2 2 2 2 2 2 2 2 2 2 2 2 2 2 2 2 2 2 2 2 2 2
left_child=2 3 5 10 9 12 8 13 20 83 16 17 54 77 24 37 -2 34 60 32 36 43 -7 41 33 -16 79 47 38 96 -26 46 66 82 -5 63 68 -12 -14 53 92 85 -21 99 72 98 -25 51 49 75 65 52 -28 -35 -1 -43 57 -38 59 -34 -11 -36 -51 76 -27 -32 67 94 100 78 95 -50 -44 -29 -61 -37 -33 -6 -40 -17 81 -57 -8 90 -78 -10 -49 -53 -75 -90 -3 -63 -31 -19 -18 -71 -24 -20 -42 -13 -4 -39
right_child=1 4 6 11 7 22 14 -9 23 18 15 21 28 -15 25 26 19 93 97 42 -22 -23 29 31 30 64 27 73 -30 40 50 35 58 39 61 48 56 101 69 -41 45 55 44 -45 -46 -47 -48 86 71 62 -52 87 -54 -55 -56 80 -58 -59 -60 74 -62 91 -64 -65 -66 -67 -68 -69 -70 70 -72 -73 -74 88 -76 -77 84 -79 -80 -81 -82 -83 -84 -85 -86 -87 -88 -89 89 -91 -92 -93 -94 -95 -96 -97 -98 -99 -100 -101 -102 -103
leaf_value=-0.0010501764056929448 -0.00039393006303647542 0.00016997987090753289 -0.00066773839098242967 3.7293521049713992e-05 0.00081980103564077917 -5.6187661709683476e-05 0.00013175438562650267 0.0023544652928925462 -0.00048160157595370098 0.00090232742704318442 0.00017641582651098248 0.0003315859522610277 -0.00036146058736138866 0.001977989941847268 0 -0.00011223197716654713 -0.000143021573545966 0.00041583771828473856 0.0014093455494932827 0 -9.4865640296340939e-05 0.0010688107874987206 -0.00063539942551294826 -6.7928811453152682e-05 -0.00021100885270519776 0.0002024916854934907 0.0002901959592419511 0.00012571582209132328 -0.0003321172242202616 -0.00049218859150017031 6.9677668315227693e-05 -0.00038161342702485454 -0.00014748104363182418 -0.00025560741913590337 9.2173489400971666e-05 -0.0003695730596311243 -0.00057032803914271895 0.00041446190867577116 -0.00089750753719216605 -0.00038487634480066516 -0.00019484941068671543 0 0.00040096332619015312 0.00075797005268848114 0 -4.64879994053101e-05 0.00021823338716907265 4.3370494329305516e-05 0.00020299791231607277 -0.00010835955461437246 0 -2.9393220868657512e-05 0 2.7802277180522166e-05 -0.00062407485308401279 -0.00043414553194228518 -5.021478092281024e-05 -0.00017791790599816856 0.00018499128188159724 -5.1450962961174691e-05 0.00053058515183137677 0.00027622180858732107 0.00015222290615214194 -5.2667019449192029e-05 0.00059015415317801732 0.00032645856958084463 0 0 -0.00024943525164318003 -0.00079717545003964651 -0.00033362854679843529 -1.9443490824684431e-05 0.00012184700344739497 0.00013475004539189735 0.00014313257123746079 -0.0001050205670063004 0 0.0012949931991018452 -0.00054746122759020337 7.1197293723647661e-05 -5.19109329644367e-05 -0.00012939998735292019 -5.4853036744970868e-05 0.00063887737996913725 -0.00026445905216195416 -0.0002027918288599409 -0.00012914018907153095 0.00013228431641104614 0.00019356724896052441 0.00044626061257845619 0.00048252647165904412 0.00053062543438675764 -0.0002692671232885442 0.00076501707565514252 -0.00037366337991832493 -0.00056171264980614619 -0.00034707290197604737 0.001018267846560723 -0.00047168378077784925 0.00056941012734753607 -0.00048837297397437559 0.00076914742184211351
leaf_weight=413 87 72 185 123 69 90 79 88 145 227 68 88 77 64 64 94 112 74 85 105 109 85 271 115 64 76 240 112 96 357 122 176 112 65 74 93 74 68 304 113 73 72 124 276 70 112 90 76 63 114 113 91 80 90 66 84 70 87 115 63 85 135 71 100 71 118 99 93 73 192 63 99 97 69 132 116 67 100 74 76 77 95 70 90 67 78 63 63 92 223 69 99 105 93 76 189 67 157 72 295 343 65
leaf_count=413 87 72 185 123 69 90 79 88 145 227 68 88 77 64 64 94 112 74 85 105 109 85 271 115 64 76 240 112 96 357 122 176 112 65 74 93 74 68 304 113 73 72 124 276 70 112 90 76 63 114 113 91 80 90 66 84 70 87 115 63 85 135 71 100 71 118 99 93 73 192 63 99 97 69 132 116 67 100 74 76 77 95 70 90 67 78 63 63 92 223 69 99 105 93 76 189 67 157 72 295 343 65
internal_value=-3.91972e-06 0.000430362 -0.000362166 0.00025647 0.00107299 -0.000626065 -0.000174704 0.00165149 -0.00025981 0.000832074 0.000115266 0.000544848 -0.000784009 0.00137128 3.88939e-05 0.000218457 -9.17713e-07 0.000368358 0.000974491 2.47636e-05 -0.00042651 0.000682099 -0.000420106 -0.000166726 -1.84829e-05 0.000281918 0.000174248 0.000205593 -0.000677252 -0.000447851 7.72033e-05 -0.000113074 -3.72545e-05 -0.000122385 0.000258718 -0.000149316 -0.000465841 0.000482717 -0.000710296 -0.000214938 -0.000377024 -0.00027453 0.000159017 0.000627021 0.000223875 -0.000234411 4.09916e-05 0.00012006 -7.31291e-05 -0.000130771 0.000139162 0.000165477 0.000227428 -6.89443e-05 -0.000998617 -0.000179158 -0.000294589 -0.000379559 4.02424e-05 -2.82016e-06 0.000812032 0.000336021 0 -0.000244277 0.000413036 0.000210203 -0.000132332 -0.00018094 -0.000525964 -0.000738805 -0.000646603 4.59139e-05 0.000293957 0.000304395 6.26983e-05 -0.000239132 -0.000295036 0.00112125 -0.000838043 -1.00758e-05 -0.000232852 -0.000291548 2.10937e-05 0.000475687 -0.000155755 -0.000399444 -1.01709e-05 1.45014e-05 0.000347588 0.000383334 0.000347225 0.000398495 -0.00044894 0.000630805 -0.000254483 -0.000689363 -0.000588382 0.00116979 -0.000355939 0.000523711 -0.000557707 0.000613563
internal_weight=11542 5213 6329 4107 1106 2621 3708 321 2663 785 2765 1342 1474 233 1045 1480 1285 598 554 1198 941 744 1147 1722 834 211 1279 1109 995 1057 417 1171 802 417 431 966 832 201 899 268 719 551 396 659 291 257 205 613 556 394 353 474 320 155 479 328 231 161 422 307 312 308 185 410 147 240 380 281 601 822 444 162 221 496 195 209 310 169 378 170 256 179 149 231 134 223 139 154 384 315 141 234 462 167 188 381 338 242 145 383 528 133
internal_count=11542 5213 6329 4107 1106 2621 3708 321 2663 785 2765 1342 1474 233 1045 1480 1285 598 554 1198 941 744 1147 1722 834 211 1279 1109 995 1057 417 1171 802 417 431 966 832 201 899 268 719 551 396 659 291 257 205 613 556 394 353 474 320 155 479 328 231 161 422 307 312 308 185 410 147 240 380 281 601 822 444 162 221 496 195 209 310 169 378 170 256 179 149 231 134 223 139 154 384 315 141 234 462 167 188 381 338 242 145 383 528 133
is_linear=0
shrinkage=0.000978725


Tree=7
num_leaves=102
num_cat=0
split_feature=0 8 16 8 16 0 19 95 17 0 16 16 17 16 16 177 19 113 102 16 23 134 5 18 23 19 233 179 166 16 155 198 18 155 4 11 18 8 30 167 5 28 86 97 72 88 8 19 134 149 117 17 29 182 5 96 190 191 104 101 8 19 4 119 45 26 71 20 69 31 8 139 70 189 28 19 20 75 85 48 182 184 16 159 5 212 18 76 100 115 1 160 120 17 25 107 98 157 117 8 42
split_gain=1690.15 544.177 291.6 152.604 143.022 75.1158 64.8889 48.5186 39.2729 36.5136 29.8175 26.3971 25.5264 23.2931 14.0087 13.8738 13.6935 13.4928 12.0437 10.6342 9.91139 9.78878 9.6609 8.33051 7.68345 7.60381 7.53693 7.23036 6.98851 6.97164 6.7368 6.65168 6.45932 5.92388 5.90774 5.79774 5.54661 5.25893 5.19689 4.98059 4.96707 4.80038 4.71008 4.55266 4.51522 4.4723 4.05365 3.85058 3.83856 3.74329 3.64318 3.58952 3.58503 3.45397 3.67283 3.43364 3.35294 3.29075 3.26177 3.78 3.25141 3.24381 3.23289 3.10681 2.98495 2.91938 2.67933 2.67183 2.63252 2.5782 2.56688 2.48016 2.46097 4.33469 2.39799 2.379 2.2766 2.27401 2.23083 2.16156 2.01078 1.87105 1.94179 1.73752 1.66836 1.65901 1.53738 1.53649 1.4784 1.25401 1.20569 1.09657 1.0495 1.00594 0.901139 0.896586 0.833381 0.829744 0.512559 0.342503 0.0743212
threshold=0.00035239961578914432 0.00081726660031901832 0.00023823700030098249 0.0017784864921774274 0.00063461195486604169 0.00016901264499676161 0.00049908496730783063 0.33219939481650179 0.00061890486246938376 0.00019072400241837502 0.00037409062819958972 0.00012691320406324938 0.00081051659728039718 0.0024501370650594182 0.00015682357776001022 -0.14436540431181472 0.0008344775023770843 0.21518538923514849 0.2012061623443622 0.00057989287355068549 0.14601252612113588 -0.058366294235553319 0.00016506341658161186 0.00030730270282137273 0.1192264904430196 0.0004251993613957752 7.9319999999999995 43.481363556601792 0.81486601309022078 0.00016478930857252459 -0.0019100048212631938 -0.02879377610950435 0.00050024043594192947 -0.0044829313444157415 0.00012604359825613606 0.24973131007237478 0.00039617751564252184 0.00037714695625264323 0.1462484063945487 27.971609115600589 8.2281033654114537e-05 0.23406459675358796 0.19623708613075483 0.15541983554007496 -0.10887489415624364 0.14322279973421062 0.00014153362658719592 0.00084781046445149002 -0.013681393322600389 0.0099246185704617001 -0.0070161025428899628 0.00053596338274977749 0.11704728419470481 0.0075829406234943853 3.1932055020018007e-05 6533.8300000000008 -0.034123162865111849 -0.056696855326497132 0.02497914308381164 0.13855628271991746 0.00053898400056817805 0.00063932703775564234 8.2852237484873291e-05 0.16346070127363876 -0.24477584014413387 0.26574393610572483 -0.050613983141388826 0.00015550395454554908 24.125000000000004 0.029968120194292933 0.00042557402611998591 16.695000648498539 0.63305570308523718 0.0081349898885337401 0.23406459675358796 0.00046297636827469105 8.9395714269196436e-05 0.98023481293449377 0.046546614358992801 0.1498496805503042 -0.18903303692277384 -0.22495838785002406 0.00046680690211109113 12.726694827779124 0.00015502417122804343 0.80000000000001148 0.00038480621518857964 0.39441158174531493 0.087856634301882397 0.1419923001422419 0.00015429482663461628 96.305000305175795 0.18420710919914704 0.00043338291478502855 0.12731856763693192 -0.063803638470974283 -0.045059935354211413 1249.210009765625 -0.10061535935010885 0.00023327219636411095 1702.3600000000004
decision_type=2 2 2 2 2 2 2 2 2 2 2 2 2 2 2 2 2 2 2 2 2 2 2 2 2 2 2 2 2 2 2 2 2 2 2 2 2 2 2 2 2 2 2 2 2 2 2 2 2 2 2 2 2 2 2 2 2 2 2 2 2 2 2 2 2 2 2 2 2 2 2 2 2 2 2 2 2 2 2 2 2 2 2 2 2 2 2 2 2 2 2 2 2 2 2 2 2 2 2 2 2
left_child=2 4 5 8 10 11 9 13 35 20 14 52 17 47 -2 38 24 37 61 62 36 -7 34 44 33 39 60 84 31 99 48 57 64 91 69 86 71 77 -12 -13 94 49 72 -21 90 97 -35 -5 -24 -33 -41 -48 -1 54 -38 81 -46 88 59 70 -14 -10 -18 -60 93 68 78 -68 -66 79 -36 100 -30 -74 -32 -39 -51 -6 -34 -16 -20 -26 -83 -52 -17 -71 -3 -75 -25 -58 -11 -8 -63 -29 -31 -77 -91 -42 -97 -23 -4
right_child=1 3 6 7 12 21 16 -9 18 23 15 25 26 -15 22 27 19 -19 80 43 -22 29 30 28 55 -27 -28 32 42 40 74 41 66 46 58 -37 53 75 -40 50 45 -43 -44 -45 56 -47 51 -49 -50 76 83 -53 -54 -55 -56 -57 89 -59 63 -61 -62 92 -64 -65 65 -67 67 -69 -70 85 -72 -73 73 87 -76 95 -78 -79 -80 -81 -82 82 -84 -85 -86 -87 -88 -89 -90 96 -92 -93 -94 -95 -96 98 -98 -99 -100 -101 -102
leaf_value=-0.0011526516237572633 -0.00044576547437807858 0.0003312957976461708 -0.00073505091996282988 0.00081922060382731221 0.00021395387092557638 -5.1658509434474855e-05 -6.0527223003749329e-05 0.0025839551958142847 0.0005353490103847733 -0.00053432809951316684 0.00022270257196886677 -0.0003867054052311441 0.00054864008082406129 0.0021545078458345491 -2.6322750469914683e-05 -0.00013315182526072963 -9.0089167628049839e-05 0.00069524443780810479 0.0015447714973802211 0.00019343875721547867 -9.8806565201519595e-05 -0.00069954606322821422 0.00017500414084729518 0.00013664877504428649 0 -0.00035291472827303743 0.0010757061545259069 7.1505742398766405e-05 -7.3120087538017082e-05 -0.0005409320730390538 0.00038803712038258187 -0.00037758615485126881 0 -0.00052668408710235888 -3.5260159974183326e-05 0.00012739744594906764 -0.0006299470235888422 0.00011110237352478544 0.00069926692597451824 -0.00090546191116883535 -0.00017940410247455708 8.8561604737512218e-05 0 0.00071276146799805504 0 -4.1518096257550356e-05 -0.00026903888532136568 0.0014218463453517895 -0.00016250439676550752 -0.000162373755236786 -0.00034885095249701718 2.3815900674926891e-05 -0.00068940159966123492 -4.0885400890984972e-05 -0.00018709591682089847 -5.4134129770203244e-05 -0.00037248559074250432 0.000337043095712201 0 -0.00022862588186299361 0.00080998753610487661 0.001049722958790997 0.00021969756079437107 0.00033282931185257678 0 0 0.00047563454761660821 0.00010910329895343268 0.00025374734809657784 5.7417719052007385e-05 0.00020550602760092631 -0.00026571733096367569 -0.00043246241944660965 -0.00023733243642913625 4.2908869586990099e-05 0.00022630779373725203 3.3598482905532239e-05 -6.0860637301862647e-05 0.00027745475499279832 -0.00032941726824811565 0.0010940064294444047 2.7666719930995192e-05 0.00033482851032358673 -0.00072738022481425751 8.142040311396345e-05 -0.00015601570554397507 0.0007000489138154158 0 -9.0905718744095027e-05 -0.00024108340015550276 -0.00022180239357691444 0.00012577173624766873 0.00063185933479914568 -0.00012147786147537708 -0.00029268273367550116 0.00028326441441939835 -1.1998434900588929e-06 -0.00051342482429181607 0.00064085529235604049 -0.00037959066711602075 -0.00053335707543448465
leaf_weight=407 86 70 185 64 64 90 74 88 80 145 80 77 326 65 79 94 89 158 94 71 109 271 85 70 65 96 109 68 113 357 153 102 70 65 105 63 74 78 113 456 66 88 69 69 72 112 106 104 86 186 63 63 72 70 87 124 114 63 67 83 236 197 72 79 79 85 215 63 338 91 87 73 204 64 64 84 79 63 101 130 177 79 97 303 74 76 164 64 69 63 78 71 68 63 105 63 79 79 84 67 343
leaf_count=407 86 70 185 64 64 90 74 88 80 145 80 77 326 65 79 94 89 158 94 71 109 271 85 70 65 96 109 68 113 357 153 102 70 65 105 63 74 78 113 456 66 88 69 69 72 112 106 104 86 186 63 63 72 70 87 124 114 63 67 83 236 197 72 79 79 85 215 63 338 91 87 73 204 64 64 84 79 63 101 130 177 79 97 303 74 76 164 64 69 63 78 71 68 63 105 63 79 79 84 67 343
internal_value=-4.28972e-06 0.000470501 -0.000395983 0.00112527 0.000266447 -0.000684267 -0.000191146 0.0018055 0.000881789 -0.000284731 0.000118759 -0.000855735 0.000580188 0.00149457 -4.06422e-06 0.000229676 4.35621e-05 0.000395351 0.00105067 0.000248038 -0.00046601 -0.000460476 2.46631e-05 -0.000183379 -3.3861e-05 -0.00073839 0.000737935 0.00018136 -0.000123787 -0.000491554 0.000172578 -3.93486e-05 0.000215518 -0.000149872 -4.23966e-05 0.000518228 -0.000509376 0.000277627 0.000522165 -0.000775166 -0.00041262 -0.000119392 -0.000224044 0.000477565 -0.000302865 -0.000252686 -0.000261761 0.00121575 0 -0.000180003 -0.000806756 -0.000136528 -0.00109125 -0.000318807 -0.000415142 7.57928e-05 -0.000195767 0.000121419 4.21516e-05 -1.74518e-05 0.000665406 0.000870953 2.39492e-05 0.000181435 0.00013136 0.000171199 0.000325379 0.00040676 0.000210174 -0.000147554 5.32929e-05 -0.00057606 -0.000267244 -0.000321435 0.000304425 0.000359828 -8.90671e-05 4.65698e-05 0.000170007 -0.000233723 0.00126492 0.00015901 0.000219367 -0.000673001 -1.51589e-05 -1.60941e-05 0.000606595 -0.000113669 0 -0.000256388 -0.000442702 3.4918e-06 0.000957382 0 -0.00049305 0.000426737 -0.000135405 -0.000388591 0.000514435 -0.000647793 -0.000611497
internal_weight=11542 5213 6329 1234 3979 2621 3708 321 913 2663 2714 1474 1265 233 1271 1443 1045 594 616 301 941 1147 1185 1722 744 995 671 1250 1171 1057 388 657 1082 379 797 297 832 436 193 899 719 455 514 140 551 257 234 168 171 367 822 169 479 231 161 365 328 202 421 275 562 345 161 146 633 502 449 278 417 376 192 601 445 332 217 309 265 127 171 209 271 241 176 366 168 167 234 128 139 256 223 145 265 131 462 231 142 145 147 338 528
internal_count=11542 5213 6329 1234 3979 2621 3708 321 913 2663 2714 1474 1265 233 1271 1443 1045 594 616 301 941 1147 1185 1722 744 995 671 1250 1171 1057 388 657 1082 379 797 297 832 436 193 899 719 455 514 140 551 257 234 168 171 367 822 169 479 231 161 365 328 202 421 275 562 345 161 146 633 502 449 278 417 376 192 601 445 332 217 309 265 127 171 209 271 241 176 366 168 167 234 128 139 256 223 145 265 131 462 231 142 145 147 338 528
is_linear=0
shrinkage=0.00112687


Tree=8
num_leaves=106
num_cat=0
split_feature=0 8 16 16 8 0 19 95 0 16 17 17 16 15 15 86 177 16 24 5 23 102 134 58 16 18 23 179 19 19 8 77 155 16 90 166 4 95 0 15 18 25 5 8 5 88 72 166 2 134 154 74 141 177 182 5 190 29 106 64 95 233 120 65 5 141 1 30 42 155 73 73 63 26 139 17 6 9 63 28 172 142 15 115 1 5 33 19 1 140 19 1 77 25 41 15 32 168 157 107 8 36 182 115 5
split_gain=1589.44 511.622 273.848 147.395 127.969 70.2297 61.15 45.0522 34.3163 30.3265 30.225 25.5873 24.555 22.3697 14.5371 14.0769 13.7272 13.1197 10.5468 9.62502 9.24994 9.14119 9.13022 7.97427 7.88104 7.8634 7.66143 7.49755 7.39973 7.0136 6.93974 6.70695 6.65674 6.41622 6.2429 5.74972 5.71065 5.23729 5.17196 5.15613 5.05944 5.05117 4.92401 4.84777 4.53573 4.17295 4.17117 4.05023 3.92408 3.79769 3.71744 3.65944 3.37606 3.30523 3.19767 3.36654 3.18162 3.15617 3.14008 3.2411 3.10582 2.91469 2.89314 2.86887 2.70998 2.63779 2.52409 2.89035 2.49726 2.48648 3.37891 3.18755 2.45789 2.25542 2.22402 2.15953 2.10977 2.09565 2.02059 1.91845 1.72264 1.5935 1.56255 2.04713 1.50447 1.4991 1.49753 1.30793 1.21562 1.17989 1.12056 1.04707 1.04188 1.03539 0.983576 0.812756 0.777803 0.743215 0.704644 0.275399 0.198549 0.15258 0.107716 0.0359369 0.0221514
