{"learner":{"attributes":{"best_iteration":"50","best_score":"0.8637483376385208","scikit_learn":"{\"_estimator_type\": \"regressor\"}"},"feature_names":[],"feature_types":[],"gradient_booster":{"model":{"gbtree_model_param":{"num_parallel_tree":"1","num_trees":"51"},"iteration_indptr":[0,1,2,3,4,5,6,7,8,9,10,11,12,13,14,15,16,17,18,19,20,21,22,23,24,25,26,27,28,29,30,31,32,33,34,35,36,37,38,39,40,41,42,43,44,45,46,47,48,49,50,51],"tree_info":[0,0,0,0,0,0,0,0,0,0,0,0,0,0,0,0,0,0,0,0,0,0,0,0,0,0,0,0,0,0,0,0,0,0,0,0,0,0,0,0,0,0,0,0,0,0,0,0,0,0,0],"trees":[{"base_weights":[-8.673911E-3,-2.2029522E-1,4.9031642E-1,1.3633127E0,-2.670482E-1,1.3294427E-1,7.0736957E-1,3.050002E0,1.1243924E0,-5.118657E-1,-1.2489667E-1,6.0857933E-2,1.3698088E0,1.2271676E0,5.957962E-1,2.4006932E0,4.760778E-2,5.840077E-1,1.328624E0,-2.4735303E-1,-6.2429583E-1,-6.0752496E-2,-5.189722E-1,-1.7787805E-1,1.468562E-1,2.5124989E0,8.253E-1,2.1491263E0,1.0234689E0,5.088888E-1,9.97929E-1,2.8028911E-2,9.975371E-3,6.896241E-2,7.780337E-1,1.8947411E-2,1.2311203E0,2.1334356E-1,-2.8952548E-1,-8.264361E-1,-4.8285052E-1,5.335498E-1,-8.553492E-2,-6.539193E-1,-3.8167373E-3,-3.273279E-1,5.5396456E-2,2.9027507E-1,2.632966E-2,2.8796913E-2,1.8920789E-2,1.2064549E-2,5.872121E-1,3.3263183E0,1.4962186E0,8.2560486E-1,1.5872278E0,6.5978444E-1,4.103766E-1,8.218176E-1,1.4311984E0,3.2184022E-3,-1.0245162E-3,8.83952E-3,4.7338842E-3,1.0591844E0,1.4256198E0,1.055705E0,1.1716553E-2,-6.261347E-1,-2.5110665E-1,-6.676832E-1,-9.559677E-1,-5.873396E-1,-3.583046E-1,7.654064E-1,1.357563E-1,-1.0321592E-1,6.7730653E-1,-8.354359E-1,-3.6571777E-1,4.2738298E-1,-1.5578347E-1,-5.1348484E-1,-8.2564384E-2,4.6635833E-1,-1.1634369E-1,1.4805139E-2,2.7046618E-1,-2.0229162E-1,2.1048711E-1,1.7879068E-4,6.8859315E-1,2.3515558E-2,3.6643114E-2,7.3229875E-3,1.649168E0,9.0945244E-1,-6.8840034E-2,1.3925562E0,2.5224876E0,-6.652112E-2,6.9262576E-1,1.2230461E0,3.9050177E-1,1.8150235E0,7.506118E-1,1.2307488E0,2.4716405E-2,8.7240386E-1,1.1856933E-2,1.9403266E-2,1.3160617E0,1.3839016E-2,4.7852164E-3,3.3391234E-1,-1.1237721E-1,-2.97462E-1,-8.0716014E-1,2.0557778E-1,-2.7777502E-1,-5.278825E-1,-8.3447605E-1,-1.1033541E0,-6.552485E-1,-1.7173424E-1,-6.552957E-1,-3.836317E-1,6.2661535E-1,9.170429E-1,4.976007E-1,-1.330323E-1,4.9731493E-1,-1.4726289E-1,1.5649666E-1,1.8048829E-1,1.0885377E0,-1.3842396E0,-7.4557024E-1,-7.830729E-2,-6.9767535E-1,-0E0,5.085119E-1,1.7422104E-1,-2.9508448E-1,-2.376848E-1,-6.7408913E-1,1.9721273E-1,-2.4689674E-1,6.0326725E-1,-2.3943881E-4,3.5335425E-1,-2.0957637E-1,1.5477458E-1,4.7938108E-1,2.6128337E-1,-2.590487E-1,1.1144347E-1,5.198693E-1,3.160761E-3,8.290208E-3,2.439964E-2,1.4086169E0,7.322231E-1,1.2393227E0,2.4184857E-1,-6.6996766E-3,2.980449E-2,1.216569E0,1.47771835E-2,3.1662636E-2,-3.2132184E-3,1.360068E-1,7.0727617E-1,-5.857286E-4,1.741611E-2,3.1515497E-3,7.278586E-1,3.430078E-1,2.4110386E-2,1.2183244E-2,9.367486E-1,5.033221E-1,5.718826E-1,1.4752237E0,9.63852E-3,4.706316E-3,8.322977E-1,1.4937116E-2,-0E0,5.1843965E-1,-2.62835E-1,1.4642102E-1,9.856919E-4,-4.5570877E-1,-5.964459E-1,-1.0540154E0,4.6075663E-1,-1.2016448E-1,-2.9442996E-1,3.4101385E-1,-9.8344636E-1,-4.5491067E-1,-2.2495463E-3,-8.6567193E-1,-1.3378614E0,-1.0174291E0,-7.0351464E-1,-0E0,-1.0928824E-2,-9.2854995E-1,-4.4353548E-1,-7.718356E-1,-4.854554E-1,-1.6158006E-1,-0E0,1.042376E-2,9.541685E-3,3.6980833E-3,9.58609E-3,3.2379103E-1,-4.2489073E-1,2.536096E-1,9.625687E-1,5.6427233E-2,-1.1385304E-1,-5.1625085E-1,4.806487E-1,-7.1817697E-3,3.07143E-1,-1.8095855E-3,8.880746E-1,1.6686445E0,-1.7781079E0,-8.3842474E-1,-0E0,-7.8237027E-1,-2.6953408E-1,2.969183E-1,-8.2336E-1,1.5844789E-1,6.2456457E-3,-0E0,-9.4096194E-4,3.8194454E-1,-5.542353E-1,-9.9935226E-2,-7.21834E-1,-0E0,2.242223E-3,-7.710149E-1,7.4820425E-3,-0E0,-1.543028E-1,-8.9509925E-3,8.366268E-3,2.5221962E-1,-1.7371778E-4,7.43921E-3,-3.0744714E-1,1.1210963E-1,8.861332E-3,1.19930014E-1,3.3916909E-1,7.6579255E-1,-0E0,4.107371E-3,-2.0211881E-1,-6.930417E-1,-3.0733695E-2,3.2928413E-1,5.9840363E-1,-0E0,1.6348107E0,6.1045177E-3,8.076069E-1,2.1800381E-1,9.51086E-3,1.4569418E0,-0E0,4.618065E-3,8.7891954E-1,1.5708517E0,-0E0,3.7313828E-3,7.2462136E-1,-0E0,4.4436124E-1,1.1600677E0,1.5153829E0,3.2146096E-1,9.9297404E-1,-0E0,1.1158642E-2,4.3013915E-1,9.4277E-1,-2.6224623E-3,1.731572E0,1.1676731E0,1.1967118E-2,1.934419E-3,1.4965042E-3,7.3929774E-3,-3.496242E-3,-0E0,-0E0,3.3255834E-3,-6.606919E-4,-5.7128435E-3,-3.7063903E-3,-7.732026E-3,-1.2525313E-2,-6.659371E-3,5.1246703E-2,8.242254E-3,-4.2209104E-3,2.5215598E-3,-2.4472943E-1,-4.7220373E-1,7.670316E-3,-0E0,-5.7574227E-3,-1.1584041E-2,7.885425E-4,-4.889505E-1,-6.1943555E-1,-9.393195E-1,-1.4131296E0,-6.8659103E-3,-1.0357858E0,-2.095492E-3,-4.9737448E-1,-9.027462E-1,-1.3831386E-1,4.0927747E-1,-5.1256064E-3,-1.2589768E-2,-3.4948677E-2,-5.971705E-1,-8.8660926E-1,-5.289986E-1,-4.239612E-1,-6.7161614E-1,7.215968E-2,-3.562437E-1,3.705197E-3,-0E0,-6.029567E-3,-0E0,-0E0,4.089034E-3,1.4281338E-2,4.26512E-3,2.4892786E-3,-7.2051014E-4,-5.2521324E-1,-8.5623756E-2,-5.890642E-1,-8.6593725E-2,9.1048986E-1,3.4824467E-1,-2.9480323E-1,9.702473E-2,-2.6373912E-4,4.2620358E-1,5.316113E-3,1.119514E0,2.0312052E-2,1.0947838E-2,-2.005556E-2,-1.2635241E-2,-3.4734681E-3,-9.6058445E-3,5.6567276E-3,-4.557926E-3,-1.0346661E-4,-8.035577E-1,7.3128445E-3,-3.633278E-1,1.0060197E-2,1.03097424E-1,-1.0516183E-2,-5.556989E-1,4.1112914E-3,-0E0,2.2973876E-5,4.849493E-3,-7.3250677E-3,-2.9269323E-1,1.847403E-1,-3.2465512E-1,-1.10173365E-2,-3.3112674E-3,-3.2968994E-3,1.1886277E-1,-4.103595E-1,-9.242758E-1,1.8336719E-3,-1.0484059E-3,-2.4205968E-1,1.4870259E-3,-0E0,4.116479E-3,-3.7293053E-1,1.4203376E-3,-1.0481101E-3,3.1727187E-3,4.1743237E-1,5.595355E-2,4.9089503E-1,-4.6731327E-2,4.4166997E-1,1.0918316E0,-4.742451E-1,-1.05880775E-1,-2.1393986E-3,-9.82275E-3,-1.0944125E-1,2.7702138E-1,4.405051E-1,9.422237E-3,-0E0,6.6748005E-1,1.1411622E-2,1.8889844E-2,4.074999E-1,8.9282984E-1,5.62843E-3,-6.4240687E-4,1.8764237E-2,1.2453128E0,3.8111177E-3,1.0516747E0,1.8378317E-2,1.167591E-2,7.424159E-1,8.882109E-2,2.922863E-3,-4.111546E-3,6.008144E-1,-5.0415043E-3,1.48436725E-2,8.7293696E-1,1.958335E-2,7.726353E-3,2.7654618E-1,5.792695E-1,1.0775533E0,4.981349E-3,6.482958E-1,2.1897918E-1,3.7917218E-3,1.1782117E-2,2.3769047E-2,1.4599204E0,1.2800861E-2,6.50491E-3,2.5183898E-3,-3.280053E-4,-2.587074E-1,2.4207428E-1,-5.4794437E-1,-1.6286908E-1,-2.3545681E-1,-5.805466E-1,-7.2772442E-3,-2.0178338E-3,-5.1834834E-1,-9.834616E-1,-1.4819719E-2,-8.737458E-1,-7.0395064E-1,-1.083799E0,3.1650983E-2,-6.1545455E-1,-7.2927535E-1,-1.0990197E-2,-3.9679068E-1,2.2161614E-2,6.291163E-3,-0E0,-4.1119015E-1,2.2101727E-1,-6.4301574E-1,-0E0,-9.6691704E-1,-5.7538396E-1,-4.249057E-1,-9.042734E-1,-4.8299676E-1,-2.6102638E-1,-8.6825454E-1,-5.2359563E-1,2.883829E-1,-7.8965336E-2,-9.948177E-3,-2.9388866E-1,-4.2528048E-1,-8.678431E-1,-3.261785E-2,-2.0725097E-1,-2.6566872E-1,-7.043192E-1,-3.4943363E-1,3.8794038E-1,1.2270676E0,7.764003E-2,6.859714E-2,5.936887E-1,-4.119659E-1,4.6954E-1,7.71065E-1,6.462759E-2,-0E0,5.3681016E-1,1.3416869E-2,6.05822E-3,-3.759259E-4,-8.252041E-1,-5.749421E-1,-9.200565E-2,-3.4047912E-3,2.6975128E-1,-7.2662395E-1,-9.589886E-2,-0E0,-4.259636E-3,-1.1822229E-3,6.478948E-3,-0E0,-4.2944863E-3,-0E0,3.4226978E-3,-6.614018E-3,-0E0,-1.0188164E0,-2.0944152E-3,-0E0,-3.3781654E-3,-5.2786437E-3,-1.1709284E-1,6.327212E-1,-0E0,3.6107868E-2,5.9892936E-3,3.3058668E-4,6.1660916E-1,-2.546457E-1,3.0255069E-3,-0E0,5.83345E-3,1.2405893E-2,4.7741816E-3,-3.3387515E-1,-1.066974E-2,2.2866352E-2,-2.2975534E-1,-1.8754971E-1,3.67321E-1,4.6747243E-3,-0E0,4.987848E-1,-0E0,-2.532493E-3,1.3642282E-3,7.719964E-3,2.37298E-3,-0E0,5.898979E-1,1.0111406E0,5.626523E-1,6.4543816E-3,1.4211428E-2,4.8746355E-3,1.1712302E-2,7.174492E-1,1.3538936E-2,-2.4808143E-4,2.669368E-3,2.2020774E-2,3.8814878E-1,2.7479113E-3,1.08211E0,1.1106149E-1,3.6712557E-1,6.900987E-1,-0E0,8.772253E-1,1.3948747E0,-0E0,7.7602583E-1,1.1236586E-1,7.5710802E-3,9.381758E-3,1.8349169E-2,1.3364519E-3,-2.8276652E-1,6.108509E-3,-0E0,-4.9343944E-1,-1.1063445E-2,4.4143185E-4,-3.9124032E-3,-1.00637354E-1,-4.68255E-1,-6.136624E-1,-0E0,-1.5937758E-3,-7.983313E-3,-3.1056087E-3,-9.869774E-3,-1.1118977E-2,-4.156435E-3,-4.8560706E-1,-9.957169E-3,-1.1510326E0,-8.802919E-1,-2.1822553E-3,3.9915214E-3,-7.32045E-1,-1.4629313E-1,-8.21808E-1,-4.9915764E-4,-1.5660668E-3,-6.837924E-3,-6.714268E-2,3.921597E-3,-5.574157E-3,-2.2002537E-4,-1.013622E-1,4.8101246E-1,-7.6005054E-1,-3.9587468E-1,-1.1334288E0,-7.948148E-1,-9.055118E-1,-3.1314197E-1,-4.7714663E-1,2.091377E-3,-1.1183371E-2,-2.222851E-3,-7.7826416E-1,-3.955828E-1,-1.5837936E-1,-5.911156E-1,-1.1007377E-2,-5.9918934E-1,-1.3773636E-3,-6.042776E-1,4.620556E-1,4.077982E-2,4.744245E-3,-1.9018771E-1,-4.0592495E-1,4.565955E-2,-0E0,-4.799547E-1,-1.4350143E-2,-6.5055245E-1,-1.2845974E-1,9.966973E-2,-1.0234549E-1,-3.0181223E-1,-7.793903E-1,-1.2328949E-1,-1.2999939E0,-6.3305897E-1,-6.304573E-2,-6.146845E-3,-1.2523311E-4,7.4092927E-3,7.503818E-3,1.670319E0,5.5494374E-3,-2.2456038E-3,2.6194695E-1,-3.9573476E-1,2.8253993E-1,8.7763464E-1,-4.8021615E-1,1.7782106E-3,-0E0,7.5715734E-3,1.1335477E-2,2.4673317E-3,-0E0,4.0105534E-1,7.938324E-3,3.1950464E-3,-8.578732E-1,-3.0299488E-1,-9.4142485E-1,-2.3544267E-1,-3.1610662E-1,1.5564992E-1,-0E0,4.717424E-3,-8.362776E-3,-2.693839E-3,-2.7361463E-3,3.8033984E-5,-8.512549E-3,-1.5967641E-2,1.5742145E-3,-2.1512837E-3,3.055896E-4,-2.478528E-3,7.8202546E-1,1.9816246E-3,-1.6963792E-3,2.748933E-3,-1.7449045E-1,8.492265E-2,-0E0,6.996318E-1,-3.9269524E-3,-0E0,-5.699636E-1,-1.5246409E-1,-1.3942327E-1,2.3777711E-1,-3.4901392E-1,-4.301371E-2,-2.9019833E-1,-0E0,6.221304E-3,-0E0,-0E0,5.7144374E-1,7.2414107E-3,1.8339234E-3,1.0528984E0,4.2535733E-3,6.773116E-1,2.0703082E-3,6.8954206E-1,1.2988596E0,5.178395E-1,-4.3644942E-3,1.30887125E-2,4.711073E-3,5.045494E-1,3.4404792E-2,3.0456316E-1,7.797385E-1,-0E0,7.778943E-1,-3.2904616E-3,1.9523622E-3,9.45545E-1,2.7744935E-3,8.049763E-3,1.6193804E0,3.3068932E-3,8.921227E-1,2.1017556E-1,-1.4516399E-3,2.4721306E-3,-3.0737368E-3,-4.3516923E-3,-2.1752436E-3,-4.120908E-4,-5.1671085E-3,-0E0,-3.991018E-3,-7.154486E-4,-6.2063285E-3,-6.595387E-3,-1.7744225E-3,-7.5390735E-3,-2.4810582E-4,-1.1733685E-2,-5.922066E-3,-9.417012E-3,-1.0280105E-3,-1.839279E-3,-7.897846E-3,-3.5811593E-3,-0E0,-1.0256467E-2,-6.1502727E-3,6.811375E-4,-4.5548626E-3,-0E0,-2.7052003E-3,6.8733566E-3,-0E0,-6.0388516E-3,-1.0584228E-2,-4.7086263E-3,-0E0,-1.211404E-2,-7.2595966E-3,-3.9031815E-3,-9.077548E-3,-5.6587625E-3,-1.1993271E-2,-0E0,-3.994048E-3,-3.0679696E-3,-6.267729E-3,-1.5842115E-3,-8.316749E-3,-7.097561E-3,-2.46925E-3,-2.8130834E-3,6.5458775E-4,-1.1972737E-3,-8.415557E-3,-4.063171E-4,-7.748125E-3,-3.2447474E-3,-7.551573E-3,8.037557E-3,1.4672615E-3,-2.0360037E-4,2.0914942E-3,-2.9610205E-3,-0E0,-9.704648E-3,-3.0220512E-3,2.3053996E-3,-2.8296146E-3,-1.9169393E-3,-5.722094E-3,-3.16743E-3,-9.51208E-3,1.0200868E-6,-2.323255E-3,1.8915278E-3,-2.0032354E-4,-2.7996013E-3,4.7653113E-4,-3.2053178E-3,6.8490426E-3,-2.5907636E-3,-1.0741503E-2,-2.2436704E-3,2.7563341E-3,-1.6537473E-2,-5.803636E-3,-7.1176286E-3,-3.474399E-3,1.7090673E-3,-4.317011E-3,2.103291E-2,7.385642E-3,3.619462E-4,6.3744565E-3,-1.0713252E-2,-4.9058505E-4,-0E0,5.0870813E-3,1.0103115E-2,-0E0,-3.9127567E-3,-1.1751094E-2,1.0936414E-3,-1.4329981E-3,-1.0379952E-3,5.8768303E-3,-0E0,-8.525205E-3,-4.7840714E-4,-5.242515E-3,-5.990194E-3,-1.2907262E-2,-0E0,-3.5780503E-3,-0E0,-4.182011E-3,4.0902994E-3,-0E0,9.55923E-3,3.3527638E-3,1.9370515E-3,-3.8122036E-3,1.16031944E-4,2.82527E-3,3.6800948E-3,8.25592E-3,-2.3695962E-3,-8.7911915E-3,-0E0,-3.213459E-3,1.8182498E-3,-2.9238774E-3,-0E0,3.7110867E-3,-0E0,-3.847609E-3,2.0046136E-4,-2.4791835E-3,-3.5608783E-3,1.601345E-3,7.727153E-4,-2.227929E-3,6.181946E-3,-0E0,1.1514194E-2,7.575674E-3,1.8598535E-3,8.192448E-3,9.82262E-3,6.1760643E-3,7.1124076E-3,1.8782742E-2,6.094057E-3,-0E0,3.2383942E-3,8.747763E-3,-8.8249333E-4,2.291456E-3,-2.716775E-3,3.3239361E-3,9.088784E-3,4.272724E-3,6.612331E-3,1.5146923E-2,1.1351281E-2,7.4037123E-3,1.1328612E-2,1.8820763E-2,1.0704109E-2,5.3074732E-3,-0E0,4.08392E-3],"categories":[],"categories_nodes":[],"categories_segments":[],"categories_sizes":[],"default_left":[0,0,0,0,0,0,0,0,0,0,0,0,0,0,0,0,0,0,0,0,0,0,0,0,0,0,0,0,0,0,0,0,0,0,0,0,0,0,0,0,0,0,0,0,0,0,0,0,0,0,0,0,0,0,0,0,0,0,0,0,0,0,0,0,0,0,0,0,0,0,0,0,0,0,0,0,0,0,0,0,0,0,0,0,0,0,0,0,0,0,0,0,0,0,0,0,0,0,0,0,0,0,0,0,0,0,0,0,0,0,0,0,0,0,0,0,0,0,0,0,0,0,0,0,0,0,0,0,0,0,0,0,0,0,0,0,0,0,0,0,0,0,0,0,0,0,0,0,0,0,0,0,0,0,0,0,0,0,0,0,0,0,0,0,0,0,0,0,0,0,0,0,0,0,0,0,0,0,0,0,0,0,0,0,0,0,0,0,0,0,0,0,0,0,0,0,0,0,0,0,0,0,0,0,0,0,0,0,0,0,0,0,0,0,0,0,0,0,0,0,0,0,0,0,0,0,0,0,0,0,0,0,0,0,0,0,0,0,0,0,0,0,0,0,0,0,0,0,0,0,0,0,0,0,0,0,0,0,0,0,0,0,0,0,0,0,0,0,0,0,0,0,0,0,0,0,0,0,0,0,0,0,0,0,0,0,0,0,0,0,0,0,0,0,0,0,0,0,0,0,0,0,0,0,0,0,0,0,0,0,0,0,0,0,0,0,0,0,0,0,0,0,0,0,0,0,0,0,0,0,0,0,0,0,0,0,0,0,0,0,0,0,0,0,0,0,0,0,0,0,0,0,0,0,0,0,0,0,0,0,0,0,0,0,0,0,0,0,0,0,0,0,0,0,0,0,0,0,0,0,0,0,0,0,0,0,0,0,0,0,0,0,0,0,0,0,0,0,0,0,0,0,0,0,0,0,0,0,0,0,0,0,0,0,0,0,0,0,0,0,0,0,0,0,0,0,0,0,0,0,0,0,0,0,0,0,0,0,0,0,0,0,0,0,0,0,0,0,0,0,0,0,0,0,0,0,0,0,0,0,0,0,0,0,0,0,0,0,0,0,0,0,0,0,0,0,0,0,0,0,0,0,0,0,0,0,0,0,0,0,0,0,0,0,0,0,0,0,0,0,0,0,0,0,0,0,0,0,0,0,0,0,0,0,0,0,0,0,0,0,0,0,0,0,0,0,0,0,0,0,0,0,0,0,0,0,0,0,0,0,0,0,0,0,0,0,0,0,0,0,0,0,0,0,0,0,0,0,0,0,0,0,0,0,0,0,0,0,0,0,0,0,0,0,0,0,0,0,0,0,0,0,0,0,0,0,0,0,0,0,0,0,0,0,0,0,0,0,0,0,0,0,0,0,0,0,0,0,0,0,0,0,0,0,0,0,0,0,0,0,0,0,0,0,0,0,0,0,0,0,0,0,0,0,0,0,0,0,0,0,0,0,0,0,0,0,0,0,0,0,0,0,0,0,0,0,0,0,0,0,0,0,0,0,0,0,0,0,0,0,0,0,0,0,0,0,0,0,0,0,0,0,0,0,0,0,0,0,0,0,0,0,0,0,0,0,0,0,0,0,0,0,0,0,0,0,0,0,0,0,0,0,0,0,0,0,0,0,0,0,0,0,0,0,0,0,0,0,0,0,0,0,0,0,0,0,0,0,0,0,0,0,0,0,0,0,0,0,0,0,0,0,0,0,0,0,0,0,0,0,0,0,0,0,0,0,0,0,0,0,0,0,0,0,0,0,0,0,0,0,0,0,0,0,0,0,0,0,0,0,0,0,0,0,0,0,0,0,0,0,0,0,0,0,0,0,0,0,0,0,0,0,0,0,0,0,0,0,0,0,0,0,0,0,0,0,0,0,0,0,0,0,0,0,0,0,0,0,0,0,0,0,0,0,0,0,0,0,0,0,0,0,0,0,0,0,0,0,0,0,0,0,0,0,0,0,0,0,0,0,0,0,0,0,0,0,0,0,0,0,0,0,0,0,0,0,0,0,0,0,0,0,0,0,0,0,0,0,0,0,0,0,0,0,0,0,0,0,0,0,0,0,0,0,0,0,0,0,0,0,0,0,0,0,0,0,0],"id":0,"left_children":[1,3,5,7,9,11,13,15,17,19,21,23,25,27,29,31,-1,33,35,37,39,41,43,45,47,49,51,53,55,57,59,-1,-1,61,63,-1,65,67,69,71,73,75,77,79,81,83,85,87,89,-1,-1,-1,91,93,95,97,99,101,103,105,107,-1,-1,-1,-1,109,111,113,115,117,119,121,123,125,127,129,131,133,135,137,139,141,143,145,147,149,151,-1,153,155,157,-1,159,-1,-1,-1,161,163,165,167,169,171,173,175,177,179,181,183,-1,185,-1,-1,187,-1,-1,189,191,193,195,197,199,201,203,205,207,209,211,213,215,217,219,221,223,225,227,229,231,233,235,237,239,-1,241,243,245,247,249,251,253,255,-1,257,259,261,263,265,267,269,271,-1,-1,-1,273,275,277,279,-1,-1,281,-1,-1,-1,283,285,-1,-1,-1,287,289,-1,-1,291,293,295,297,-1,-1,299,-1,-1,301,303,305,-1,307,309,311,313,315,317,319,321,323,-1,325,327,329,331,-1,333,335,337,339,341,343,-1,-1,-1,-1,-1,345,347,349,351,353,355,357,359,361,363,-1,365,367,369,371,373,375,377,379,381,383,-1,-1,-1,385,387,389,391,393,-1,395,-1,397,399,-1,-1,401,-1,-1,403,405,-1,407,409,411,-1,-1,413,415,417,419,421,-1,423,-1,425,427,-1,429,-1,-1,431,433,-1,-1,435,437,439,441,443,445,447,-1,-1,449,451,-1,453,455,-1,-1,-1,-1,-1,-1,-1,-1,-1,-1,-1,-1,-1,-1,457,-1,-1,-1,459,461,-1,-1,-1,-1,-1,463,465,467,469,-1,471,-1,473,475,477,479,-1,-1,481,483,485,487,489,491,493,495,-1,-1,-1,-1,-1,-1,-1,-1,-1,-1,497,499,501,503,505,507,509,511,-1,513,-1,515,-1,-1,-1,-1,-1,-1,-1,-1,-1,517,-1,519,-1,521,-1,523,-1,-1,-1,-1,-1,525,527,529,-1,-1,-1,531,533,535,-1,-1,537,-1,-1,-1,539,-1,-1,-1,541,543,545,547,549,551,553,555,-1,-1,557,559,561,563,-1,565,-1,-1,567,569,-1,-1,-1,571,-1,573,-1,-1,575,577,-1,-1,579,-1,-1,581,-1,-1,583,585,587,-1,589,591,-1,-1,-1,593,-1,-1,-1,-1,595,597,599,601,603,605,-1,-1,607,609,-1,611,613,615,617,619,621,-1,623,625,-1,-1,627,629,631,-1,633,635,637,639,641,643,645,647,649,651,-1,653,655,657,659,661,663,665,667,669,671,673,675,677,679,681,683,685,-1,687,-1,-1,-1,689,691,693,-1,695,697,699,-1,-1,-1,-1,-1,-1,-1,-1,-1,-1,701,-1,703,-1,-1,705,707,709,711,-1,-1,713,715,-1,-1,-1,-1,-1,717,-1,719,721,723,725,-1,-1,727,-1,-1,-1,-1,-1,-1,729,731,733,-1,-1,-1,-1,735,-1,-1,-1,-1,737,-1,739,741,743,745,747,749,751,-1,753,755,-1,-1,-1,757,759,-1,-1,761,-1,-1,-1,763,765,767,-1,-1,-1,-1,-1,-1,-1,769,-1,771,773,-1,-1,775,777,779,-1,-1,-1,781,-1,-1,-1,783,785,787,789,791,793,795,797,799,-1,-1,-1,801,803,805,807,-1,809,-1,811,813,815,-1,817,819,821,-1,823,-1,825,827,829,831,833,835,837,839,841,843,-1,-1,-1,-1,845,-1,-1,847,849,851,853,855,-1,-1,-1,-1,-1,857,859,-1,-1,861,863,865,867,869,871,-1,-1,-1,-1,-1,-1,-1,-1,-1,-1,-1,-1,873,-1,-1,-1,875,877,-1,879,-1,-1,881,883,885,887,889,891,893,895,-1,-1,-1,897,-1,-1,899,-1,901,-1,903,905,907,-1,-1,-1,909,911,913,915,-1,917,-1,-1,919,-1,-1,921,-1,923,925,-1,-1,-1,-1,-1,-1,-1,-1,-1,-1,-1,-1,-1,-1,-1,-1,-1,-1,-1,-1,-1,-1,-1,-1,-1,-1,-1,-1,-1,-1,-1,-1,-1,-1,-1,-1,-1,-1,-1,-1,-1,-1,-1,-1,-1,-1,-1,-1,-1,-1,-1,-1,-1,-1,-1,-1,-1,-1,-1,-1,-1,-1,-1,-1,-1,-1,-1,-1,-1,-1,-1,-1,-1,-1,-1,-1,-1,-1,-1,-1,-1,-1,-1,-1,-1,-1,-1,-1,-1,-1,-1,-1,-1,-1,-1,-1,-1,-1,-1,-1,-1,-1,-1,-1,-1,-1,-1,-1,-1,-1,-1,-1,-1,-1,-1,-1,-1,-1,-1,-1,-1,-1,-1,-1,-1,-1,-1,-1,-1,-1,-1,-1,-1,-1,-1,-1,-1,-1,-1,-1,-1,-1,-1,-1,-1,-1,-1,-1,-1,-1,-1,-1,-1,-1,-1,-1,-1,-1,-1,-1,-1,-1,-1,-1,-1,-1,-1,-1,-1,-1,-1],"loss_changes":[1.0295105E3,5.0634222E2,2.2466632E2,7.642291E1,2.3110663E2,9.7020744E1,1.0356323E2,2.4283173E1,1.780867E1,7.2088196E1,1.060631E2,2.1292015E1,3.5283722E1,5.7773926E1,5.1043335E1,9.520035E0,0E0,4.2769012E0,5.542099E0,1.4229717E1,4.814557E1,5.3070755E1,4.0473328E1,9.684451E0,1.3029306E1,1.8214111E0,2.932455E0,4.085022E1,2.7633026E1,1.7538025E1,1.868509E1,0E0,0E0,7.778424E-1,4.4008636E-1,0E0,2.0866241E0,9.535439E0,8.1261215E0,1.3459656E1,1.255043E1,1.2728188E1,4.6558205E1,2.3588501E1,7.8932514E0,7.2889996E0,7.6255794E0,7.369192E0,1.7603796E1,0E0,0E0,0E0,1.1231356E0,4.2274475E0,2.7313766E0,1.5065353E1,9.795746E0,1.1857483E1,1.1010368E1,1.1721092E1,1.4378983E1,0E0,0E0,0E0,0E0,4.805069E-1,1.0258484E0,1.1023989E0,2.095109E0,3.3084145E0,7.3882713E0,6.578903E0,1.5984558E1,1.4913055E1,1.1400501E1,2.786583E0,5.4714518E0,3.88888E1,1.5157093E1,1.2699326E1,1.6792608E1,1.0608506E0,4.3034163E0,3.6041012E0,3.4327495E0,2.5061698E0,3.1085136E0,0E0,7.8768253E0,4.8661923E0,6.752198E0,0E0,5.883179E-1,0E0,0E0,0E0,3.8011093E0,9.196335E0,3.3569624E0,1.3853462E1,5.160637E0,1.1882771E0,5.481781E0,7.380766E0,1.0975037E1,2.1910057E0,7.217392E0,9.052467E0,0E0,4.3235588E-1,0E0,0E0,3.0156631E0,0E0,0E0,1.0153347E0,1.3953481E0,1.7952929E0,1.1716995E0,2.868959E0,5.8560677E0,4.9347954E0,2.0173721E0,3.7330017E0,3.9401321E0,8.916E0,1.0803619E1,9.822655E0,2.574748E0,1.0927811E0,2.0810757E0,3.4904644E0,4.297584E0,3.5474934E1,2.6341427E1,1.7457141E0,3.314991E0,6.77829E0,6.430664E0,7.0150046E0,9.33902E0,0E0,1.5266805E0,1.6385571E0,2.9363275E0,4.218745E0,5.417433E0,2.540632E0,2.3340037E0,1.663413E0,0E0,2.1394403E0,2.071875E0,5.218716E0,4.140829E0,8.4366727E-1,3.5519867E0,5.696245E0,2.3236485E0,0E0,0E0,0E0,2.8504486E0,3.905899E0,1.9741669E0,5.426864E-1,0E0,0E0,4.597252E0,0E0,0E0,0E0,5.511815E-1,6.0002136E0,0E0,0E0,0E0,9.797932E0,1.4989159E1,0E0,0E0,4.8254547E0,2.6615925E0,6.031326E0,1.8472366E0,0E0,0E0,2.6545773E0,0E0,0E0,3.2043695E-1,4.7927487E-1,3.4891713E-1,0E0,5.684867E-1,3.0463123E-1,3.442955E-1,2.4580512E0,1.6556448E0,4.481327E0,2.1047816E0,7.758999E-1,3.0236092E0,0E0,1.4915085E0,1.8856125E0,2.029007E0,4.0279617E0,0E0,3.313016E0,7.925863E-1,1.0157936E1,7.4925537E0,2.8535156E0,6.726447E0,0E0,0E0,0E0,0E0,0E0,3.2277155E-1,1.3637681E0,4.658482E-1,1.7460289E0,4.502231E-1,3.0618603E1,7.0936546E0,8.674957E0,9.862294E0,1.3592713E0,0E0,1.5058403E0,3.0758286E-1,9.309921E-1,3.965273E-1,3.2296383E0,3.3100739E0,6.0851407E0,3.8765771E0,4.0372887E0,6.426369E-1,0E0,0E0,0E0,4.0149212E-1,7.634649E-1,2.5807905E0,9.7687626E-1,9.439548E-1,0E0,2.1104126E0,0E0,4.4785276E-1,1.2140125E0,0E0,0E0,4.9095482E-1,0E0,0E0,1.5943966E0,7.462521E-1,0E0,3.7635205E0,5.0737963E0,3.0745277E0,0E0,0E0,3.519905E0,1.9446993E0,2.4647489E0,2.2852826E0,1.9696007E0,0E0,6.425133E-1,0E0,2.6458511E0,1.9544535E0,0E0,1.2521591E0,0E0,0E0,1.3856144E0,9.376755E-1,0E0,0E0,4.501831E0,1.3455046E0,8.18469E0,2.1038475E0,2.2286453E0,6.7350388E0,2.8056107E0,0E0,0E0,2.6923285E0,9.4910717E-1,0E0,2.2501373E0,4.128914E-1,0E0,0E0,0E0,0E0,0E0,0E0,0E0,0E0,0E0,0E0,0E0,0E0,0E0,0E0,3.1476092E-1,0E0,0E0,0E0,2.990591E0,2.3518143E0,0E0,0E0,0E0,0E0,0E0,2.8427238E0,1.1656523E0,9.736862E-1,2.0551987E0,0E0,1.8502808E0,0E0,4.106351E0,1.1862259E0,2.345367E0,1.421639E0,0E0,0E0,4.6430535E0,3.5719032E0,4.102173E0,3.012436E0,1.7941895E0,1.2996368E0,2.2198408E0,2.5178022E0,0E0,0E0,0E0,0E0,0E0,0E0,0E0,0E0,0E0,0E0,5.0271378E0,1.59637375E1,7.0083466E0,4.466521E0,9.218384E0,8.379164E0,7.8452826E0,4.662459E0,0E0,9.025185E-1,0E0,1.0962257E0,0E0,0E0,0E0,0E0,0E0,0E0,0E0,0E0,0E0,3.2117615E0,0E0,3.0930166E0,0E0,1.9144793E0,0E0,2.403057E0,0E0,0E0,0E0,0E0,0E0,4.2126083E-1,2.694155E0,6.9614005E-1,0E0,0E0,0E0,4.889669E-1,2.2257419E0,1.6552334E0,0E0,0E0,8.4549594E-1,0E0,0E0,0E0,1.507371E0,0E0,0E0,0E0,2.9347382E0,1.5667334E0,3.047021E0,1.6021968E0,1.496203E0,9.04768E-1,2.3571053E0,1.8972608E0,0E0,0E0,3.0922332E0,1.2382212E0,1.6026306E0,6.3253325E-1,0E0,1.6643105E0,0E0,0E0,1.716646E0,2.237297E0,0E0,0E0,0E0,1.586216E0,0E0,5.503731E-1,0E0,0E0,5.681534E0,4.2879078E-1,0E0,0E0,1.5000534E1,0E0,0E0,1.6321812E0,0E0,0E0,7.7408867E0,6.134844E0,3.5638351E0,0E0,2.9925632E0,1.6605519E0,0E0,0E0,0E0,2.0554466E0,0E0,0E0,0E0,0E0,2.844223E0,1.3282907E0,2.0204086E0,1.4657984E0,9.0627193E-1,1.8534164E0,0E0,0E0,5.753889E-1,1.0831604E0,0E0,3.5978603E-1,8.201237E-1,9.4247437E-1,1.084158E0,2.1959076E0,1.6597366E0,0E0,9.863503E-1,1.2273309E0,0E0,0E0,8.93378E-1,2.496072E0,2.558979E0,0E0,3.3730164E0,2.9747066E0,2.768588E0,2.4748173E0,3.641529E0,1.742372E0,1.0658169E0,8.981466E-1,8.9543843E-1,2.0868876E0,0E0,3.0362E0,2.8968658E0,3.5817661E0,2.2129309E1,7.241543E0,3.4688618E0,5.138336E0,1.5161879E0,2.2584858E0,3.9517365E0,1.881926E0,5.394375E0,5.2073555E0,3.308463E0,1.2122126E0,1.1702538E0,5.164008E0,0E0,2.8689003E-1,0E0,0E0,0E0,3.023697E0,3.3835812E0,1.652476E0,0E0,1.368613E0,8.609371E-1,3.739127E-1,0E0,0E0,0E0,0E0,0E0,0E0,0E0,0E0,0E0,0E0,1.2261772E0,0E0,4.0192884E-1,0E0,0E0,5.259362E-1,8.6796284E-1,6.924618E-1,1.7132412E0,0E0,0E0,2.0898705E0,6.5803236E-1,0E0,0E0,0E0,0E0,0E0,8.8431144E-1,0E0,1.8740096E0,1.0733559E0,1.5726366E0,9.715359E-1,0E0,0E0,1.695509E0,0E0,0E0,0E0,0E0,0E0,0E0,2.9669714E-1,4.9884033E-1,3.760028E-1,0E0,0E0,0E0,0E0,5.513214E0,0E0,0E0,0E0,0E0,4.601303E0,0E0,1.084177E0,5.4606056E0,8.214542E0,5.083065E0,1.0094118E0,1.2261047E0,2.1902275E0,0E0,6.6096115E-1,8.5629284E-1,0E0,0E0,0E0,2.6911516E0,3.4128532E0,0E0,0E0,1.1354923E0,0E0,0E0,0E0,9.05586E-1,4.351809E-1,2.1998215E0,0E0,0E0,0E0,0E0,0E0,0E0,0E0,1.6408288E0,0E0,2.4403229E0,2.2063866E0,0E0,0E0,1.0816936E0,4.4265983E-1,2.8751945E-1,0E0,0E0,0E0,1.5105264E0,0E0,0E0,0E0,3.5129774E-1,1.7933519E0,2.3754082E0,1.5471764E0,2.2094803E0,3.5449028E0,7.9525757E-1,9.223516E-1,1.3860722E0,0E0,0E0,0E0,1.1275711E0,5.6470604E0,1.6429027E0,1.1903644E0,0E0,1.247386E0,0E0,9.5025635E-1,1.1013088E0,2.5899047E-1,0E0,6.4025414E-1,2.4079905E0,1.0623254E0,0E0,3.107069E0,0E0,2.1794224E0,1.4544916E1,8.433487E0,1.0284208E1,1.0789959E1,9.934993E-1,1.8902855E0,2.8154373E0,2.9850082E0,1.3469822E0,0E0,0E0,0E0,0E0,4.0386353E0,0E0,0E0,3.4663167E0,3.4366527E0,2.2914002E0,5.113682E0,2.979967E0,0E0,0E0,0E0,0E0,0E0,3.1520457E0,4.2278347E0,0E0,0E0,2.8409882E0,4.7786522E-1,6.909313E-1,4.913848E-1,4.3557537E-1,5.938687E-1,0E0,0E0,0E0,0E0,0E0,0E0,0E0,0E0,0E0,0E0,0E0,0E0,5.911131E-1,0E0,0E0,0E0,2.5569499E0,1.9454223E0,0E0,1.1654701E0,0E0,0E0,6.036098E-1,4.3191007E-1,1.5434428E0,9.732436E-1,3.982954E-1,4.8092946E-1,1.8516388E0,3.8872227E-1,0E0,0E0,0E0,1.1599426E0,0E0,0E0,7.3456955E-1,0E0,6.498461E-1,0E0,5.9181824E0,4.8275623E0,2.2522764E0,0E0,0E0,0E0,1.2762551E0,4.168889E0,6.563141E0,1.4762707E0,0E0,3.895317E0,0E0,0E0,5.726166E-1,0E0,0E0,9.692421E-1,0E0,5.0670624E-1,1.0120583E0,0E0,0E0,0E0,0E0,0E0,0E0,0E0,0E0,0E0,0E0,0E0,0E0,0E0,0E0,0E0,0E0,0E0,0E0,0E0,0E0,0E0,0E0,0E0,0E0,0E0,0E0,0E0,0E0,0E0,0E0,0E0,0E0,0E0,0E0,0E0,0E0,0E0,0E0,0E0,0E0,0E0,0E0,0E0,0E0,0E0,0E0,0E0,0E0,0E0,0E0,0E0,0E0,0E0,0E0,0E0,0E0,0E0,0E0,0E0,0E0,0E0,0E0,0E0,0E0,0E0,0E0,0E0,0E0,0E0,0E0,0E0,0E0,0E0,0E0,0E0,0E0,0E0,0E0,0E0,0E0,0E0,0E0,0E0,0E0,0E0,0E0,0E0,0E0,0E0,0E0,0E0,0E0,0E0,0E0,0E0,0E0,0E0,0E0,0E0,0E0,0E0,0E0,0E0,0E0,0E0,0E0,0E0,0E0,0E0,0E0,0E0,0E0,0E0,0E0,0E0,0E0,0E0,0E0,0E0,0E0,0E0,0E0,0E0,0E0,0E0,0E0,0E0,0E0,0E0,0E0,0E0,0E0,0E0,0E0,0E0,0E0,0E0,0E0,0E0,0E0,0E0,0E0,0E0,0E0,0E0,0E0,0E0,0E0,0E0,0E0,0E0,0E0,0E0,0E0,0E0,0E0,0E0,0E0,0E0,0E0,0E0,0E0,0E0,0E0,0E0,0E0,0E0,0E0,0E0,0E0,0E0],"parents":[2147483647,0,0,1,1,2,2,3,3,4,4,5,5,6,6,7,7,8,8,9,9,10,10,11,11,12,12,13,13,14,14,15,15,17,17,18,18,19,19,20,20,21,21,22,22,23,23,24,24,25,25,26,26,27,27,28,28,29,29,30,30,33,33,34,34,36,36,37,37,38,38,39,39,40,40,41,41,42,42,43,43,44,44,45,45,46,46,47,47,48,48,52,52,53,53,54,54,55,55,56,56,57,57,58,58,59,59,60,60,65,65,66,66,67,67,68,68,69,69,70,70,71,71,72,72,73,73,74,74,75,75,76,76,77,77,78,78,79,79,80,80,81,81,82,82,83,83,84,84,85,85,86,86,88,88,89,89,90,90,92,92,96,96,97,97,98,98,99,99,100,100,101,101,102,102,103,103,104,104,105,105,106,106,107,107,109,109,112,112,115,115,116,116,117,117,118,118,119,119,120,120,121,121,122,122,123,123,124,124,125,125,126,126,127,127,128,128,129,129,130,130,131,131,132,132,133,133,134,134,135,135,136,136,137,137,138,138,139,139,140,140,142,142,143,143,144,144,145,145,146,146,147,147,148,148,149,149,151,151,152,152,153,153,154,154,155,155,156,156,157,157,158,158,162,162,163,163,164,164,165,165,168,168,172,172,173,173,177,177,178,178,181,181,182,182,183,183,184,184,187,187,190,190,191,191,192,192,194,194,195,195,196,196,197,197,198,198,199,199,200,200,201,201,202,202,204,204,205,205,206,206,207,207,209,209,210,210,211,211,212,212,213,213,214,214,220,220,221,221,222,222,223,223,224,224,225,225,226,226,227,227,228,228,229,229,231,231,232,232,233,233,234,234,235,235,236,236,237,237,238,238,239,239,240,240,244,244,245,245,246,246,247,247,248,248,250,250,252,252,253,253,256,256,259,259,260,260,262,262,263,263,264,264,267,267,268,268,269,269,270,270,271,271,273,273,275,275,276,276,278,278,281,281,282,282,285,285,286,286,287,287,288,288,289,289,290,290,291,291,294,294,295,295,297,297,298,298,313,313,317,317,318,318,324,324,325,325,326,326,327,327,329,329,331,331,332,332,333,333,334,334,337,337,338,338,339,339,340,340,341,341,342,342,343,343,344,344,355,355,356,356,357,357,358,358,359,359,360,360,361,361,362,362,364,364,366,366,376,376,378,378,380,380,382,382,388,388,389,389,390,390,394,394,395,395,396,396,399,399,403,403,407,407,408,408,409,409,410,410,411,411,412,412,413,413,414,414,417,417,418,418,419,419,420,420,422,422,425,425,426,426,430,430,432,432,435,435,436,436,439,439,442,442,445,445,446,446,447,447,449,449,450,450,454,454,459,459,460,460,461,461,462,462,463,463,464,464,467,467,468,468,470,470,471,471,472,472,473,473,474,474,475,475,477,477,478,478,481,481,482,482,483,483,485,485,486,486,487,487,488,488,489,489,490,490,491,491,492,492,493,493,494,494,496,496,497,497,498,498,499,499,500,500,501,501,502,502,503,503,504,504,505,505,506,506,507,507,508,508,509,509,510,510,511,511,512,512,514,514,518,518,519,519,520,520,522,522,523,523,524,524,535,535,537,537,540,540,541,541,542,542,543,543,546,546,547,547,553,553,555,555,556,556,557,557,558,558,561,561,568,568,569,569,570,570,575,575,580,580,582,582,583,583,584,584,585,585,586,586,587,587,588,588,590,590,591,591,595,595,596,596,599,599,603,603,604,604,605,605,613,613,615,615,616,616,619,619,620,620,621,621,625,625,629,629,630,630,631,631,632,632,633,633,634,634,635,635,636,636,637,637,641,641,642,642,643,643,644,644,646,646,648,648,649,649,650,650,652,652,653,653,654,654,656,656,658,658,659,659,660,660,661,661,662,662,663,663,664,664,665,665,666,666,667,667,672,672,675,675,676,676,677,677,678,678,679,679,685,685,686,686,689,689,690,690,691,691,692,692,693,693,694,694,707,707,711,711,712,712,714,714,717,717,718,718,719,719,720,720,721,721,722,722,723,723,724,724,728,728,731,731,733,733,735,735,736,736,737,737,741,741,742,742,743,743,744,744,746,746,749,749,752,752,754,754,755,755],"right_children":[2,4,6,8,10,12,14,16,18,20,22,24,26,28,30,32,-1,34,36,38,40,42,44,46,48,50,52,54,56,58,60,-1,-1,62,64,-1,66,68,70,72,74,76,78,80,82,84,86,88,90,-1,-1,-1,92,94,96,98,100,102,104,106,108,-1,-1,-1,-1,110,112,114,116,118,120,122,124,126,128,130,132,134,136,138,140,142,144,146,148,150,152,-1,154,156,158,-1,160,-1,-1,-1,162,164,166,168,170,172,174,176,178,180,182,184,-1,186,-1,-1,188,-1,-1,190,192,194,196,198,200,202,204,206,208,210,212,214,216,218,220,222,224,226,228,230,232,234,236,238,240,-1,242,244,246,248,250,252,254,256,-1,258,260,262,264,266,268,270,272,-1,-1,-1,274,276,278,280,-1,-1,282,-1,-1,-1,284,286,-1,-1,-1,288,290,-1,-1,292,294,296,298,-1,-1,300,-1,-1,302,304,306,-1,308,310,312,314,316,318,320,322,324,-1,326,328,330,332,-1,334,336,338,340,342,344,-1,-1,-1,-1,-1,346,348,350,352,354,356,358,360,362,364,-1,366,368,370,372,374,376,378,380,382,384,-1,-1,-1,386,388,390,392,394,-1,396,-1,398,400,-1,-1,402,-1,-1,404,406,-1,408,410,412,-1,-1,414,416,418,420,422,-1,424,-1,426,428,-1,430,-1,-1,432,434,-1,-1,436,438,440,442,444,446,448,-1,-1,450,452,-1,454,456,-1,-1,-1,-1,-1,-1,-1,-1,-1,-1,-1,-1,-1,-1,458,-1,-1,-1,460,462,-1,-1,-1,-1,-1,464,466,468,470,-1,472,-1,474,476,478,480,-1,-1,482,484,486,488,490,492,494,496,-1,-1,-1,-1,-1,-1,-1,-1,-1,-1,498,500,502,504,506,508,510,512,-1,514,-1,516,-1,-1,-1,-1,-1,-1,-1,-1,-1,518,-1,520,-1,522,-1,524,-1,-1,-1,-1,-1,526,528,530,-1,-1,-1,532,534,536,-1,-1,538,-1,-1,-1,540,-1,-1,-1,542,544,546,548,550,552,554,556,-1,-1,558,560,562,564,-1,566,-1,-1,568,570,-1,-1,-1,572,-1,574,-1,-1,576,578,-1,-1,580,-1,-1,582,-1,-1,584,586,588,-1,590,592,-1,-1,-1,594,-1,-1,-1,-1,596,598,600,602,604,606,-1,-1,608,610,-1,612,614,616,618,620,622,-1,624,626,-1,-1,628,630,632,-1,634,636,638,640,642,644,646,648,650,652,-1,654,656,658,660,662,664,666,668,670,672,674,676,678,680,682,684,686,-1,688,-1,-1,-1,690,692,694,-1,696,698,700,-1,-1,-1,-1,-1,-1,-1,-1,-1,-1,702,-1,704,-1,-1,706,708,710,712,-1,-1,714,716,-1,-1,-1,-1,-1,718,-1,720,722,724,726,-1,-1,728,-1,-1,-1,-1,-1,-1,730,732,734,-1,-1,-1,-1,736,-1,-1,-1,-1,738,-1,740,742,744,746,748,750,752,-1,754,756,-1,-1,-1,758,760,-1,-1,762,-1,-1,-1,764,766,768,-1,-1,-1,-1,-1,-1,-1,770,-1,772,774,-1,-1,776,778,780,-1,-1,-1,782,-1,-1,-1,784,786,788,790,792,794,796,798,800,-1,-1,-1,802,804,806,808,-1,810,-1,812,814,816,-1,818,820,822,-1,824,-1,826,828,830,832,834,836,838,840,842,844,-1,-1,-1,-1,846,-1,-1,848,850,852,854,856,-1,-1,-1,-1,-1,858,860,-1,-1,862,864,866,868,870,872,-1,-1,-1,-1,-1,-1,-1,-1,-1,-1,-1,-1,874,-1,-1,-1,876,878,-1,880,-1,-1,882,884,886,888,890,892,894,896,-1,-1,-1,898,-1,-1,900,-1,902,-1,904,906,908,-1,-1,-1,910,912,914,916,-1,918,-1,-1,920,-1,-1,922,-1,924,926,-1,-1,-1,-1,-1,-1,-1,-1,-1,-1,-1,-1,-1,-1,-1,-1,-1,-1,-1,-1,-1,-1,-1,-1,-1,-1,-1,-1,-1,-1,-1,-1,-1,-1,-1,-1,-1,-1,-1,-1,-1,-1,-1,-1,-1,-1,-1,-1,-1,-1,-1,-1,-1,-1,-1,-1,-1,-1,-1,-1,-1,-1,-1,-1,-1,-1,-1,-1,-1,-1,-1,-1,-1,-1,-1,-1,-1,-1,-1,-1,-1,-1,-1,-1,-1,-1,-1,-1,-1,-1,-1,-1,-1,-1,-1,-1,-1,-1,-1,-1,-1,-1,-1,-1,-1,-1,-1,-1,-1,-1,-1,-1,-1,-1,-1,-1,-1,-1,-1,-1,-1,-1,-1,-1,-1,-1,-1,-1,-1,-1,-1,-1,-1,-1,-1,-1,-1,-1,-1,-1,-1,-1,-1,-1,-1,-1,-1,-1,-1,-1,-1,-1,-1,-1,-1,-1,-1,-1,-1,-1,-1,-1,-1,-1,-1,-1,-1,-1,-1,-1,-1],"split_conditions":[5.3517317E-4,3.02994E13,6.758757E-4,3.8293886E-1,2.548272E-4,1.5E0,3.99078E3,8.217748E-5,1E0,2.12079E3,2.40439E3,0E0,1.8023731E-1,4.74917E-2,1.6523326E-3,1.5285279E-1,4.760778E-2,6.959024E-5,1.7483604E-1,-6.132875E-2,4.89259E3,-7.09E-1,4.8391207E-4,4.9992587E-4,6.12E1,1.5285279E-1,7.944066E-2,3.6453E1,1.6444534E-3,1.1022718E-2,2.094148E-3,2.8028911E-2,9.975371E-3,1.8907811E-1,1.623619E-1,1.8947411E-2,9.187762E-3,-3.6239088E-1,1.274591E0,1.171E11,5.67603E3,9.845E1,5.805E3,2.3546817E0,1.3149858E-1,1.6249452E0,1.4144978E-1,3.0552273E1,3.7929258E-1,2.8796913E-2,1.8920789E-2,1.2064549E-2,-2.0778244E-2,1.3E-2,9.488925E-2,1.2903413E-1,5.771143E-3,9.275086E-2,1.0883316E0,1.747E0,2.4696843E-1,3.2184022E-3,-1.0245162E-3,8.83952E-3,4.7338842E-3,3.5539697E-4,2.5584886E-4,6.3641295E-5,1.5259278E-4,3.7018616E-2,2.37433E2,1.3801E2,3.3092324E-4,2.68254E5,3.805187E-4,2.031729E-1,3.979843E-4,6.0226535E-4,3.979843E-4,1.2654153E-2,3.66454E6,6.460833E-2,9.34E1,9.52131E5,7.204869E-5,1.6107599E0,5.1697635E-4,1.4805139E-2,5.103025E-1,1.209E2,1.9126433E-1,1.7879068E-4,6.830287E-2,2.3515558E-2,3.6643114E-2,7.3229875E-3,4.568782E-4,1.3954397E-1,3.3159394E-2,1.0519994E-1,1.1543161E0,6.4266403E-4,7.2689E1,1.0780285E-3,5.82E3,9.044919E-2,8.149369E-4,1.408E0,2.4716405E-2,3.2625019E-4,1.1856933E-2,1.9403266E-2,1.8520717E-5,1.3839016E-2,4.7852164E-3,5.4566564E-5,8.053059E-5,8.449868E-2,1.2534E3,8.516708E-3,4.0108347E-4,1.7007653E-4,1.2601909E-4,1.5107432E-4,1.8185695E-1,1.3135E3,1.44452E4,2.6703993E-2,6.1722048E-2,1.3997722E-1,1.156E0,1.7095435E-1,4.2374694E-4,1.3135E3,1.751875E-1,8.9042274E-5,5.4831244E-4,9.477314E-2,-4.0374383E-1,2.4887362E-2,2.3965E2,-0E0,4.612263E-2,3.6635075E-2,4.4932842E-4,9.545225E-5,8.112E-1,2.505039E-2,5.17105E3,2.633E0,-2.3943881E-4,1.66785E3,1.8206316E-4,1.237681E-4,6.8431965E-4,-3.3427277E-1,4.261298E-2,4.8690822E-4,2.075E3,3.160761E-3,8.290208E-3,2.439964E-2,6.3045986E-4,9.7664E7,-2.3987758E-1,3.4602653E-4,-6.6996766E-3,2.980449E-2,1.2858667E0,1.47771835E-2,3.1662636E-2,-3.2132184E-3,2.171E0,2.56E3,-5.857286E-4,1.741611E-2,3.1515497E-3,1.8937424E-1,1.891E-1,2.4110386E-2,1.2183244E-2,5.336301E-1,9.847259E-2,1.8162541E-1,7.8E1,9.63852E-3,4.706316E-3,1.5127143E-2,1.4937116E-2,-0E0,8.833936E-2,1.4749901E-1,1.59591E3,9.856919E-4,8.6522214E-2,1.2910482E-4,3.5790956E-5,1.0396646E-1,7.139071E-5,9.6002E1,1.4937879E-1,8.757811E-2,2.2969995E-2,-2.2495463E-3,-3.18E-1,8.43259E-3,3.6360282E-2,4.5093636E1,-0E0,1.479588E4,3.0377638E-1,2.18174E3,1.1165669E-1,1.2510565E-1,1.5376091E-2,-0E0,1.042376E-2,9.541685E-3,3.6980833E-3,9.58609E-3,4.8193437E-5,3.0483674E-5,1.5634882E-1,1.6312903E-1,-5.7357434E-2,-5E-1,1.76467E3,1.3683265E-1,3.1595238E-2,1.1862667E-5,-1.8095855E-3,2.1469885E-5,1.5373393E-5,3.5614448E-4,6.466486E-2,-8.6561656E-1,-5.9227858E-2,2.09956E-5,4.578035E-2,4.08068E-2,2.9374927E-2,6.2456457E-3,-0E0,-9.4096194E-4,-2.0403916E-1,1.545506E-1,5.0773524E-2,2.4547136E-5,-2.6517928E-1,2.242223E-3,7.242453E-1,7.4820425E-3,9.523873E-3,1.5362476E-1,-8.9509925E-3,8.366268E-3,1.3226756E-1,-1.7371778E-4,7.43921E-3,7.55802E3,-6.27E-1,8.861332E-3,0E0,1.6116127E0,1.7088942E-1,-0E0,4.107371E-3,7.349736E-5,-2.580721E-1,9.31734E-2,3.8691815E-2,1.5578751E-2,-0E0,1.0441326E-4,6.1045177E-3,9.4E-3,3.1095971E-3,9.51086E-3,4.0727944E-4,-0E0,4.618065E-3,7.3539086E-5,7.988663E-2,-0E0,3.7313828E-3,1.02316E2,2.451225E-1,1.0879512E-3,0E0,-2.84E-1,3.723631E-1,3.4063092E-1,-0E0,1.1158642E-2,4.88284E3,-1.7840926E-2,-2.6224623E-3,1.4057112E-4,1.6474384E-1,1.1967118E-2,1.934419E-3,1.4965042E-3,7.3929774E-3,-3.496242E-3,-0E0,-0E0,3.3255834E-3,-6.606919E-4,-5.7128435E-3,-3.7063903E-3,-7.732026E-3,-1.2525313E-2,-6.659371E-3,7.741137E-2,8.242254E-3,-4.2209104E-3,2.5215598E-3,5.466766E-1,1.7564727E-1,7.670316E-3,-0E0,-5.7574227E-3,-1.1584041E-2,7.885425E-4,8.2996833E-1,1.12687165E-4,6.488281E-5,3.8386372E-1,-6.8659103E-3,-4.3298882E-1,-2.095492E-3,5.833737E-6,-7.211358E-2,1.713862E-2,1.21532515E-1,-5.1256064E-3,-1.2589768E-2,1.399085E4,1.3087764E-4,1.0736652E-1,3.7939715E-1,2.6533209E-2,1.007E1,2.649335E-2,5.4858057E-5,3.705197E-3,-0E0,-6.029567E-3,-0E0,-0E0,4.089034E-3,1.4281338E-2,4.26512E-3,2.4892786E-3,-7.2051014E-4,1.1273284E-2,7.9E-2,2.7191171E-2,4.9707858E-5,1.460724E4,3.8049173E-2,6.7034E3,3.474799E-5,-2.6373912E-4,2.7881215E-5,5.316113E-3,1.0871447E-1,2.0312052E-2,1.0947838E-2,-2.005556E-2,-1.2635241E-2,-3.4734681E-3,-9.6058445E-3,5.6567276E-3,-4.557926E-3,-1.0346661E-4,-9.778505E-1,7.3128445E-3,2.4580011E-1,1.0060197E-2,2.1958283E-1,-1.0516183E-2,4.526653E-4,4.1112914E-3,-0E0,2.2973876E-5,4.849493E-3,-7.3250677E-3,1.3851E2,1.3763153E-2,7.399602E-1,-1.10173365E-2,-3.3112674E-3,-3.2968994E-3,5.2235675E-5,7.898249E-5,1.0060534E0,1.8336719E-3,-1.0484059E-3,2.285307E0,1.4870259E-3,-0E0,4.116479E-3,2.4380891E-4,1.4203376E-3,-1.0481101E-3,3.1727187E-3,2.797422E-2,5.430463E-1,-2.694498E-1,6.992916E-5,-1.9002985E-2,6.5541E1,3.567626E-1,1.4863969E-2,-2.1393986E-3,-9.82275E-3,3.4125546E-1,1.0286426E-1,1.3628E2,1.1447852E-1,-0E0,6.0647136E-1,1.1411622E-2,1.8889844E-2,2.6119043E-5,1.03649E1,5.62843E-3,-6.4240687E-4,1.8764237E-2,7.196831E-5,3.8111177E-3,-2.4222383E-2,1.8378317E-2,1.167591E-2,6.2777415E-2,2.0341328E-4,2.922863E-3,-4.111546E-3,1.0324761E-1,-5.0415043E-3,1.48436725E-2,-3.909309E-3,1.958335E-2,7.726353E-3,7.6408446E-1,2.1140794E-1,4.388989E-4,4.981349E-3,2.6593181E-1,6.44574E-1,3.7917218E-3,1.1782117E-2,2.3769047E-2,1.5757446E-1,1.2800861E-2,6.50491E-3,2.5183898E-3,-3.280053E-4,-7.925774E-2,1.6449206E-4,7.30173E9,1.8619353E-1,2.2931071E-4,8.16513E9,-7.2772442E-3,-2.0178338E-3,1.4829E7,5.0622E4,-1.4819719E-2,1.3584484E-1,1.7885336E-4,2.7555749E-2,8.876939E-2,3.952744E-2,8.884594E-5,-1.0990197E-2,2.422409E0,1.3760398E-1,6.291163E-3,-0E0,3.6583064E-5,5.29548E-5,2.3412099E-4,-0E0,2.4874575E-4,1.7774117E-5,9.130911E-5,5.647979E-5,1.492998E-4,1.4705166E-1,2.0435187E-5,1.2224126E-5,3.06971E6,1.1781624E-6,-9.948177E-3,2.2132782E-4,-8.215389E-1,5.490281E-6,3.8680047E-4,2.0744832E-2,8.9487E4,7.724E3,1.2457078E-5,1.31774E6,1.2369425E-1,1.0030902E-1,1.3857667E-1,6.856761E-4,1.0634795E-3,9.6394E-5,-6.014632E-1,1.6126E0,-0E0,-3.131931E-1,1.3416869E-2,6.05822E-3,-3.759259E-4,1.23321734E-1,-4.6211675E-2,3.38777E5,-3.4047912E-3,5.0486E5,5.467959E-1,-1.7311577E-1,-0E0,-4.259636E-3,-1.1822229E-3,6.478948E-3,-0E0,-4.2944863E-3,-0E0,3.4226978E-3,-6.614018E-3,-0E0,1.1518E0,-2.0944152E-3,-2.566445E-3,-3.3781654E-3,-5.2786437E-3,8.27304E-1,1.342731E-1,6.33442E3,1.291612E-4,5.9892936E-3,3.3058668E-4,2.0762727E0,4.12934E-3,3.0255069E-3,-0E0,5.83345E-3,1.2405893E-2,4.7741816E-3,1.4086441E-2,-1.066974E-2,6.877927E-5,1.6868694E-1,1.3325382E-4,5.2235675E-5,4.6747243E-3,-0E0,4.152446E-5,-0E0,-2.532493E-3,1.3642282E-3,7.719964E-3,2.37298E-3,-0E0,8.878653E-4,1.4673185E-3,4.0998207E-3,6.4543816E-3,1.4211428E-2,4.8746355E-3,1.1712302E-2,1.4673185E-3,1.3538936E-2,-2.4808143E-4,2.669368E-3,2.2020774E-2,2.6294293E-2,2.7479113E-3,-1.6645733E-1,-4.8715565E-1,1.8448206E-3,5.99161E-2,4.9938605E-4,-2.6858287E-2,7.8766653E-4,-0E0,1.2530481E-3,2.3094197E-1,7.5710802E-3,9.381758E-3,1.8349169E-2,1.8141623E-1,1.8377481E-5,6.108509E-3,-0E0,4.75687E5,-1.1063445E-2,4.4143185E-4,-3.9124032E-3,3.1265658E-1,-1.8078263E-1,3.125E3,-0E0,-1.5937758E-3,-7.983313E-3,-3.1056087E-3,-9.869774E-3,-1.1118977E-2,-4.156435E-3,8.048995E-6,-9.957169E-3,5.8036752E-2,4.70875E8,-2.1822553E-3,3.9915214E-3,3.646528E-4,3.441278E-5,1.2656423E-4,-4.9915764E-4,-1.5660668E-3,-6.837924E-3,8.141378E-3,3.921597E-3,-5.574157E-3,-2.2002537E-4,5.4566564E-5,7.077264E-1,1.2516506E-1,1.11205E7,2.8213022E-2,2.5919588E-2,4.338192E-5,4.7094665E-5,3.1248685E-5,2.091377E-3,-1.1183371E-2,-2.222851E-3,7.271828E-2,7.8E1,7.176849E-5,2.4918658E-5,-1.1007377E-2,-1.68342E-1,-1.3773636E-3,2.189459E-4,1.2532E3,2.4918658E-5,4.744245E-3,5.9484E1,6.870255E-1,5.283451E-5,-0E0,5.2387E1,-1.4350143E-2,6.3515945E-5,2.07928E3,1.4573725E-1,3.470553E-4,2.3432353E-1,1.0815086E-4,4.3766786E-4,2.1514634E-4,7.61951E3,3.558425E-4,-6.146845E-3,-1.2523311E-4,7.4092927E-3,7.503818E-3,3.8270658E-4,5.5494374E-3,-2.2456038E-3,1.3802765E-4,-6.4481413E-3,1.9903704E0,1.766607E-1,6.4735353E-4,1.7782106E-3,-0E0,7.5715734E-3,1.1335477E-2,2.4673317E-3,4.92856E3,1.3617468E-4,7.938324E-3,3.1950464E-3,1.2452113E-1,2.9491016E-4,1.0462053E-4,-1.080746E-1,-5.8943774E-3,8.8755E0,-0E0,4.717424E-3,-8.362776E-3,-2.693839E-3,-2.7361463E-3,3.8033984E-5,-8.512549E-3,-1.5967641E-2,1.5742145E-3,-2.1512837E-3,3.055896E-4,-2.478528E-3,6.992916E-5,1.9816246E-3,-1.6963792E-3,2.748933E-3,2.2536333E-1,6.1128027E-4,-0E0,-3.7301165E-1,-3.9269524E-3,-0E0,2.1891E2,1.7343229E-1,4.969319E-5,-4.6423173E-1,1.2910482E-4,1.6148803E-4,1.0172182E2,9.861552E-4,6.221304E-3,-0E0,-0E0,2.1140794E-1,7.2414107E-3,1.8339234E-3,8.393853E-2,4.2535733E-3,1.7614418E-4,2.0703082E-3,5.2653137E-4,-2.7391738E-1,2.2703625E-1,-4.3644942E-3,1.30887125E-2,4.711073E-3,2.5702605E-4,2.9004633E0,2.3471363E1,9.604137E1,-0E0,6.269E3,-3.2904616E-3,1.9523622E-3,6.485E1,2.7744935E-3,8.049763E-3,1.5958384E-1,3.3068932E-3,7.887652E-4,1.504E0,-1.4516399E-3,2.4721306E-3,-3.0737368E-3,-4.3516923E-3,-2.1752436E-3,-4.120908E-4,-5.1671085E-3,-0E0,-3.991018E-3,-7.154486E-4,-6.2063285E-3,-6.595387E-3,-1.7744225E-3,-7.5390735E-3,-2.4810582E-4,-1.1733685E-2,-5.922066E-3,-9.417012E-3,-1.0280105E-3,-1.839279E-3,-7.897846E-3,-3.5811593E-3,-0E0,-1.0256467E-2,-6.1502727E-3,6.811375E-4,-4.5548626E-3,-0E0,-2.7052003E-3,6.8733566E-3,-0E0,-6.0388516E-3,-1.0584228E-2,-4.7086263E-3,-0E0,-1.211404E-2,-7.2595966E-3,-3.9031815E-3,-9.077548E-3,-5.6587625E-3,-1.1993271E-2,-0E0,-3.994048E-3,-3.0679696E-3,-6.267729E-3,-1.5842115E-3,-8.316749E-3,-7.097561E-3,-2.46925E-3,-2.8130834E-3,6.5458775E-4,-1.1972737E-3,-8.415557E-3,-4.063171E-4,-7.748125E-3,-3.2447474E-3,-7.551573E-3,8.037557E-3,1.4672615E-3,-2.0360037E-4,2.0914942E-3,-2.9610205E-3,-0E0,-9.704648E-3,-3.0220512E-3,2.3053996E-3,-2.8296146E-3,-1.9169393E-3,-5.722094E-3,-3.16743E-3,-9.51208E-3,1.0200868E-6,-2.323255E-3,1.8915278E-3,-2.0032354E-4,-2.7996013E-3,4.7653113E-4,-3.2053178E-3,6.8490426E-3,-2.5907636E-3,-1.0741503E-2,-2.2436704E-3,2.7563341E-3,-1.6537473E-2,-5.803636E-3,-7.1176286E-3,-3.474399E-3,1.7090673E-3,-4.317011E-3,2.103291E-2,7.385642E-3,3.619462E-4,6.3744565E-3,-1.0713252E-2,-4.9058505E-4,-0E0,5.0870813E-3,1.0103115E-2,-0E0,-3.9127567E-3,-1.1751094E-2,1.0936414E-3,-1.4329981E-3,-1.0379952E-3,5.8768303E-3,-0E0,-8.525205E-3,-4.7840714E-4,-5.242515E-3,-5.990194E-3,-1.2907262E-2,-0E0,-3.5780503E-3,-0E0,-4.182011E-3,4.0902994E-3,-0E0,9.55923E-3,3.3527638E-3,1.9370515E-3,-3.8122036E-3,1.16031944E-4,2.82527E-3,3.6800948E-3,8.25592E-3,-2.3695962E-3,-8.7911915E-3,-0E0,-3.213459E-3,1.8182498E-3,-2.9238774E-3,-0E0,3.7110867E-3,-0E0,-3.847609E-3,2.0046136E-4,-2.4791835E-3,-3.5608783E-3,1.601345E-3,7.727153E-4,-2.227929E-3,6.181946E-3,-0E0,1.1514194E-2,7.575674E-3,1.8598535E-3,8.192448E-3,9.82262E-3,6.1760643E-3,7.1124076E-3,1.8782742E-2,6.094057E-3,-0E0,3.2383942E-3,8.747763E-3,-8.8249333E-4,2.291456E-3,-2.716775E-3,3.3239361E-3,9.088784E-3,4.272724E-3,6.612331E-3,1.5146923E-2,1.1351281E-2,7.4037123E-3,1.1328612E-2,1.8820763E-2,1.0704109E-2,5.3074732E-3,-0E0,4.08392E-3],"split_indices":[17,219,19,76,17,227,114,4,227,146,146,227,101,94,18,23,0,4,102,156,114,215,19,19,7,23,11,7,19,112,15,0,0,23,14,0,155,35,200,221,24,160,24,193,48,138,84,179,76,0,0,0,133,129,50,194,19,30,180,130,30,0,0,0,0,19,16,5,15,94,203,105,19,6,19,83,19,19,19,111,6,59,160,6,5,180,19,0,76,105,120,0,45,0,0,0,15,106,111,66,91,8,231,19,6,32,133,131,0,19,0,0,20,0,0,2,4,64,125,156,1,19,18,18,84,125,78,170,71,52,7,39,18,125,66,5,19,30,89,40,7,0,194,63,18,1,7,40,114,7,0,42,22,8,18,73,133,19,146,0,0,0,2,6,89,2,0,0,68,0,0,0,130,7,0,0,0,88,7,0,0,72,65,34,7,0,0,44,0,0,11,92,42,0,11,2,22,11,4,164,92,11,103,0,232,154,133,179,0,78,72,146,101,101,108,0,0,0,0,0,9,22,29,25,134,227,42,120,110,9,0,20,9,17,11,44,183,4,28,201,85,0,0,0,108,73,201,20,80,0,70,0,183,52,0,0,11,0,0,87,232,0,230,68,92,0,0,4,37,194,121,104,0,4,0,185,154,0,2,0,0,9,44,0,0,164,182,17,221,232,71,116,0,0,87,134,0,9,116,0,0,0,0,0,0,0,0,0,0,0,0,0,0,11,0,0,0,91,86,0,0,0,0,0,70,2,15,82,0,36,0,20,53,73,11,0,0,78,22,102,27,149,139,94,15,0,0,0,0,0,0,0,0,0,0,149,215,103,20,78,94,96,4,0,5,0,30,0,0,0,0,0,0,0,0,0,36,0,13,0,13,0,15,0,0,0,0,0,105,104,70,0,0,0,9,5,74,0,0,138,0,0,0,2,0,0,0,99,116,53,22,196,209,82,134,0,0,99,53,105,65,0,62,0,0,22,60,0,0,0,20,0,148,0,0,187,2,0,0,65,0,0,154,0,0,70,36,2,0,13,13,0,0,0,65,0,0,0,0,170,15,6,86,15,6,0,0,6,6,0,11,15,134,97,190,4,0,193,11,0,0,9,1,19,0,19,20,20,4,19,11,9,9,6,20,0,19,63,9,19,111,6,6,20,6,57,36,25,19,19,1,107,199,0,62,0,0,0,30,63,6,0,6,46,26,0,0,0,0,0,0,0,0,0,0,199,0,155,0,0,74,57,96,1,0,0,193,182,0,0,0,0,0,156,0,20,43,20,9,0,0,4,0,0,0,0,0,0,19,19,15,0,0,0,0,19,0,0,0,0,170,0,71,45,19,11,15,91,15,0,19,36,0,0,0,30,22,0,0,6,0,0,0,90,35,7,0,0,0,0,0,0,0,20,0,103,6,0,0,19,22,8,0,0,0,156,0,0,0,2,36,59,6,103,103,5,2,22,0,0,0,79,7,1,5,0,28,0,16,7,5,0,231,138,22,0,231,0,22,146,101,19,52,1,19,2,87,16,0,0,0,0,16,0,0,22,156,138,59,22,0,0,0,0,0,87,1,0,0,84,16,2,116,190,60,0,0,0,0,0,0,0,0,0,0,0,0,22,0,0,0,12,19,0,73,0,0,7,97,5,72,2,5,165,16,0,0,0,36,0,0,98,0,5,0,16,72,59,0,0,0,5,138,127,165,0,87,0,0,7,0,0,79,0,22,131,0,0,0,0,0,0,0,0,0,0,0,0,0,0,0,0,0,0,0,0,0,0,0,0,0,0,0,0,0,0,0,0,0,0,0,0,0,0,0,0,0,0,0,0,0,0,0,0,0,0,0,0,0,0,0,0,0,0,0,0,0,0,0,0,0,0,0,0,0,0,0,0,0,0,0,0,0,0,0,0,0,0,0,0,0,0,0,0,0,0,0,0,0,0,0,0,0,0,0,0,0,0,0,0,0,0,0,0,0,0,0,0,0,0,0,0,0,0,0,0,0,0,0,0,0,0,0,0,0,0,0,0,0,0,0,0,0,0,0,0,0,0,0,0,0,0,0,0,0,0,0,0,0,0,0,0,0,0,0,0,0,0,0,0,0,0,0,0,0,0,0],"split_type":[0,0,0,0,0,0,0,0,0,0,0,0,0,0,0,0,0,0,0,0,0,0,0,0,0,0,0,0,0,0,0,0,0,0,0,0,0,0,0,0,0,0,0,0,0,0,0,0,0,0,0,0,0,0,0,0,0,0,0,0,0,0,0,0,0,0,0,0,0,0,0,0,0,0,0,0,0,0,0,0,0,0,0,0,0,0,0,0,0,0,0,0,0,0,0,0,0,0,0,0,0,0,0,0,0,0,0,0,0,0,0,0,0,0,0,0,0,0,0,0,0,0,0,0,0,0,0,0,0,0,0,0,0,0,0,0,0,0,0,0,0,0,0,0,0,0,0,0,0,0,0,0,0,0,0,0,0,0,0,0,0,0,0,0,0,0,0,0,0,0,0,0,0,0,0,0,0,0,0,0,0,0,0,0,0,0,0,0,0,0,0,0,0,0,0,0,0,0,0,0,0,0,0,0,0,0,0,0,0,0,0,0,0,0,0,0,0,0,0,0,0,0,0,0,0,0,0,0,0,0,0,0,0,0,0,0,0,0,0,0,0,0,0,0,0,0,0,0,0,0,0,0,0,0,0,0,0,0,0,0,0,0,0,0,0,0,0,0,0,0,0,0,0,0,0,0,0,0,0,0,0,0,0,0,0,0,0,0,0,0,0,0,0,0,0,0,0,0,0,0,0,0,0,0,0,0,0,0,0,0,0,0,0,0,0,0,0,0,0,0,0,0,0,0,0,0,0,0,0,0,0,0,0,0,0,0,0,0,0,0,0,0,0,0,0,0,0,0,0,0,0,0,0,0,0,0,0,0,0,0,0,0,0,0,0,0,0,0,0,0,0,0,0,0,0,0,0,0,0,0,0,0,0,0,0,0,0,0,0,0,0,0,0,0,0,0,0,0,0,0,0,0,0,0,0,0,0,0,0,0,0,0,0,0,0,0,0,0,0,0,0,0,0,0,0,0,0,0,0,0,0,0,0,0,0,0,0,0,0,0,0,0,0,0,0,0,0,0,0,0,0,0,0,0,0,0,0,0,0,0,0,0,0,0,0,0,0,0,0,0,0,0,0,0,0,0,0,0,0,0,0,0,0,0,0,0,0,0,0,0,0,0,0,0,0,0,0,0,0,0,0,0,0,0,0,0,0,0,0,0,0,0,0,0,0,0,0,0,0,0,0,0,0,0,0,0,0,0,0,0,0,0,0,0,0,0,0,0,0,0,0,0,0,0,0,0,0,0,0,0,0,0,0,0,0,0,0,0,0,0,0,0,0,0,0,0,0,0,0,0,0,0,0,0,0,0,0,0,0,0,0,0,0,0,0,0,0,0,0,0,0,0,0,0,0,0,0,0,0,0,0,0,0,0,0,0,0,0,0,0,0,0,0,0,0,0,0,0,0,0,0,0,0,0,0,0,0,0,0,0,0,0,0,0,0,0,0,0,0,0,0,0,0,0,0,0,0,0,0,0,0,0,0,0,0,0,0,0,0,0,0,0,0,0,0,0,0,0,0,0,0,0,0,0,0,0,0,0,0,0,0,0,0,0,0,0,0,0,0,0,0,0,0,0,0,0,0,0,0,0,0,0,0,0,0,0,0,0,0,0,0,0,0,0,0,0,0,0,0,0,0,0,0,0,0,0,0,0,0,0,0,0,0,0,0,0,0,0,0,0,0,0,0,0,0,0,0,0,0,0,0,0,0,0,0,0,0,0,0,0,0,0,0,0,0,0,0,0,0,0,0,0,0,0,0,0,0,0,0,0,0,0,0,0,0,0,0,0,0,0,0,0,0,0,0,0,0,0,0,0,0,0,0,0,0,0,0,0,0,0,0,0,0,0,0,0,0,0,0,0,0,0,0,0,0,0,0,0,0,0,0,0,0,0,0,0,0,0,0,0,0,0,0,0,0,0,0,0,0,0,0,0,0,0,0,0,0,0,0,0,0,0,0,0,0,0,0,0,0,0,0,0,0,0,0,0,0,0,0,0,0,0,0,0,0,0,0,0,0,0,0,0,0,0,0,0,0,0,0,0,0,0,0,0,0,0,0,0,0,0,0,0,0,0,0,0,0,0,0,0,0,0,0,0,0,0,0],"sum_hessian":[9.751E3,6.848E3,2.903E3,1.96E2,6.652E3,1.098E3,1.805E3,2.4E1,1.72E2,2.442E3,4.21E3,1.038E3,6E1,3.18E2,1.487E3,1.8E1,6E0,4.8E1,1.24E2,7.3E2,1.712E3,3.622E3,5.88E2,2.73E2,7.65E2,1.9E1,4.1E1,5.7E1,2.61E2,1.224E3,2.63E2,1.3E1,5E0,1.4E1,3.4E1,1.6E1,1.08E2,6E1,6.7E2,7.03E2,1.009E3,1.44E2,3.478E3,4.65E2,1.23E2,1.68E2,1.05E2,3.47E2,4.18E2,1E1,9E0,1.4E1,2.7E1,2E1,3.7E1,1.94E2,6.7E1,4.81E2,7.43E2,1.88E2,7.5E1,7E0,7E0,2.2E1,1.2E1,5.9E1,4.9E1,1.1E1,4.9E1,6.7E1,6.03E2,3.18E2,3.85E2,5.46E2,4.63E2,9E1,5.4E1,3.4E3,7.8E1,2.84E2,1.81E2,3.1E1,9.2E1,9.4E1,7.4E1,3.2E1,7.3E1,5E0,3.42E2,1.85E2,2.33E2,5E0,2.2E1,7E0,1.3E1,7E0,3E1,1.78E2,1.6E1,5.6E1,1.1E1,2E1,4.61E2,1.7E1,7.26E2,1.2E1,1.76E2,6.4E1,1.1E1,2.9E1,3E1,7E0,4.2E1,6E0,5E0,1.5E1,3.4E1,2.5E1,4.2E1,3.2E1,5.71E2,1.75E2,1.43E2,2.57E2,1.28E2,7.8E1,4.68E2,4.52E2,1.1E1,5.6E1,3.4E1,3E1,2.4E1,2.909E3,4.91E2,3.6E1,4.2E1,3.9E1,2.45E2,9.8E1,8.3E1,5E0,2.6E1,2.6E1,6.6E1,3.6E1,5.8E1,2.6E1,4.8E1,2.6E1,6E0,1.1E1,6.2E1,2.22E2,1.2E2,1.9E1,1.66E2,1.78E2,5.5E1,8E0,1.4E1,6E0,2.4E1,1.17E2,6.1E1,1E1,6E0,5E0,5.1E1,5E0,6E0,1E1,1E1,4.53E2,8E0,1E1,7E0,8.8E1,6.38E2,5E0,7E0,9.9E1,7.7E1,1.8E1,4.6E1,2.1E1,8E0,1.4E1,2.8E1,5E0,1E1,2.3E1,1.1E1,6E0,1.9E1,2.4E1,1.8E1,1.9E1,1.3E1,5.57E2,1.4E1,2.3E1,1.52E2,8E0,1.35E2,6.7E1,1.9E2,1.19E2,9E0,6.5E1,1.3E1,1.68E2,3E2,3.08E2,1.44E2,5E0,6E0,4.9E1,7E0,8E0,2.6E1,1.8E1,1.2E1,1.1E1,1.3E1,2.669E3,2.4E2,1.66E2,3.25E2,2.8E1,8E0,3.2E1,1E1,2.2E1,1.7E1,1.2E1,2.33E2,6.6E1,3.2E1,7.3E1,1E1,2E1,6E0,1E1,1.6E1,2.7E1,3.9E1,1.2E1,2.4E1,5E0,5.3E1,6E0,2E1,4.3E1,5E0,1.4E1,1.2E1,5E0,6E0,4.9E1,1.3E1,9E0,2.13E2,8.2E1,3.8E1,7E0,1.2E1,1.48E2,1.8E1,1.06E2,7.2E1,4.8E1,7E0,1.8E1,6E0,1.01E2,1.6E1,2.9E1,3.2E1,5E0,5E0,2.7E1,2.4E1,5E0,5E0,4.43E2,1E1,5.4E1,3.4E1,1.1E1,6.27E2,9.3E1,6E0,7E0,7E1,1.3E1,5E0,2.4E1,2.2E1,8E0,6E0,5E0,5E0,1.6E1,7E0,6E0,5E0,6E0,1.3E1,1.3E1,1.1E1,1E1,8E0,1E1,9E0,8E0,5E0,4.38E2,1.19E2,6E0,8E0,9E0,1.4E1,8E0,1.44E2,3.3E1,1.02E2,5.9E1,8E0,1.85E2,5E0,6E1,5.9E1,5.1E1,1.4E1,7E0,6E0,4.7E1,1.21E2,2.02E2,9.8E1,2.34E2,7.4E1,6.4E1,8E1,2.1E1,5E0,1.2E1,6E0,5E0,7E0,5E0,6E0,7E0,6E0,1.7E2,2.499E3,2.04E2,3.6E1,3.8E1,1.28E2,8.8E1,2.37E2,6E0,2.2E1,1.4E1,1.8E1,5E0,5E0,1.3E1,9E0,5E0,1.2E1,5E0,7E0,7E0,2.26E2,5E0,6.1E1,6E0,2.6E1,3.6E1,3.7E1,5E0,5E0,5E0,1.1E1,1.4E1,1.3E1,1.6E1,2.3E1,5E0,7E0,6E0,1.8E1,1.7E1,3.6E1,9E0,1.1E1,3.5E1,8E0,5E0,7E0,4.4E1,5E0,5E0,8E0,3.6E1,1.77E2,6E1,2.2E1,2E1,1.8E1,3.7E1,1.11E2,8E0,1E1,8.6E1,2E1,5.2E1,2E1,5E0,4.3E1,8E0,1E1,1.9E1,8.2E1,8E0,8E0,9E0,2.3E1,8E0,1.9E1,1.2E1,1.2E1,4.3E2,1.3E1,5E0,5E0,4.7E1,7E0,1.4E1,2E1,6E0,5E0,5.36E2,9.1E1,7.8E1,1.5E1,3.3E1,3.7E1,5E0,8E0,6E0,1.8E1,1.6E1,6E0,5E0,5E0,4.27E2,1.1E1,9.4E1,2.5E1,4E1,1.04E2,2.4E1,9E0,1.1E1,9.1E1,4.8E1,1.1E1,2.5E1,1.6E2,1E1,5E1,3.5E1,2.4E1,2.1E1,3E1,9E0,5E0,2E1,2.7E1,1.13E2,8E0,1.59E2,4.3E1,7.8E1,2E1,1.69E2,6.5E1,3E1,4.4E1,2.8E1,3.6E1,6E0,7.4E1,1.33E2,3.7E1,1.744E3,7.55E2,5.5E1,1.49E2,2.4E1,1.2E1,2.7E1,1.1E1,6.1E1,6.7E1,7.7E1,1.1E1,1E1,2.27E2,5E0,1.7E1,1.1E1,7E0,7E0,2.19E2,3.3E1,2.8E1,6E0,2E1,2.6E1,1.1E1,5E0,8E0,9E0,7E0,7E0,1.6E1,1.2E1,6E0,1.1E1,6E0,3.1E1,5E0,1.1E1,2.4E1,2.5E1,1.9E1,2.3E1,1.3E1,1.72E2,5E0,1.4E1,4.6E1,1.5E1,7E0,5E0,1.5E1,1.3E1,5E0,3.1E1,6E0,5.2E1,5.9E1,7.5E1,1.1E1,1.2E1,8E0,4.7E1,5E0,5E0,1.5E1,3.2E1,1.1E1,5E0,1.4E1,5.9E1,2.3E1,7E0,1.6E1,5E0,1.4E1,4.15E2,1.5E1,6E0,7E0,5E0,4.2E1,6E0,1.4E1,1.92E2,3.44E2,7.7E1,1.4E1,4.9E1,2.9E1,5E0,2.8E1,3.2E1,5E0,9E0,9E0,3.4E1,3.93E2,5E0,6E0,8.7E1,7E0,1.2E1,1.3E1,2.7E1,1.3E1,9.8E1,6E0,6E0,5E0,5E0,8.6E1,6E0,5E0,1.6E1,9E0,1.18E2,4.2E1,5E0,5E0,3.9E1,1.1E1,3E1,5E0,1.3E1,8E0,2.3E1,7E0,1.3E1,7E0,1.1E1,1.6E1,7.5E1,3.8E1,7.9E1,8E1,1.8E1,2.5E1,7.3E1,5E0,1.4E1,6E0,3.7E1,1.32E2,5.1E1,1.4E1,1.4E1,1.6E1,9E0,3.5E1,1.5E1,1.3E1,5E0,3.1E1,5.7E1,1.7E1,1.6E1,1.17E2,9E0,2.8E1,1.014E3,7.3E2,3.61E2,3.94E2,1.1E1,4.4E1,1.5E1,1.34E2,1.3E1,1.1E1,5E0,7E0,1.4E1,1.3E1,5E0,6E0,4.4E1,1.7E1,3.3E1,3.4E1,7E1,7E0,5E0,6E0,5E0,5E0,1.89E2,3.8E1,6E0,1.1E1,2.05E2,1.4E1,1.5E1,1.8E1,1.6E1,1.2E1,8E0,1.2E1,1.9E1,7E0,6E0,5E0,2.6E1,5E0,6E0,5E0,7E0,1.2E1,1.6E1,7E0,7E0,6E0,3E1,1.42E2,6E0,4E1,1E1,5E0,1.2E1,1.9E1,2.8E1,2.4E1,3.4E1,2.5E1,5E1,2.5E1,6E0,5E0,6E0,4.1E1,9E0,5E0,5.4E1,5E0,1.6E1,7E0,3.97E2,1.8E1,3.7E1,5E0,9E0,5E0,3E1,1.62E2,3E2,4.4E1,8E0,6.9E1,6E0,8E0,4.3E1,6E0,9E0,2E1,7E0,2.1E1,2.5E1,7E0,2E1,1.4E1,1.01E2,2.92E2,8E0,7.9E1,2E1,7E0,5E0,8E0,8.4E1,1.4E1,9E0,7E0,1.06E2,1.2E1,3.7E1,5E0,6E0,3.3E1,5E0,6E0,1.2E1,1.8E1,1.6E1,7E0,5E0,6E0,1.1E1,5E0,5.4E1,2.1E1,3.2E1,6E0,6E1,1.9E1,2.2E1,5.8E1,1E1,8E0,5E0,2E1,3.9E1,3.4E1,5E0,3.2E1,3.8E1,9.4E1,3.4E1,1.7E1,6E0,8E0,5E0,1.1E1,1.5E1,2E1,6E0,9E0,7E0,6E0,1.9E1,1.2E1,7E0,5E1,1.2E1,5E0,3.4E1,8.3E1,1.5E1,1.3E1,4.66E2,5.48E2,4.11E2,3.19E2,1.64E2,1.97E2,3.84E2,1E1,5E0,6E0,3.6E1,8E0,9E0,6E0,9.7E1,3.7E1,7E0,6E0,8E0,5E0,2.9E1,1.5E1,5E0,1.2E1,1.5E1,1.8E1,2.9E1,5E0,6.4E1,6E0,1.05E2,8.4E1,1E1,2.8E1,5E0,2E2,8E0,6E0,9E0,6E0,7E0,1.1E1,5E0,1.1E1,5E0,7E0,1E1,6E0,1E1,2E1,1.07E2,3.5E1,1.4E1,2.6E1,7E0,5E0,1.1E1,8E0,8E0,2E1,8E0,1.6E1,5E0,2.9E1,1.7E1,8E0,4.4E1,6E0,2E1,5E0,3.6E1,5E0,3.5E1,1.9E1,5E0,1.1E1,5.6E1,3.41E2,1E1,8E0,3.1E1,6E0,2.2E1,8E0,9.8E1,6.4E1,1.7E1,2.83E2,2.9E1,1.5E1,6.2E1,7E0,1.8E1,2.5E1,9E0,1.1E1,1.2E1,9E0,1.3E1,1.2E1],"tree_param":{"num_deleted":"0","num_feature":"234","num_nodes":"927","size_leaf_vector":"1"}},{"base_weights":[4.3780934E-3,-1.8495469E-1,5.8702E-1,1.2220976E0,-2.2992943E-1,1.9830638E-1,7.587669E-1,1.0224378E0,2.5260499E0,-4.7281742E-1,-9.25986E-2,2.2646303E0,1.5464808E-1,1.5410341E0,6.861796E-1,6.315664E-1,1.2800509E0,1.9430913E0,3.151885E-2,-1.6886275E-1,-6.2086326E-1,-2.646612E-1,1.263745E-2,1.6426967E-2,2.942099E-2,4.483145E-2,4.0020755E-1,2.393816E0,1.295125E0,5.7359177E-1,1.0733598E0,6.988609E-1,-0E0,1.7986706E-2,1.1724665E0,1.2498226E-2,2.1063881E-2,1.6189304E-1,-2.1937376E-1,-7.5440073E-1,-3.8615033E-1,-3.0292962E-2,-3.5870686E-1,1.9972852E-1,-6.9235675E-2,2.3665799E-1,-1.10020176E-1,3.9940584E-2,5.268456E-1,3.0001901E-2,1.9248648E0,1.1594648E0,3.1153407E-2,7.464652E-1,4.6691588E-1,4.0568873E-2,1.025709E0,8.6656135E-1,4.2325503E-1,1.2454273E0,6.7522836E-1,1.3381919E-2,3.559791E-2,3.926276E-1,-2.5434777E-1,-9.655072E-1,-6.701423E-1,-4.897377E-1,3.4109555E-2,5.253423E-1,-8.513257E-2,-3.8582543E-1,3.4900776E-1,-1.0194241E-1,3.227568E-1,-1.5105204E-1,1.07879445E-1,1.0911865E-1,4.4899988E-1,-1.6919537E-1,5.7930964E-1,-8.737091E-2,3.9057773E-1,4.3904248E-1,7.995203E-1,2.2245016E0,1.1410376E-2,1.6099744E-2,1.0934756E0,8.1661814E-1,2.7115086E-1,1.3984025E0,4.386596E-1,6.084837E-1,1.2059662E0,1.5228803E-2,6.6916513E-1,5.215907E-1,-0E0,1.453031E0,1.1134806E0,2.1762808E-3,8.34201E-3,3.1896383E-1,-5.445229E-2,-5.0476152E-2,6.653156E-1,7.2750524E-3,-2.6535928E-1,-1.1287166E0,-7.806528E-1,2.9709572E-3,-7.1235746E-1,-1.8715283E-1,-5.908422E-1,-2.4214046E-1,1.7796497E-1,7.770722E-1,-9.479158E-2,8.478922E-3,-1.0572886E-1,-2.633007E-1,-5.250361E-1,6.241288E-1,-1.11289866E-1,7.5522834E-3,-1.3729854E-1,2.5549898E-1,6.82078E-1,-1.05050184E-1,-4.5152637E-1,7.523694E-2,1.3878964E0,4.385604E-1,1.6224828E-2,5.2878326E-1,-7.204367E-2,-8.255163E-1,-1.2852217E-1,2.3635837E-1,1.1450965E-2,1.915498E-1,-1.9371328E-1,6.794614E-1,-0E0,1.0016646E-2,3.878984E-1,3.8226359E-3,1.0672069E0,1.4785594E-2,2.5165338E-2,1.1351441E0,5.632808E-3,1.1015965E0,7.125677E-1,-2.7878222E-1,4.246178E-1,1.0866795E0,1.88089E-2,3.9523122E-1,8.3572584E-1,1.8796982E-2,7.896173E-1,5.971075E-1,1.3130274E0,1.0081823E0,3.5137442E-1,7.160404E-3,2.4866785E-3,7.853532E-3,1.5071311E-2,1.2330327E0,7.83713E-1,6.5272124E-3,1.2831238E-1,1.8040262E-1,-1.5715048E-1,1.7999422E-3,-3.6342877E-3,-0E0,8.1983423E-1,-2.941308E-1,9.236744E-2,-2.6994164E-3,-1.1681769E0,-8.234481E-1,-4.5466493E-4,-1.9588092E-1,6.1753035E-1,-9.732769E-1,-6.664094E-1,-2.4740134E-1,6.2955385E-3,-3.0658716E-1,-6.519349E-1,-0E0,-4.7530773E-1,3.337806E-1,-1.0618183E-1,2.9589443E-3,8.625732E-1,9.111094E-4,-3.083659E-3,4.6031028E-2,-2.0163026E-1,-5.3297085E-1,-1.6345593E-1,-7.469987E-1,-3.709598E-1,-1.5359369E-4,8.1775004E-1,-4.101031E-3,1.3218945E-4,-5.236447E-1,-5.736026E-2,6.6272266E-2,3.443533E-1,-9.7476326E-2,9.5045376E-1,1.8098203E-2,-2.2189562E-1,-6.645818E-1,-1.6409333E-1,1.387331E-1,-3.1823584E-1,6.5530646E-3,1.7462539E-2,8.749117E-3,4.9824834E-2,3.411775E-1,-6.9116846E-2,6.025777E-1,-0E0,2.60558E-4,-2.8554243E-3,-1.4696748E-2,-2.2799652E-3,-7.1727104E-2,-6.1647135E-1,3.3365944E-3,-0E0,-0E0,4.4031893E-3,-3.5542217E-3,-0E0,2.6386695E-3,9.382535E-3,-1.6098609E-3,4.2366582E-1,1.2044527E-2,4.9395137E-3,9.335675E-3,1.2537062E0,9.3113494E-1,1.4294819E0,6.451076E-1,1.2520348E0,-1.2925905E-4,-5.131817E-3,-7.56221E-4,5.2787834E-1,7.294134E-3,1.5265733E-2,9.508623E-1,3.623446E-1,1.2899598E0,6.6337365E-1,-1.6463375E-1,4.719373E-3,2.1073097E-2,6.663108E-1,4.641977E-1,1.0308544E-2,2.4505224E0,1.2432072E0,5.9047113E-3,1.39649715E-2,-0E0,5.0466764E-1,9.6114904E-1,1.4606348E0,1.2569806E-2,4.8293113E-3,-1.4625482E-3,3.5151145E-3,5.664622E-3,-0E0,9.907896E-3,-4.0900084E-1,1.1745177E-2,5.9293285E-3,-3.3407915E-1,-0E0,2.628664E-1,-1.5351248E-1,-1.3451096E0,-9.3950707E-1,-0E0,-8.7180316E-1,-4.1515017E-1,1.2437679E-2,1.7310446E-3,8.2055265E-3,-4.981396E-1,-1.1130368E0,-6.9951427E-1,-2.1652168E-1,2.9568516E-2,-3.8661566E-1,4.378943E-3,-4.1591233E-1,-5.3898144E-1,-7.7062434E-1,4.436502E-3,-3.6838675E-1,-6.6069543E-1,-0E0,1.4499542E-1,8.4281224E-1,-7.838091E-3,1.9270467E-2,4.882897E-3,9.614419E-3,1.2241863E-1,-4.1882187E-1,3.2332245E-1,-2.2980501E-1,4.1753013E-2,-6.449937E-1,-2.013923E-1,5.127939E-1,-1.3608499E0,-6.7478144E-1,-5.5797565E-1,-1.8362835E-1,1.3686728E-3,1.2091287E0,-6.406321E-1,-0E0,1.630122E-2,-3.6919144E-1,8.2408756E-1,-0E0,2.2420044E-1,5.6129885E-1,2.0945913E-3,-2.9227003E-1,1.4772224E0,7.7647525E-1,-3.280728E-2,3.9661118E-1,5.1867805E-2,-2.7983415E-1,9.5313E-4,-7.2789997E-1,-6.957099E-1,-5.6506436E-2,5.276811E-1,6.518675E-2,-3.8383317E-1,5.662912E-3,-2.822054E-3,4.950475E-3,5.2843716E-2,6.523524E-1,2.2562245E-2,-3.1134194E-1,6.6362864E-1,-0E0,-2.3012517E-1,1.3287085E-1,-0E0,-7.5441736E-1,8.23575E-2,-2.4445786E-3,2.8237525E-1,5.999968E-1,1.3437896E-2,7.955769E-3,5.3469914E-1,1.0392334E0,1.7790778E-2,1.0516072E-2,6.9848716E-1,2.2074416E-1,7.5097036E-1,1.6285733E0,7.342572E-3,3.1410763E-1,1.9027336E-2,7.2160816E-1,3.4253755E-1,1.2624874E-2,8.299287E-3,1.6126066E-2,-0E0,7.77785E-1,-4.6392167E-3,-0E0,2.3488136E-1,7.8850263E-1,-0E0,5.658161E-1,3.0043313E-2,1.5180743E-2,1.5427507E0,1.010714E0,1.6659325E-3,7.29675E-3,1.1552349E-2,4.7130235E-3,1.1601666E-2,1.818425E-2,-1.6199577E-3,1.7741158E-3,-2.6945123E-3,1.364159E-1,-4.913597E-3,-0E0,-3.200771E-1,-1.7305383E-2,-2.3070937E-1,3.378052E-1,-6.6316157E-4,4.047028E-1,-3.4336185E-3,-0E0,-6.401039E-3,-1.388412E0,-1.0980416E-2,-3.9817372E-1,-1.3346776E-2,-8.166204E-1,-5.503456E-1,-0E0,-1.9816863E-3,1.9793748E-3,-7.2637615E-3,2.2263795E-3,-1.1895558E0,-6.479134E-1,-8.0457824E-1,-5.10575E-1,-5.6991875E-3,-0E0,-2.4124344E-1,1.8858023E-1,-4.3590513E-1,-0E0,-1.9040228E-4,-4.727055E-1,-1.0879242E-1,-6.021986E-1,-9.028829E-1,-5.3342336E-1,-2.5481643E-4,-5.360629E-3,-3.288457E-3,-8.815398E-3,5.657504E-3,-0E0,1.1538333E-2,9.859898E-4,3.0414453E-1,-1.5265198E-1,4.3709522E-1,5.0325677E-2,-7.991351E-3,-2.4050115E-1,5.380635E-4,6.120229E-3,-3.0687812E-1,-5.1255543E-2,2.5660583E-1,-3.1095E-3,-7.135047E-1,-5.854676E-2,7.622256E-2,-2.4976361E-1,7.852149E-1,1.8922715E-1,-6.92466E-3,-1.465454E-2,-3.064226E-1,-7.448429E-1,-6.9313514E-1,-3.8940305E-1,3.3423898E-1,-2.6643407E-1,1.4556402E-2,7.032554E-3,-1.01611335E-2,-4.6345988E-1,-3.5772707E-2,8.639924E-1,-7.4957675E-1,-6.135236E-2,-0E0,1.226253E-2,-2.2311972E-1,1.7977844E-1,9.6442625E-3,1.6753256E-1,-0E0,6.735384E-1,-0E0,-4.1995987E-1,5.3653303E-3,1.9262403E0,2.3790438E-1,1.0436724E0,-1.5437332E-1,8.206134E-2,3.0446473E-1,7.6158755E-3,-5.9648134E-2,5.8305746E-1,-1.0136628E-1,-4.1139108E-1,-5.859808E-1,-1.0754676E0,-1.030698E-2,-2.2291904E-3,3.4300488E-1,-1.6818714E-1,6.236995E-1,-1.7790088E-3,1.595224E-2,4.575912E-2,-6.1073554E-1,-2.0379923E-1,-1.478179E-3,3.3585713E-3,4.7610333E-4,1.02388505E-2,1.1187957E-1,-2.6688394E-1,-0E0,-4.4359034E-1,7.8586596E-1,2.3561503E-1,-4.00062E-1,1.7456738E-2,5.844761E-1,-2.4134777E-2,-1.1507185E-2,-4.9522487E-3,-0E0,2.798757E-3,4.468315E-1,1.3327459E-1,6.6723216E-1,-0E0,6.78439E-3,5.19695E-4,1.2502695E0,8.457111E-3,9.9361765E-1,5.7368994E-1,4.3509167E-1,-5.1963464E-3,3.688501E-3,1.2614954E-2,1.0000994E-2,1.8477866E-2,5.785245E-3,7.249287E-2,9.966211E-3,3.0117285E-1,2.8967106E-1,6.30335E-1,6.490355E-1,1.4498376E-2,1.4411191E-3,-1.6056364E-3,6.140169E-3,1.8005204E-4,1.3631548E-1,9.562351E-1,6.5949637E-1,1.7745701E-3,1.4241536E0,3.1339016E-2,7.080893E-1,1.143255E0,3.2431614E-1,-8.526375E-4,-2.9723623E-1,-7.6558745E-1,-1.638971E-2,-4.8935348E-1,1.1762984E-1,1.1211521E-2,2.0306565E-1,6.3225636E-3,-6.80017E-3,-1.425674E0,-7.822186E-3,-4.6958067E-2,-8.5479116E-1,-3.353674E-1,-2.13071E-3,-9.311999E-3,-9.6056175E-1,-1.3617111E0,-0E0,-1.0177868E-2,-9.318731E-1,-6.981004E-1,-0E0,-5.508718E-1,2.6046842E-1,-2.0541705E-1,-4.6332926E-3,-0E0,-0E0,4.7356468E-1,-0E0,-4.7908032E-1,-5.645878E-1,-2.4061736E-3,2.3747964E-3,-2.4871857E-1,-6.731851E-1,-3.2145664E-1,-9.4874066E-1,-2.3850135E-3,-7.522152E-1,-2.0233259E-1,-3.120226E-3,1.1585824E-1,-0E0,5.38879E-3,-2.7345656E-3,-0E0,1.2189755E-1,7.887713E-3,2.5669515E-1,-9.929511E-2,-0E0,-4.3943953E-3,-3.9994252E-1,-4.8913166E-2,2.4128792E-1,-2.1431047E-1,4.7268875E-2,6.594518E-3,-4.3571725E-1,-7.997073E-1,-4.8335823E-3,2.9488497E-3,-3.5423025E-2,5.18796E-1,-1.9814777E-1,-6.5053505E-1,9.807972E-3,3.401189E-3,-3.2650502E-4,5.0015333E-3,-6.539904E-2,-5.392148E-1,-0E0,-7.688407E-1,-5.628941E-1,-9.8511344E-1,-6.534924E-1,-2.3674855E-1,9.29729E-3,-0E0,-7.4053484E-1,-1.9867267E-1,-2.8277219E-3,-6.642454E-3,9.9660926E-2,-1.9289778E-1,3.7497121E-3,1.1860448E-2,-1.116098E-2,-3.1846173E-3,-3.428466E-1,1.899369E-1,3.40066E-2,-3.8900682E-1,1.1293419E-1,9.312241E-3,5.117414E-1,1.0138538E-1,5.4745036E-3,-1.6176161E-1,7.809994E-1,1.6614491E-1,-6.439617E-3,-1.1260901E-3,1.3875031E-2,2.336621E-2,6.894244E-3,-0E0,3.4532925E-1,1.2886602E0,2.4133866E-1,-2.0392905E-1,-4.994087E-1,1.368674E-1,-0E0,3.42084E-1,5.9372024E-3,-1.0920667E-1,-0E0,7.9896245E-3,2.2939974E-1,-1.7356904E-1,-2.2641137E-1,-5.671609E-1,-1.0746276E-2,-5.065399E-1,-1.219927E-2,-5.795456E-3,-0E0,6.1297384E-3,-5.2834935E-2,-5.912915E-1,4.608748E-1,1.3279867E0,3.334188E-1,-8.366806E-3,-4.5676246E-1,-1.3130402E-2,-2.6443753E-1,8.5632456E-4,5.001056E-3,-0E0,-3.907336E-3,-0E0,-5.887045E-1,-1.0419323E-3,5.317561E-1,1.1533493E0,4.5104846E-3,-5.096994E-4,-6.3611895E-1,-1.6642612E-1,4.8924293E-3,-4.8871033E-2,-0E0,7.2064817E-1,-4.7194308E-1,7.055175E-2,5.403687E-1,-0E0,-0E0,2.1312698E-3,-0E0,7.2986176E-3,1.5315614E-2,9.513334E-3,6.7041945E-1,1.1636893E0,-0E0,6.438601E-1,8.0253015E-4,6.67302E-3,-4.0709984E-4,2.1460487E-3,5.2350215E-3,9.9342324E-5,6.202923E-1,2.5375915E-1,6.948604E-1,-0E0,3.131343E-3,7.0927246E-3,3.7017348E-3,-5.5789707E-5,1.0481788E-3,1.0517217E0,2.6954908E-3,8.236584E-3,2.6832705E-2,1.2580543E0,8.944751E-1,1.1879166E-3,1.351243E0,8.866291E-1,6.2406627E-3,7.7575375E-4,-4.319181E-3,-2.3063722E-3,-2.3904872E-4,-8.876467E-3,-2.5111951E-3,2.2830155E-3,-1.9144773E-3,-8.279066E-3,3.570263E-3,-3.2660838E-3,3.0791648E-3,-0E0,-1.2427778E-2,-1.5652321E-2,1.6019896E-3,-4.120691E-3,-4.8887557E-3,-8.831706E-3,-6.5321038E-3,-0E0,-1.0186901E-2,-4.680765E-3,-9.139126E-3,-1.427392E-2,-6.5597254E-3,-1.0372665E-2,-6.4256587E-3,-1.1086128E-2,-4.654211E-3,3.4922617E-3,2.9625904E-3,-5.6021577E-3,-1.4880047E-3,7.5486084E-3,8.99748E-4,-4.62256E-3,2.647263E-3,-1.4255313E-3,7.859126E-3,1.5758003E-4,-5.378306E-3,-4.534714E-4,-6.3189883E-3,-0E0,-2.6283937E-4,-5.3762947E-3,-1.4836945E-3,-6.93845E-3,4.3720193E-3,-4.8643593E-3,-1.1420197E-2,-7.634458E-3,-5.502106E-3,-1.2007393E-2,-0E0,-6.9937343E-3,2.8770943E-3,-0E0,-1.2337265E-4,3.5337645E-3,-1.106459E-3,4.3633045E-3,-3.2448142E-3,5.376223E-4,-4.6445634E-3,-1.122254E-3,9.2964695E-4,-2.8820357E-3,-0E0,6.2078848E-3,4.2182865E-4,-3.1103438E-3,-1.5182476E-4,2.1678125E-3,-5.2598002E-3,-0E0,-1.0791339E-2,-6.51067E-3,1.3298491E-3,-2.5694768E-3,-0E0,8.514875E-3,-2.3524973E-3,5.8123213E-4,-7.307758E-3,-1.4082592E-3,-2.2294784E-3,2.3134495E-3,-7.494397E-3,-0E0,-2.8915217E-3,-7.8953365E-3,-0E0,-6.1842874E-3,-4.1888575E-3,-1.2082695E-2,-1.1950819E-3,-8.735497E-3,2.2718888E-3,-2.9577056E-3,4.174259E-3,-2.6380692E-3,-9.801073E-3,-0E0,-2.5765297E-3,1.4514466E-3,1.5328875E-3,-4.894841E-3,6.1106845E-4,-2.9471216E-3,-5.5228136E-3,-0E0,3.395286E-3,-0E0,-1.8820581E-3,2.6536623E-3,-5.071688E-3,-0E0,2.8598742E-3,-1.1765289E-3,2.8151379E-3,1.3707595E-2,-4.953307E-4,2.9739826E-3,-0E0,-4.317335E-3,1.4972334E-3,8.528229E-3,3.9863014E-3,-2.5259247E-3,-2.4193348E-3,1.8359846E-3,-0E0,5.8447244E-3,8.298157E-3,1.5238261E-2,-6.6397025E-4,3.5485893E-3,-2.1993238E-3,6.1201993E-3,-0E0,-8.988451E-3,2.330761E-3,-1.7453896E-4,3.7652852E-3,-0E0,1.1270836E-3,-2.2897806E-3,6.129643E-4,4.4623706E-3,-0E0,-2.889803E-3,-1.1861641E-3,-3.9330535E-3,-2.359369E-3,-6.533773E-3,-5.424772E-3,-0E0,-1.1599147E-3,2.3681857E-3,-9.952806E-4,-9.311101E-3,1.06577616E-4,5.8075646E-3,7.890487E-3,1.9758066E-2,5.789821E-3,4.5155128E-4,-1.6880302E-3,9.5775013E-4,-5.9664496E-3,-1.5429422E-3,-3.9795497E-3,-0E0,-7.0834573E-4,3.7096213E-3,-9.931689E-4,-8.252036E-3,7.116632E-3,6.168153E-4,1.4185383E-2,7.912979E-3,-8.066334E-3,-1.3697968E-3,5.084892E-3,-2.7797385E-3,1.1041826E-3,-1.908505E-3,9.032518E-3,3.8703575E-3,-9.616779E-3,-7.012773E-4,-1.0782508E-3,3.04202E-3,1.7662253E-3,6.7175287E-3,3.414751E-3,7.98448E-3,1.3682819E-2,7.829442E-3,-4.325783E-3,5.691002E-3,6.9585145E-3,-0E0,5.0456874E-4,7.7087577E-3,4.3752193E-3,1.805176E-3,5.5308745E-4,7.3393844E-3,8.894789E-3,1.634057E-2,3.6500092E-3,1.3279046E-2,1.3218225E-2,6.220269E-3,6.088194E-3,1.424153E-2,1.04712695E-2,4.2129257E-3],"categories":[],"categories_nodes":[],"categories_segments":[],"categories_sizes":[],"default_left":[0,0,0,0,0,0,0,0,0,0,0,0,0,0,0,0,0,0,0,0,0,0,0,0,0,0,0,0,0,0,0,0,0,0,0,0,0,0,0,0,0,0,0,0,0,0,0,0,0,0,0,0,0,0,0,0,0,0,0,0,0,0,0,0,0,0,0,0,0,0,0,0,0,0,0,0,0,0,0,0,0,0,0,0,0,0,0,0,0,0,0,0,0,0,0,0,0,0,0,0,0,0,0,0,0,0,0,0,0,0,0,0,0,0,0,0,0,0,0,0,0,0,0,0,0,0,0,0,0,0,0,0,0,0,0,0,0,0,0,0,0,0,0,0,0,0,0,0,0,0,0,0,0,0,0,0,0,0,0,0,0,0,0,0,0,0,0,0,0,0,0,0,0,0,0,0,0,0,0,0,0,0,0,0,0,0,0,0,0,0,0,0,0,0,0,0,0,0,0,0,0,0,0,0,0,0,0,0,0,0,0,0,0,0,0,0,0,0,0,0,0,0,0,0,0,0,0,0,0,0,0,0,0,0,0,0,0,0,0,0,0,0,0,0,0,0,0,0,0,0,0,0,0,0,0,0,0,0,0,0,0,0,0,0,0,0,0,0,0,0,0,0,0,0,0,0,0,0,0,0,0,0,0,0,0,0,0,0,0,0,0,0,0,0,0,0,0,0,0,0,0,0,0,0,0,0,0,0,0,0,0,0,0,0,0,0,0,0,0,0,0,0,0,0,0,0,0,0,0,0,0,0,0,0,0,0,0,0,0,0,0,0,0,0,0,0,0,0,0,0,0,0,0,0,0,0,0,0,0,0,0,0,0,0,0,0,0,0,0,0,0,0,0,0,0,0,0,0,0,0,0,0,0,0,0,0,0,0,0,0,0,0,0,0,0,0,0,0,0,0,0,0,0,0,0,0,0,0,0,0,0,0,0,0,0,0,0,0,0,0,0,0,0,0,0,0,0,0,0,0,0,0,0,0,0,0,0,0,0,0,0,0,0,0,0,0,0,0,0,0,0,0,0,0,0,0,0,0,0,0,0,0,0,0,0,0,0,0,0,0,0,0,0,0,0,0,0,0,0,0,0,0,0,0,0,0,0,0,0,0,0,0,0,0,0,0,0,0,0,0,0,0,0,0,0,0,0,0,0,0,0,0,0,0,0,0,0,0,0,0,0,0,0,0,0,0,0,0,0,0,0,0,0,0,0,0,0,0,0,0,0,0,0,0,0,0,0,0,0,0,0,0,0,0,0,0,0,0,0,0,0,0,0,0,0,0,0,0,0,0,0,0,0,0,0,0,0,0,0,0,0,0,0,0,0,0,0,0,0,0,0,0,0,0,0,0,0,0,0,0,0,0,0,0,0,0,0,0,0,0,0,0,0,0,0,0,0,0,0,0,0,0,0,0,0,0,0,0,0,0,0,0,0,0,0,0,0,0,0,0,0,0,0,0,0,0,0,0,0,0,0,0,0,0,0,0,0,0,0,0,0,0,0,0,0,0,0,0,0,0,0,0,0,0,0,0,0,0,0,0,0,0,0,0,0,0,0,0,0,0,0,0,0,0,0,0,0,0,0,0,0,0,0,0,0,0,0,0,0,0,0,0,0,0,0,0,0,0,0,0,0,0,0,0,0,0,0,0,0,0,0,0,0,0,0,0,0,0,0,0,0,0,0,0,0,0,0,0,0,0,0,0,0,0,0,0,0,0,0,0,0,0,0,0,0,0,0,0,0,0,0,0,0,0,0,0,0,0,0,0,0,0,0,0,0,0,0,0,0,0,0,0,0,0,0,0,0,0,0,0,0,0,0,0,0,0,0,0,0,0,0,0,0,0,0,0,0,0,0,0,0,0,0,0,0,0,0,0,0,0,0,0,0,0,0,0,0,0,0,0,0,0,0,0,0,0,0,0,0,0,0,0,0,0,0,0,0,0,0,0,0,0,0,0,0,0,0,0,0,0,0,0,0,0,0,0,0,0,0,0,0,0,0,0,0,0,0,0,0,0,0,0,0,0,0,0,0,0,0,0,0,0,0,0,0,0,0,0,0,0,0,0,0,0,0,0,0,0,0,0,0,0,0,0,0,0,0,0,0,0,0,0,0,0,0,0,0,0,0,0,0,0,0,0,0,0,0,0,0,0,0,0,0,0,0,0,0,0,0,0,0,0,0,0,0,0,0,0,0,0,0,0,0,0,0,0,0,0,0,0,0,0,0,0,0,0,0,0,0,0,0,0,0,0,0,0,0,0,0,0,0,0,0,0,0],"id":1,"left_children":[1,3,5,7,9,11,13,15,17,19,21,23,25,27,29,31,33,35,-1,37,39,41,43,-1,-1,45,47,49,51,53,55,57,-1,-1,59,-1,-1,61,63,65,67,69,71,73,75,77,79,81,83,-1,85,87,-1,89,91,-1,93,95,97,99,101,-1,103,105,107,109,111,113,115,117,119,121,123,125,127,129,131,133,135,137,139,141,143,145,147,149,-1,-1,151,153,155,157,159,161,163,-1,165,167,-1,169,171,-1,-1,173,175,177,179,-1,181,183,185,187,189,191,193,195,197,199,201,-1,203,205,207,209,211,-1,213,215,217,219,221,223,225,227,229,231,233,235,237,239,-1,241,243,245,-1,-1,247,-1,249,-1,-1,251,-1,253,255,257,259,261,-1,263,265,267,269,271,273,275,277,-1,-1,-1,-1,279,281,-1,283,285,287,-1,-1,-1,289,291,293,-1,295,297,-1,299,301,303,305,307,-1,309,311,313,315,317,319,-1,321,-1,-1,323,325,327,329,331,333,-1,335,-1,-1,337,339,341,343,345,347,349,351,353,355,357,359,-1,-1,-1,361,363,365,367,-1,-1,-1,-1,-1,369,371,-1,-1,-1,-1,-1,373,-1,-1,-1,375,-1,-1,-1,377,379,381,383,385,-1,-1,-1,387,-1,-1,389,391,393,395,397,-1,-1,399,401,-1,403,405,-1,-1,-1,407,409,411,-1,-1,-1,-1,-1,413,415,417,-1,-1,419,421,423,425,427,429,-1,431,433,435,-1,-1,437,439,441,443,445,447,-1,449,451,453,-1,455,457,-1,459,461,-1,463,-1,-1,465,467,469,471,473,475,477,479,481,483,485,487,-1,489,491,-1,493,495,497,499,501,503,-1,505,507,509,511,513,515,517,-1,519,521,523,525,527,529,-1,-1,-1,531,533,535,537,539,-1,541,543,-1,545,547,-1,549,551,-1,-1,553,555,-1,-1,557,559,561,563,-1,565,-1,567,569,-1,-1,-1,-1,571,-1,573,575,577,-1,579,-1,-1,581,583,-1,-1,-1,-1,-1,-1,-1,-1,-1,585,-1,-1,587,-1,589,591,-1,593,-1,-1,-1,595,-1,597,-1,599,601,-1,-1,-1,-1,-1,603,605,607,609,-1,611,613,615,617,-1,-1,619,621,623,625,627,-1,-1,-1,-1,-1,629,-1,-1,631,633,635,637,-1,639,-1,-1,641,643,645,-1,647,649,651,653,655,657,-1,-1,659,661,663,665,667,669,-1,-1,-1,671,673,675,677,679,-1,-1,681,683,-1,685,687,689,-1,691,-1,693,695,697,699,701,703,-1,705,707,709,711,713,715,-1,-1,717,719,721,-1,-1,723,725,727,-1,-1,-1,-1,729,731,-1,733,735,737,739,741,743,745,-1,-1,-1,-1,747,749,751,-1,-1,-1,753,-1,755,757,759,-1,-1,-1,-1,-1,-1,761,-1,763,765,767,769,-1,-1,-1,-1,-1,771,773,775,-1,777,-1,779,781,783,-1,785,787,789,791,793,-1,795,-1,-1,797,-1,799,801,803,-1,-1,805,807,-1,-1,809,811,813,815,817,819,-1,-1,821,823,-1,825,827,-1,-1,829,831,833,835,-1,837,839,-1,841,-1,-1,-1,-1,843,-1,845,847,-1,-1,849,851,853,855,857,-1,859,861,-1,-1,863,865,867,869,-1,-1,-1,-1,871,873,-1,875,877,879,881,883,-1,885,887,889,-1,-1,891,893,-1,-1,-1,-1,895,897,899,901,903,-1,905,907,-1,909,911,913,-1,-1,-1,-1,-1,915,917,919,921,923,925,927,-1,929,-1,931,-1,-1,933,935,937,939,-1,941,-1,-1,-1,-1,943,945,947,949,951,953,955,-1,957,-1,-1,959,-1,-1,961,-1,963,965,-1,-1,967,969,-1,971,-1,973,975,977,979,-1,-1,-1,-1,-1,-1,-1,981,983,985,987,-1,-1,-1,-1,-1,-1,989,991,993,-1,-1,-1,-1,-1,-1,995,-1,-1,-1,997,999,-1,1001,1003,-1,-1,-1,-1,-1,-1,-1,-1,-1,-1,-1,-1,-1,-1,-1,-1,-1,-1,-1,-1,-1,-1,-1,-1,-1,-1,-1,-1,-1,-1,-1,-1,-1,-1,-1,-1,-1,-1,-1,-1,-1,-1,-1,-1,-1,-1,-1,-1,-1,-1,-1,-1,-1,-1,-1,-1,-1,-1,-1,-1,-1,-1,-1,-1,-1,-1,-1,-1,-1,-1,-1,-1,-1,-1,-1,-1,-1,-1,-1,-1,-1,-1,-1,-1,-1,-1,-1,-1,-1,-1,-1,-1,-1,-1,-1,-1,-1,-1,-1,-1,-1,-1,-1,-1,-1,-1,-1,-1,-1,-1,-1,-1,-1,-1,-1,-1,-1,-1,-1,-1,-1,-1,-1,-1,-1,-1,-1,-1,-1,-1,-1,-1,-1,-1,-1,-1,-1,-1,-1,-1,-1,-1,-1,-1,-1,-1,-1,-1,-1,-1,-1,-1,-1,-1,-1,-1,-1,-1,-1,-1,-1,-1,-1,-1,-1,-1,-1,-1,-1,-1,-1,-1,-1,-1,-1,-1,-1,-1,-1,-1,-1,-1,-1,-1,-1,-1,-1,-1,-1,-1,-1,-1,-1,-1,-1,-1,-1,-1,-1,-1,-1,-1,-1,-1,-1,-1,-1,-1,-1,-1,-1,-1,-1,-1,-1,-1,-1,-1,-1,-1,-1,-1],"loss_changes":[1.082971E3,4.681195E2,1.6017157E2,5.744156E1,2.3908243E2,6.518198E1,9.340326E1,1.8864761E1,9.324707E0,1.1610828E2,8.321235E1,3.672943E0,1.9250612E1,2.7304596E1,6.559747E1,3.7435932E0,5.437149E0,3.7535095E-1,0E0,1.4236071E1,5.3868042E1,3.8179276E1,4.3643715E1,0E0,0E0,1.4989459E1,9.780556E0,6.9757385E0,2.5801468E1,2.1108368E1,4.7451782E1,2.5823822E0,0E0,0E0,2.4853668E0,0E0,0E0,1.6155235E1,1.5732788E1,1.8704712E1,2.7836433E1,1.4995703E1,2.3859299E1,3.235052E1,2.8660545E1,5.777975E0,1.1006672E1,2.8198612E0,3.1423264E0,0E0,2.1929626E0,1.6848145E0,0E0,1.4337509E1,1.8217941E1,0E0,2.4306671E1,4.703247E0,1.3341651E0,8.0796814E-1,4.902234E-1,0E0,2.7395766E0,5.089691E0,7.4307365E0,8.301483E0,2.2997345E1,1.509417E1,4.8883796E0,7.287422E0,8.537928E0,1.9933075E1,6.0134454E0,7.3732734E0,1.4359879E1,1.8373903E1,2.509101E1,4.09712E0,3.7306843E0,6.2216015E0,3.4406204E0,1.2470934E0,2.0233111E0,2.9079895E0,3.2379684E0,8.0392456E-1,0E0,0E0,9.191437E-1,1.0480499E1,5.0689025E0,1.6531868E0,1.1556686E1,1.0505482E1,1.4146149E1,0E0,2.9363527E0,7.6137066E-1,0E0,5.522766E-1,9.305725E-1,0E0,0E0,1.2553606E0,1.7946671E0,1.1818316E0,2.376441E0,0E0,7.25642E0,4.6543274E0,4.1456146E0,5.880276E0,7.9612427E0,6.240604E0,6.0107574E0,2.340354E0,3.814473E0,5.7743263E-1,6.3993686E-1,0E0,6.615685E0,1.6777744E1,1.8397003E1,4.0853777E0,8.707681E-1,0E0,7.086416E0,8.524681E0,2.0608006E1,1.7046926E1,1.0391972E1,1.5055126E1,2.8522472E0,4.7950206E0,3.3006933E0,2.8267345E0,3.8278252E-1,4.6033573E0,6.2564774E0,2.7741283E-1,0E0,6.581893E-1,9.3653536E-1,4.0595198E-1,0E0,0E0,2.4546757E0,0E0,1.0365105E0,0E0,0E0,3.8549042E-1,0E0,4.3080444E0,9.316666E0,4.6103746E-1,2.7144413E0,8.529339E-1,0E0,1.0979988E1,4.203026E0,2.3361142E0,1.1508629E1,1.2795839E0,1.3537567E1,1.4910889E0,1.2198367E0,0E0,0E0,0E0,0E0,9.2700195E-1,1.23946E0,0E0,1.2992396E0,1.3524493E0,2.5169234E0,0E0,0E0,0E0,5.1472473E-1,7.4312096E0,2.1632295E0,0E0,4.9499207E0,5.396042E0,0E0,1.8002117E0,5.66257E-1,6.3157043E0,8.939819E0,4.8846755E0,0E0,5.6884146E0,3.3656158E0,3.3660066E0,2.2400293E0,4.6791034E0,2.9411309E0,0E0,2.6683617E-1,0E0,0E0,5.8901215E0,4.039548E0,1.1379597E1,1.1815165E1,8.81369E0,1.1141079E1,0E0,5.265725E0,0E0,0E0,2.5753613E0,4.833545E0,8.765433E0,8.719421E0,1.5098605E0,5.2153397E0,1.1206264E1,9.751955E0,5.263489E0,3.942341E0,1.4625519E1,4.7813864E0,0E0,0E0,0E0,2.788963E0,1.8102427E0,2.131452E0,2.3049812E0,0E0,0E0,0E0,0E0,0E0,7.092208E0,1.6928797E0,0E0,0E0,0E0,0E0,0E0,3.9057654E-1,0E0,0E0,0E0,2.1989727E0,0E0,0E0,0E0,1.3291702E0,1.9909363E0,2.9473343E0,5.257477E0,4.3883286E0,0E0,0E0,0E0,1.2863626E0,0E0,0E0,6.426428E0,1.030085E1,1.3525238E0,4.174486E0,9.047631E-1,0E0,0E0,3.1675377E0,1.4346428E0,0E0,3.39682E0,1.1525513E1,0E0,0E0,0E0,5.809016E-1,1.0268459E0,3.1072235E-1,0E0,0E0,0E0,0E0,0E0,4.6051955E-1,1.039175E0,7.4803495E-1,0E0,0E0,1.0146778E1,6.0391436E0,1.6621835E0,6.742865E-1,1.331543E0,6.248661E0,0E0,2.3034668E0,8.3515E-1,6.6099155E-1,0E0,0E0,5.021529E0,1.8618851E0,1.0964294E1,3.385842E0,1.6471066E0,1.804307E0,0E0,1.0709105E0,3.9692764E0,3.7928696E0,0E0,3.3388245E-1,5.046296E-1,0E0,2.8611317E0,2.777173E0,0E0,1.219432E0,0E0,0E0,3.0583687E0,1.0006824E0,6.459737E-1,3.4131966E0,2.058377E0,5.3117905E0,6.0688057E0,1.5174508E0,8.183594E-1,4.619568E0,3.072197E0,7.119742E0,0E0,5.950756E-1,1.4378557E0,0E0,7.6152797E0,4.1861916E0,4.803158E0,6.2319927E0,9.248886E0,7.659359E0,0E0,5.732807E-1,5.543705E0,7.1281853E0,7.0404077E0,1.7901964E0,6.481798E0,1.14716E1,0E0,3.6169853E0,1.2474017E0,2.7928565E0,5.865597E0,1.2491597E1,2.68639E0,0E0,0E0,0E0,9.5761234E-1,1.9822326E0,1.507725E0,1.2183967E0,2.4075851E0,0E0,5.4519105E0,6.938034E0,0E0,9.590454E-1,3.395447E-1,0E0,1.1887546E0,1.7785301E0,0E0,0E0,7.9381037E-1,5.954704E-1,0E0,0E0,7.3988113E0,4.7946825E0,1.8134418E0,9.731331E-1,0E0,1.0830059E0,0E0,2.8834982E0,8.533829E0,0E0,0E0,0E0,0E0,2.7264347E0,0E0,2.6807886E-1,1.0596311E0,5.3460617E0,0E0,3.4509134E-1,0E0,0E0,1.328598E1,3.1555252E0,0E0,0E0,0E0,0E0,0E0,0E0,0E0,0E0,0E0,1.113708E0,0E0,0E0,5.0461617E0,0E0,2.2949286E0,4.78366E0,0E0,6.1470485E-1,0E0,0E0,0E0,7.7575684E-1,0E0,2.188126E0,0E0,1.4739151E0,1.0313971E0,0E0,0E0,0E0,0E0,0E0,1.3737106E0,3.3059773E0,4.1365967E0,4.6015053E0,0E0,1.5314603E0,6.054715E-1,1.3180102E0,1.3167181E0,0E0,0E0,5.7794476E-1,1.0894331E0,2.1795807E0,2.1019745E0,3.398346E0,0E0,0E0,0E0,0E0,0E0,1.2084535E0,0E0,0E0,6.103379E-1,3.29666E-1,2.492508E0,3.863618E0,0E0,8.545276E-1,0E0,0E0,4.093853E0,3.8948963E0,1.1431246E0,0E0,2.3068466E0,2.6572564E0,3.4589972E0,7.339859E0,3.3352804E-1,1.1642386E0,0E0,0E0,1.5366046E0,3.2196808E0,2.4343643E0,2.4771976E0,4.854745E0,4.0817947E0,0E0,0E0,0E0,3.1239128E-1,3.2705066E0,7.162132E-1,1.9514704E0,1.7207872E0,0E0,0E0,3.2036567E0,3.7623732E0,0E0,4.496142E0,2.003278E0,5.034775E0,0E0,3.329928E-1,0E0,2.6773834E-1,1.9403216E0,5.1562233E0,4.80105E0,7.903853E0,8.0128574E-1,0E0,2.5154529E0,2.991086E0,5.100411E0,7.7826385E0,1.8149776E0,1.0961094E0,0E0,0E0,1.2517977E0,2.1425812E0,7.2733917E0,0E0,0E0,7.0035233E0,2.6484356E0,9.046508E-1,0E0,0E0,0E0,0E0,2.0314238E0,3.6560708E-1,0E0,5.0056124E-1,3.0745373E0,1.1727394E0,3.6437912E0,1.8571595E0,1.8463678E0,3.1296499E0,0E0,0E0,0E0,0E0,1.1255269E0,4.8308402E-1,2.1439419E0,0E0,0E0,0E0,3.7573242E-1,0E0,2.5021286E0,6.7076874E0,1.6530018E0,0E0,0E0,0E0,0E0,0E0,0E0,3.3005628E-1,0E0,5.603689E-1,5.483288E0,3.9186516E0,3.5298157E-1,0E0,0E0,0E0,0E0,0E0,6.466242E-1,2.7720146E0,6.0029936E-1,0E0,1.4388397E1,0E0,3.0891666E0,2.5228882E0,6.4391863E-1,0E0,4.2942123E0,2.2607346E0,1.6544076E0,1.4742551E0,2.8479557E0,0E0,3.2504237E-1,0E0,0E0,2.9193115E-1,0E0,1.0363597E0,1.2019806E0,1.1312852E0,0E0,0E0,3.95586E-1,2.6838684E-1,0E0,0E0,4.8270264E0,2.3428116E0,2.5350738E0,4.4591217E0,2.9416842E0,1.6021688E0,0E0,0E0,6.595294E-1,1.0244138E0,0E0,1.7755957E0,1.5105734E0,0E0,0E0,7.90318E-1,1.777153E0,4.165992E0,2.0101624E0,0E0,1.7734451E0,2.6790009E0,0E0,5.9344196E-1,0E0,0E0,0E0,0E0,7.027511E-1,0E0,3.975415E0,2.6707442E0,0E0,0E0,2.5532684E0,1.9112194E0,2.4450526E0,1.6382129E0,2.7082515E-1,0E0,1.2385812E0,2.782627E0,0E0,0E0,2.0479472E0,2.3654196E0,3.9271297E0,1.5939217E0,0E0,0E0,0E0,0E0,8.89293E-1,1.8811994E0,0E0,2.6689987E0,2.2820415E0,2.6828098E0,2.7504358E0,1.5967457E0,0E0,1.583614E0,2.8669844E0,3.0227308E0,0E0,0E0,2.5493836E0,2.1758587E0,0E0,0E0,0E0,0E0,8.472532E-1,3.3458325E-1,1.4619259E0,2.0456152E0,3.4539154E0,0E0,5.542328E0,5.792815E0,0E0,7.6395106E-1,4.4226913E0,2.064805E0,0E0,0E0,0E0,0E0,0E0,5.946356E-1,6.1365545E-1,1.6649132E0,1.17682E0,3.8284273E0,5.014528E0,3.8606095E0,0E0,9.611039E-1,0E0,2.347108E0,0E0,0E0,1.0922474E0,3.9098525E0,2.1497889E0,4.672783E0,0E0,1.7204857E0,0E0,0E0,0E0,0E0,7.507615E-1,1.1400137E0,3.3070307E0,2.9813843E0,4.943842E0,6.507577E0,8.346882E-1,0E0,1.2920578E0,0E0,0E0,1.1884242E0,0E0,0E0,9.338832E-1,0E0,2.0417233E0,3.684578E-1,0E0,0E0,2.852003E0,3.0649874E0,0E0,1.0561581E0,0E0,5.291004E-1,2.0359185E0,2.541458E0,7.0563126E-1,0E0,0E0,0E0,0E0,0E0,0E0,0E0,4.3488407E-1,2.3071136E0,4.3761415E0,6.8679047E0,0E0,0E0,0E0,0E0,0E0,0E0,4.185854E0,5.7438965E0,2.6720772E0,0E0,0E0,0E0,0E0,0E0,0E0,1.6810379E0,0E0,0E0,0E0,5.3821564E0,1.7342129E0,0E0,1.9199066E0,2.004675E0,0E0,0E0,0E0,0E0,0E0,0E0,0E0,0E0,0E0,0E0,0E0,0E0,0E0,0E0,0E0,0E0,0E0,0E0,0E0,0E0,0E0,0E0,0E0,0E0,0E0,0E0,0E0,0E0,0E0,0E0,0E0,0E0,0E0,0E0,0E0,0E0,0E0,0E0,0E0,0E0,0E0,0E0,0E0,0E0,0E0,0E0,0E0,0E0,0E0,0E0,0E0,0E0,0E0,0E0,0E0,0E0,0E0,0E0,0E0,0E0,0E0,0E0,0E0,0E0,0E0,0E0,0E0,0E0,0E0,0E0,0E0,0E0,0E0,0E0,0E0,0E0,0E0,0E0,0E0,0E0,0E0,0E0,0E0,0E0,0E0,0E0,0E0,0E0,0E0,0E0,0E0,0E0,0E0,0E0,0E0,0E0,0E0,0E0,0E0,0E0,0E0,0E0,0E0,0E0,0E0,0E0,0E0,0E0,0E0,0E0,0E0,0E0,0E0,0E0,0E0,0E0,0E0,0E0,0E0,0E0,0E0,0E0,0E0,0E0,0E0,0E0,0E0,0E0,0E0,0E0,0E0,0E0,0E0,0E0,0E0,0E0,0E0,0E0,0E0,0E0,0E0,0E0,0E0,0E0,0E0,0E0,0E0,0E0,0E0,0E0,0E0,0E0,0E0,0E0,0E0,0E0,0E0,0E0,0E0,0E0,0E0,0E0,0E0,0E0,0E0,0E0,0E0,0E0,0E0,0E0,0E0,0E0,0E0,0E0,0E0,0E0,0E0,0E0,0E0,0E0,0E0,0E0,0E0,0E0,0E0,0E0,0E0,0E0,0E0,0E0,0E0,0E0,0E0,0E0,0E0,0E0,0E0,0E0,0E0,0E0,0E0,0E0,0E0,0E0,0E0,0E0,0E0,0E0,0E0,0E0,0E0,0E0,0E0,0E0,0E0,0E0,0E0,0E0,0E0,0E0,0E0,0E0],"parents":[2147483647,0,0,1,1,2,2,3,3,4,4,5,5,6,6,7,7,8,8,9,9,10,10,11,11,12,12,13,13,14,14,15,15,16,16,17,17,19,19,20,20,21,21,22,22,25,25,26,26,27,27,28,28,29,29,30,30,31,31,34,34,37,37,38,38,39,39,40,40,41,41,42,42,43,43,44,44,45,45,46,46,47,47,48,48,50,50,51,51,53,53,54,54,56,56,57,57,58,58,59,59,60,60,62,62,63,63,64,64,65,65,66,66,67,67,68,68,69,69,70,70,71,71,72,72,73,73,74,74,75,75,76,76,77,77,78,78,79,79,80,80,81,81,82,82,83,83,84,84,85,85,88,88,89,89,90,90,91,91,92,92,93,93,94,94,96,96,97,97,99,99,100,100,103,103,104,104,105,105,106,106,108,108,109,109,110,110,111,111,112,112,113,113,114,114,115,115,116,116,117,117,118,118,120,120,121,121,122,122,123,123,124,124,126,126,127,127,128,128,129,129,130,130,131,131,132,132,133,133,134,134,135,135,136,136,137,137,138,138,139,139,141,141,142,142,143,143,146,146,148,148,151,151,153,153,154,154,155,155,156,156,157,157,159,159,160,160,161,161,162,162,163,163,164,164,165,165,166,166,171,171,172,172,174,174,175,175,176,176,180,180,181,181,182,182,184,184,185,185,187,187,188,188,189,189,190,190,191,191,193,193,194,194,195,195,196,196,197,197,198,198,200,200,203,203,204,204,205,205,206,206,207,207,208,208,210,210,213,213,214,214,215,215,216,216,217,217,218,218,219,219,220,220,221,221,222,222,223,223,224,224,228,228,229,229,230,230,231,231,237,237,238,238,244,244,248,248,252,252,253,253,254,254,255,255,256,256,260,260,263,263,264,264,265,265,266,266,267,267,270,270,271,271,273,273,274,274,278,278,279,279,280,280,286,286,287,287,288,288,291,291,292,292,293,293,294,294,295,295,296,296,298,298,299,299,300,300,303,303,304,304,305,305,306,306,307,307,308,308,310,310,311,311,312,312,314,314,315,315,317,317,318,318,320,320,323,323,324,324,325,325,326,326,327,327,328,328,329,329,330,330,331,331,332,332,333,333,334,334,336,336,337,337,339,339,340,340,341,341,342,342,343,343,344,344,346,346,347,347,348,348,349,349,350,350,351,351,352,352,354,354,355,355,356,356,357,357,358,358,359,359,363,363,364,364,365,365,366,366,367,367,369,369,370,370,372,372,373,373,375,375,376,376,379,379,380,380,383,383,384,384,385,385,386,386,388,388,390,390,391,391,396,396,398,398,399,399,400,400,402,402,405,405,406,406,416,416,419,419,421,421,422,422,424,424,428,428,430,430,432,432,433,433,439,439,440,440,441,441,442,442,444,444,445,445,446,446,447,447,450,450,451,451,452,452,453,453,454,454,460,460,463,463,464,464,465,465,466,466,468,468,471,471,472,472,473,473,475,475,476,476,477,477,478,478,479,479,480,480,483,483,484,484,485,485,486,486,487,487,488,488,492,492,493,493,494,494,495,495,496,496,499,499,500,500,502,502,503,503,504,504,506,506,508,508,509,509,510,510,511,511,512,512,513,513,515,515,516,516,517,517,518,518,519,519,520,520,523,523,524,524,525,525,528,528,529,529,530,530,535,535,536,536,538,538,539,539,540,540,541,541,542,542,543,543,544,544,549,549,550,550,551,551,555,555,557,557,558,558,559,559,566,566,568,568,569,569,570,570,571,571,577,577,578,578,579,579,581,581,583,583,584,584,585,585,587,587,588,588,589,589,590,590,591,591,593,593,596,596,598,598,599,599,600,600,603,603,604,604,607,607,608,608,609,609,610,610,611,611,612,612,615,615,616,616,618,618,619,619,622,622,623,623,624,624,625,625,627,627,628,628,630,630,635,635,637,637,638,638,641,641,642,642,643,643,644,644,645,645,647,647,648,648,651,651,652,652,653,653,654,654,659,659,660,660,662,662,663,663,664,664,665,665,666,666,668,668,669,669,670,670,673,673,674,674,679,679,680,680,681,681,682,682,683,683,685,685,686,686,688,688,689,689,690,690,696,696,697,697,698,698,699,699,700,700,701,701,702,702,704,704,706,706,709,709,710,710,711,711,712,712,714,714,719,719,720,720,721,721,722,722,723,723,724,724,725,725,727,727,730,730,733,733,735,735,736,736,739,739,740,740,742,742,744,744,745,745,746,746,747,747,755,755,756,756,757,757,758,758,765,765,766,766,767,767,774,774,778,778,779,779,781,781,782,782],"right_children":[2,4,6,8,10,12,14,16,18,20,22,24,26,28,30,32,34,36,-1,38,40,42,44,-1,-1,46,48,50,52,54,56,58,-1,-1,60,-1,-1,62,64,66,68,70,72,74,76,78,80,82,84,-1,86,88,-1,90,92,-1,94,96,98,100,102,-1,104,106,108,110,112,114,116,118,120,122,124,126,128,130,132,134,136,138,140,142,144,146,148,150,-1,-1,152,154,156,158,160,162,164,-1,166,168,-1,170,172,-1,-1,174,176,178,180,-1,182,184,186,188,190,192,194,196,198,200,202,-1,204,206,208,210,212,-1,214,216,218,220,222,224,226,228,230,232,234,236,238,240,-1,242,244,246,-1,-1,248,-1,250,-1,-1,252,-1,254,256,258,260,262,-1,264,266,268,270,272,274,276,278,-1,-1,-1,-1,280,282,-1,284,286,288,-1,-1,-1,290,292,294,-1,296,298,-1,300,302,304,306,308,-1,310,312,314,316,318,320,-1,322,-1,-1,324,326,328,330,332,334,-1,336,-1,-1,338,340,342,344,346,348,350,352,354,356,358,360,-1,-1,-1,362,364,366,368,-1,-1,-1,-1,-1,370,372,-1,-1,-1,-1,-1,374,-1,-1,-1,376,-1,-1,-1,378,380,382,384,386,-1,-1,-1,388,-1,-1,390,392,394,396,398,-1,-1,400,402,-1,404,406,-1,-1,-1,408,410,412,-1,-1,-1,-1,-1,414,416,418,-1,-1,420,422,424,426,428,430,-1,432,434,436,-1,-1,438,440,442,444,446,448,-1,450,452,454,-1,456,458,-1,460,462,-1,464,-1,-1,466,468,470,472,474,476,478,480,482,484,486,488,-1,490,492,-1,494,496,498,500,502,504,-1,506,508,510,512,514,516,518,-1,520,522,524,526,528,530,-1,-1,-1,532,534,536,538,540,-1,542,544,-1,546,548,-1,550,552,-1,-1,554,556,-1,-1,558,560,562,564,-1,566,-1,568,570,-1,-1,-1,-1,572,-1,574,576,578,-1,580,-1,-1,582,584,-1,-1,-1,-1,-1,-1,-1,-1,-1,586,-1,-1,588,-1,590,592,-1,594,-1,-1,-1,596,-1,598,-1,600,602,-1,-1,-1,-1,-1,604,606,608,610,-1,612,614,616,618,-1,-1,620,622,624,626,628,-1,-1,-1,-1,-1,630,-1,-1,632,634,636,638,-1,640,-1,-1,642,644,646,-1,648,650,652,654,656,658,-1,-1,660,662,664,666,668,670,-1,-1,-1,672,674,676,678,680,-1,-1,682,684,-1,686,688,690,-1,692,-1,694,696,698,700,702,704,-1,706,708,710,712,714,716,-1,-1,718,720,722,-1,-1,724,726,728,-1,-1,-1,-1,730,732,-1,734,736,738,740,742,744,746,-1,-1,-1,-1,748,750,752,-1,-1,-1,754,-1,756,758,760,-1,-1,-1,-1,-1,-1,762,-1,764,766,768,770,-1,-1,-1,-1,-1,772,774,776,-1,778,-1,780,782,784,-1,786,788,790,792,794,-1,796,-1,-1,798,-1,800,802,804,-1,-1,806,808,-1,-1,810,812,814,816,818,820,-1,-1,822,824,-1,826,828,-1,-1,830,832,834,836,-1,838,840,-1,842,-1,-1,-1,-1,844,-1,846,848,-1,-1,850,852,854,856,858,-1,860,862,-1,-1,864,866,868,870,-1,-1,-1,-1,872,874,-1,876,878,880,882,884,-1,886,888,890,-1,-1,892,894,-1,-1,-1,-1,896,898,900,902,904,-1,906,908,-1,910,912,914,-1,-1,-1,-1,-1,916,918,920,922,924,926,928,-1,930,-1,932,-1,-1,934,936,938,940,-1,942,-1,-1,-1,-1,944,946,948,950,952,954,956,-1,958,-1,-1,960,-1,-1,962,-1,964,966,-1,-1,968,970,-1,972,-1,974,976,978,980,-1,-1,-1,-1,-1,-1,-1,982,984,986,988,-1,-1,-1,-1,-1,-1,990,992,994,-1,-1,-1,-1,-1,-1,996,-1,-1,-1,998,1000,-1,1002,1004,-1,-1,-1,-1,-1,-1,-1,-1,-1,-1,-1,-1,-1,-1,-1,-1,-1,-1,-1,-1,-1,-1,-1,-1,-1,-1,-1,-1,-1,-1,-1,-1,-1,-1,-1,-1,-1,-1,-1,-1,-1,-1,-1,-1,-1,-1,-1,-1,-1,-1,-1,-1,-1,-1,-1,-1,-1,-1,-1,-1,-1,-1,-1,-1,-1,-1,-1,-1,-1,-1,-1,-1,-1,-1,-1,-1,-1,-1,-1,-1,-1,-1,-1,-1,-1,-1,-1,-1,-1,-1,-1,-1,-1,-1,-1,-1,-1,-1,-1,-1,-1,-1,-1,-1,-1,-1,-1,-1,-1,-1,-1,-1,-1,-1,-1,-1,-1,-1,-1,-1,-1,-1,-1,-1,-1,-1,-1,-1,-1,-1,-1,-1,-1,-1,-1,-1,-1,-1,-1,-1,-1,-1,-1,-1,-1,-1,-1,-1,-1,-1,-1,-1,-1,-1,-1,-1,-1,-1,-1,-1,-1,-1,-1,-1,-1,-1,-1,-1,-1,-1,-1,-1,-1,-1,-1,-1,-1,-1,-1,-1,-1,-1,-1,-1,-1,-1,-1,-1,-1,-1,-1,-1,-1,-1,-1,-1,-1,-1,-1,-1,-1,-1,-1,-1,-1,-1,-1,-1,-1,-1,-1,-1,-1,-1,-1,-1,-1,-1,-1,-1,-1,-1],"split_conditions":[6.027188E-4,3.02994E13,6.758757E-4,4.7972973E-2,2.455003E-4,3.01437E13,3.02994E13,8.061684E-1,1.2638623E-1,3.8E-1,3.5036943E-4,-1.19223446E-1,5.6929845E-1,3.3409336E0,1.5193089E-3,1.8287031E-1,1.7483604E-1,5.7991812E-5,3.151885E-2,-7.925774E-2,4.963909E1,2.07662E3,6.563E1,1.6426967E-2,2.942099E-2,6.709E1,3.650488E-2,2.517E1,5.771143E-3,1.5056115E-1,8.3036E1,6.774264E-5,-0E0,1.7986706E-2,1.8803914E-1,1.2498226E-2,2.1063881E-2,9.24438E-3,1.0856E3,4.4E0,2.8161687E-4,1.0784E3,6.0226535E-4,5.9094E1,4.9041247E-4,9.4386307E-4,5.0288135E-1,3.770606E-1,3.0573042E1,3.0001901E-2,1.628E0,4.0466955E-1,3.1153407E-2,3.92759E13,2.059E-1,4.0568873E-2,3.88984E3,4.190256E-7,9.2872746E-5,4.595258E-5,5.163357E-5,1.3381919E-2,-2.6160328E-2,6.8092566E-5,-1.1E-1,1.1440017E0,1.6628867E-2,8.55154E-2,2.7986435E-2,1.6988E0,1.1360894E-1,3.0916216E1,1.638058E-1,3.0784252E1,6.80379E3,8.511818E-1,5.83466E3,1.6493085E-1,2.2E-1,-1.1E0,3.2074712E-4,1.1052443E-4,1.53E2,8.80925E0,8.1391714E-4,8.801135E-1,1.1410376E-2,1.6099744E-2,6.836493E-1,1.159E11,1.747E0,1.8661353E-1,2.2113366E-1,1.9698063E-4,4.96E1,1.5228803E-2,7.741137E-2,1.2055599E3,-0E0,2.3385535E-4,8.605584E-5,2.1762808E-3,8.34201E-3,1.6029894E-4,6.485E1,9.36391E-6,1.7811556E-4,7.2750524E-3,1.8774387E-1,8.307E-1,9.461E3,2.5674814E-2,1.1388625E-4,3.336E3,-1.039705E-3,3.441278E-5,1.00972E2,1.1248354E-1,1.1042207E-1,8.478922E-3,6.522536E-2,1.2288E0,2.2913182E0,1.70849E3,5.5096652E-3,7.5522834E-3,3.1474678E1,2.0328633E-2,1.14339635E-1,7.1296945E-2,2.302E0,1.22398116E-1,1.7948E2,2.7337366E1,1.8824165E-5,7.124798E-2,7.77225E-4,9.081587E-5,3.8639773E-2,1.08261004E-1,1.1450965E-2,1.94E2,-1.0611171E-1,-2.9517446E-2,-0E0,1.0016646E-2,-8.7944585E-1,3.8226359E-3,3.7177044E-1,1.4785594E-2,2.5165338E-2,1.73E2,5.632808E-3,2.1922167E-2,3.8169697E-2,7.2491005E-2,7.5977124E-2,5.8E-1,1.88089E-2,1.019876E0,1.22276E3,3.9065036E-1,1.5954565E-1,3.7840903E-2,-2.191416E-1,1.49746E3,2.1963853E-4,7.160404E-3,2.4866785E-3,7.853532E-3,1.5071311E-2,3.380103E-4,6.954188E-2,6.5272124E-3,7.6008975E-5,-5.6936955E-3,1.4183538E-1,1.7999422E-3,-3.6342877E-3,-0E0,1.3141295E-4,4.8391207E-4,1.222E2,-2.6994164E-3,3.3E2,8.051566E-3,-4.5466493E-4,2.1004285E-4,1.9106767E-4,3.298446E-2,1.5401265E-1,-7.126261E-2,6.2955385E-3,1.041E1,1.019876E0,2.1652617E-2,3.4660244E-4,3.8506725E-4,3.1409157E-4,2.9589443E-3,3.1433356E-6,9.111094E-4,-3.083659E-3,7.472824E-2,-1.5721748E-2,9.1E1,4.78831E-4,2.231788E-4,2.3206666E-1,-1.5359369E-4,2.819668E-4,-4.101031E-3,1.3218945E-4,6.14517E3,3.897E1,2.446E-1,5.265265E-4,1.254E1,4.0230484E-4,1.05699E1,1.147924E-1,-8.360304E-1,2.122383E-4,-3.7411563E-2,1.0726367E0,6.5530646E-3,1.7462539E-2,8.749117E-3,3.210314E-4,2.6722814E-4,9.7878955E-2,1.6023114E-1,-0E0,2.60558E-4,-2.8554243E-3,-1.4696748E-2,-2.2799652E-3,4.8391207E-4,5.01E1,3.3365944E-3,-0E0,-0E0,4.4031893E-3,-3.5542217E-3,1.325596E-1,2.6386695E-3,9.382535E-3,-1.6098609E-3,8.1391714E-4,1.2044527E-2,4.9395137E-3,9.335675E-3,1.712E3,-2.6517928E-1,7.4645364E-1,8.170011E-3,8.0630265E-4,-1.2925905E-4,-5.131817E-3,-7.56221E-4,3.5290364E-2,7.294134E-3,1.5265733E-2,-6.356223E-3,2.0860438E0,8.921E1,5.9615108E-5,2.4196427E-4,4.719373E-3,2.1073097E-2,1.156E0,-6.0347307E-1,1.0308544E-2,1.0541888E0,7.051E1,5.9047113E-3,1.39649715E-2,-0E0,4.190256E-7,2.8884353E-4,1.3362575E-1,1.2569806E-2,4.8293113E-3,-1.4625482E-3,3.5151145E-3,5.664622E-3,3.2300182E-4,7.358878E-2,2.8488162E-1,1.1745177E-2,5.9293285E-3,2.0572624E-1,1.3806E0,1.2495622E-5,2.2231121E-5,-1.5293495E-2,3.1927653E-4,-0E0,1.7552408E-4,1.772557E-1,1.5766424E-5,1.7310446E-3,8.2055265E-3,1.0716308E-1,6.0231032E-5,1.9875214E0,2.2132782E-4,1.0470681E-5,7.019214E-5,4.378943E-3,1.6547738E-1,-2.677878E-1,1.9123175E-4,4.436502E-3,1.6526628E-4,4.2177677E-2,-0E0,4.0287443E-2,1.21760294E-1,-7.838091E-3,-3.592335E-2,4.882897E-3,9.614419E-3,4.35E1,5.23941E-5,-2.010433E-2,4.3766786E-4,1.1709437E-1,1.0876067E-1,-2.9160623E-3,1.679107E-1,4.332E1,-5.3162587E-1,8.6434335E-2,8.410902E-2,1.3686728E-3,-9.9346876E-2,5.222E1,-0E0,1.3846092E-1,4.3411256E-4,3.0569183E-2,8.4839064E-1,4.3936E1,6.596361E-1,2.0945913E-3,4.378E1,-1.5197083E-1,9.003019E-3,3.6242927E-4,1.9032006E0,8.773343E-2,1.6299404E-1,9.5313E-4,-7.4991263E-3,5.30621E-4,1.3986E2,1.1439039E-3,1.08379506E-1,1.6138984E-1,5.662912E-3,-2.822054E-3,4.950475E-3,4.75885E3,2.633E0,2.5241126E-4,8.67451E-1,1.2264407E-4,-0E0,3.0977271E-2,9.967429E-3,-0E0,1.654132E-1,2.9180805E-5,-2.4445786E-3,1.3893996E-1,2.4042057E-1,1.3437896E-2,7.955769E-3,-1.9165987E-1,9.523873E-3,1.7790778E-2,1.0516072E-2,3.99E1,2.9675335E1,1.5127143E-2,3.53417E3,7.342572E-3,7.0170616E-4,1.9027336E-2,2.1302486E-4,1.9179612E-3,1.2624874E-2,8.299287E-3,1.6126066E-2,-0E0,1.24246866E-1,-4.6392167E-3,2.9924285E-1,-1.0948424E-1,1.1190426E-3,-0E0,2.8860006E-1,3.0043313E-2,1.5180743E-2,3.306024E-1,1.234507E-1,1.6659325E-3,7.29675E-3,1.1552349E-2,4.7130235E-3,1.1601666E-2,1.818425E-2,-1.6199577E-3,1.7741158E-3,-2.6945123E-3,6.554418E-5,-4.913597E-3,-0E0,1.16315596E-1,-1.7305383E-2,1.4367521E-1,3.005E2,-6.6316157E-4,2.7430668E-3,-3.4336185E-3,-0E0,-6.401039E-3,7.64567E-2,-1.0980416E-2,3.64315E-2,-1.3346776E-2,1.568724E-4,1.1872944E-4,-0E0,-1.9816863E-3,1.9793748E-3,-7.2637615E-3,2.2263795E-3,1.2224126E-5,2.98E-1,2.8287886E-2,7.423E1,-5.6991875E-3,1.2807588E-5,1.2047E2,1.628718E-5,1.1061407E-1,-0E0,-1.9040228E-4,1.84017E3,7.266784E-6,6.985E2,1.5885077E0,1.0196935E-1,-2.5481643E-4,-5.360629E-3,-3.288457E-3,-8.815398E-3,5.657504E-3,1.2793112E-5,1.1538333E-2,9.859898E-4,7.3012015E-5,2.6302496E-1,7.2571216E-5,-1.2702498E-1,-7.991351E-3,9.182185E-5,5.380635E-4,6.120229E-3,8.271E1,1.6639861E0,3.571379E-4,-3.1095E-3,-1.5350423E-2,1.8377481E-5,9.0161135E-5,1.0131E1,7.52E1,5.248E1,-6.92466E-3,-1.465454E-2,-1.913815E-1,5.756288E-1,3.810404E1,8.61E1,4.256306E-5,8E1,1.4556402E-2,7.032554E-3,-1.01611335E-2,5.8082525E-5,3.3134533E1,1.672331E-1,3.6349744E-2,6.170708E-5,-0E0,1.226253E-2,2.78E-1,2.7708156E-4,9.6442625E-3,1.20550156E-1,1.365E1,2.3731751E-2,-0E0,4.595258E-5,5.3653303E-3,-5.900913E-2,-1.981845E-1,-8.714643E-3,-2.874E0,3.19363E13,1.7660566E-1,7.6158755E-3,1.7882639E-1,2.6449782E-4,-3.4728667E-1,8.511477E-1,1.07272066E-1,9.0497154E-1,-1.030698E-2,-2.2291904E-3,9.232821E-2,5.80167E3,2.0085827E-1,-1.7790088E-3,1.595224E-2,2.872277E-2,3.058935E-1,3.0217493E-1,-1.478179E-3,3.3585713E-3,4.7610333E-4,1.02388505E-2,1.2248817E-5,1.3159887E-1,-0E0,4.1903335E-1,3.338945E-5,-1.0773922E-2,3.410971E-4,1.291174E-1,6.9842124E-1,-2.2136237E-1,-1.1507185E-2,-4.9522487E-3,-0E0,2.798757E-3,9.1387734E-2,2.531724E0,1.6367131E-1,-0E0,6.78439E-3,5.19695E-4,1.3062435E-1,8.457111E-3,4.527E1,5.02E1,4.0267948E-2,-5.1963464E-3,3.688501E-3,1.2614954E-2,1.0000994E-2,1.8477866E-2,5.785245E-3,9.9519074E-2,9.966211E-3,1.3774296E-4,3.0380506E-2,7.6380044E-2,1.4479704E-1,1.4498376E-2,1.4411191E-3,-1.6056364E-3,6.140169E-3,1.8005204E-4,6.83023E-5,-1.6725704E-1,1.0659263E-4,1.7745701E-3,5.490281E-6,3.1339016E-2,2.2098424E0,-2.44626E-3,4.2275264E-5,-8.526375E-4,3.5689232E-1,7.772788E-2,1.811372E-4,2.1080473E-2,1.1230406E-1,1.1211521E-2,3.2016335E1,6.3225636E-3,-6.80017E-3,2.0079875E-4,-7.822186E-3,1.7011492E-4,4.758E1,1.333023E-1,-2.13071E-3,-9.311999E-3,1.0355875E-1,8.845879E0,-0E0,-1.0177868E-2,1.235E11,3.179791E-4,2.6785687E-2,5.768793E-1,6.5912995E-5,1.3995563E-4,-4.6332926E-3,-0E0,1.1013183E-4,1.2044735E-4,-0E0,8.0558646E-5,5.8223806E-2,-2.4061736E-3,2.3747964E-3,3.96091E-5,5.803E1,1.63569E3,6.91818E-4,-2.3850135E-3,9.748902E-3,2.4740832E-4,-3.120226E-3,1.4195747E-4,-0E0,5.38879E-3,-2.7345656E-3,-0E0,-2.6858287E-2,7.887713E-3,-2.1228684E-1,8.68514E-2,-0E0,-4.3943953E-3,1.7810938E-1,1.2292E2,8.9113906E-5,2.2931071E-4,5.388469E-5,6.594518E-3,6.5182096E-5,-1.6990331E-1,-4.8335823E-3,2.9488497E-3,6.948535E-2,4.835E1,3.3239956E-4,6.7932576E-2,9.807972E-3,3.401189E-3,-3.2650502E-4,5.0015333E-3,1.1585367E-4,6.087629E-5,-0E0,-5.533072E-1,3.4017486E-3,-1.936294E-1,-6.753088E-2,8.281833E-5,9.29729E-3,2.1625055E-1,2.1276674E-1,9.679434E-2,-2.8277219E-3,-6.642454E-3,2.6807698E-4,-3.4350908E-1,3.7497121E-3,1.1860448E-2,-1.116098E-2,-3.1846173E-3,9.667515E-1,1.4942262E-1,1.21650256E-1,5.101196E-4,3.3522006E-2,9.312241E-3,1.0076918E-1,1.0240707E-4,5.4745036E-3,1.73181E3,-3.0111395E-2,-5.948683E-2,-6.439617E-3,-1.1260901E-3,1.3875031E-2,2.336621E-2,6.894244E-3,4.586734E-4,1.363732E-1,3.0842095E-4,3.2334038E-4,2.1817508E-4,1.185E3,4.5330185E-4,-0E0,1.535452E-1,5.9372024E-3,5.5135665E-3,-0E0,7.9896245E-3,8.9711756E-2,1.1596E3,1.6408412E-1,4.174E1,-1.0746276E-2,5.238E1,-1.219927E-2,-5.795456E-3,-0E0,6.1297384E-3,2.9208979E1,9.98174E-5,1.1264269E-1,5.2653137E-4,7.001464E-5,4.560706E-4,1.5163829E-4,-1.3130402E-2,4.2369275E-4,8.5632456E-4,5.001056E-3,1.4049213E-4,-3.907336E-3,-0E0,6.035947E-4,-1.0419323E-3,7.8310457E-4,6.916962E-2,4.5104846E-3,-5.096994E-4,6.5948986E-2,2.0161767E-2,4.8924293E-3,-1.5809888E-3,-0E0,7.309413E-2,1.8735224E-1,-8.64461E-2,-4.1120318E-1,-0E0,-0E0,2.1312698E-3,-0E0,7.2986176E-3,1.5315614E-2,9.513334E-3,1.3309E2,8.149369E-4,1.2586859E-1,9.2512345E-1,8.0253015E-4,6.67302E-3,-4.0709984E-4,2.1460487E-3,5.2350215E-3,9.9342324E-5,-2.8291336E-1,-2.6595107E-1,7.90337E-2,-0E0,3.131343E-3,7.0927246E-3,3.7017348E-3,-5.5789707E-5,1.0481788E-3,3.9876097E-1,2.6954908E-3,8.236584E-3,2.6832705E-2,1.0480591E-3,1.4589973E-4,1.1879166E-3,6.054497E-4,3.892129E-4,6.2406627E-3,7.7575375E-4,-4.319181E-3,-2.3063722E-3,-2.3904872E-4,-8.876467E-3,-2.5111951E-3,2.2830155E-3,-1.9144773E-3,-8.279066E-3,3.570263E-3,-3.2660838E-3,3.0791648E-3,-0E0,-1.2427778E-2,-1.5652321E-2,1.6019896E-3,-4.120691E-3,-4.8887557E-3,-8.831706E-3,-6.5321038E-3,-0E0,-1.0186901E-2,-4.680765E-3,-9.139126E-3,-1.427392E-2,-6.5597254E-3,-1.0372665E-2,-6.4256587E-3,-1.1086128E-2,-4.654211E-3,3.4922617E-3,2.9625904E-3,-5.6021577E-3,-1.4880047E-3,7.5486084E-3,8.99748E-4,-4.62256E-3,2.647263E-3,-1.4255313E-3,7.859126E-3,1.5758003E-4,-5.378306E-3,-4.534714E-4,-6.3189883E-3,-0E0,-2.6283937E-4,-5.3762947E-3,-1.4836945E-3,-6.93845E-3,4.3720193E-3,-4.8643593E-3,-1.1420197E-2,-7.634458E-3,-5.502106E-3,-1.2007393E-2,-0E0,-6.9937343E-3,2.8770943E-3,-0E0,-1.2337265E-4,3.5337645E-3,-1.106459E-3,4.3633045E-3,-3.2448142E-3,5.376223E-4,-4.6445634E-3,-1.122254E-3,9.2964695E-4,-2.8820357E-3,-0E0,6.2078848E-3,4.2182865E-4,-3.1103438E-3,-1.5182476E-4,2.1678125E-3,-5.2598002E-3,-0E0,-1.0791339E-2,-6.51067E-3,1.3298491E-3,-2.5694768E-3,-0E0,8.514875E-3,-2.3524973E-3,5.8123213E-4,-7.307758E-3,-1.4082592E-3,-2.2294784E-3,2.3134495E-3,-7.494397E-3,-0E0,-2.8915217E-3,-7.8953365E-3,-0E0,-6.1842874E-3,-4.1888575E-3,-1.2082695E-2,-1.1950819E-3,-8.735497E-3,2.2718888E-3,-2.9577056E-3,4.174259E-3,-2.6380692E-3,-9.801073E-3,-0E0,-2.5765297E-3,1.4514466E-3,1.5328875E-3,-4.894841E-3,6.1106845E-4,-2.9471216E-3,-5.5228136E-3,-0E0,3.395286E-3,-0E0,-1.8820581E-3,2.6536623E-3,-5.071688E-3,-0E0,2.8598742E-3,-1.1765289E-3,2.8151379E-3,1.3707595E-2,-4.953307E-4,2.9739826E-3,-0E0,-4.317335E-3,1.4972334E-3,8.528229E-3,3.9863014E-3,-2.5259247E-3,-2.4193348E-3,1.8359846E-3,-0E0,5.8447244E-3,8.298157E-3,1.5238261E-2,-6.6397025E-4,3.5485893E-3,-2.1993238E-3,6.1201993E-3,-0E0,-8.988451E-3,2.330761E-3,-1.7453896E-4,3.7652852E-3,-0E0,1.1270836E-3,-2.2897806E-3,6.129643E-4,4.4623706E-3,-0E0,-2.889803E-3,-1.1861641E-3,-3.9330535E-3,-2.359369E-3,-6.533773E-3,-5.424772E-3,-0E0,-1.1599147E-3,2.3681857E-3,-9.952806E-4,-9.311101E-3,1.06577616E-4,5.8075646E-3,7.890487E-3,1.9758066E-2,5.789821E-3,4.5155128E-4,-1.6880302E-3,9.5775013E-4,-5.9664496E-3,-1.5429422E-3,-3.9795497E-3,-0E0,-7.0834573E-4,3.7096213E-3,-9.931689E-4,-8.252036E-3,7.116632E-3,6.168153E-4,1.4185383E-2,7.912979E-3,-8.066334E-3,-1.3697968E-3,5.084892E-3,-2.7797385E-3,1.1041826E-3,-1.908505E-3,9.032518E-3,3.8703575E-3,-9.616779E-3,-7.012773E-4,-1.0782508E-3,3.04202E-3,1.7662253E-3,6.7175287E-3,3.414751E-3,7.98448E-3,1.3682819E-2,7.829442E-3,-4.325783E-3,5.691002E-3,6.9585145E-3,-0E0,5.0456874E-4,7.7087577E-3,4.3752193E-3,1.805176E-3,5.5308745E-4,7.3393844E-3,8.894789E-3,1.634057E-2,3.6500092E-3,1.3279046E-2,1.3218225E-2,6.220269E-3,6.088194E-3,1.424153E-2,1.04712695E-2,4.2129257E-3],"split_indices":[17,219,19,191,16,219,219,64,32,228,17,71,76,180,17,10,102,2,0,170,179,146,7,0,0,7,67,7,19,66,164,20,0,0,93,0,0,104,153,216,19,153,19,231,19,141,90,13,167,0,131,76,0,219,7,0,24,22,9,9,9,0,133,2,229,75,31,92,121,199,92,172,115,172,96,186,24,48,230,224,2,1,7,159,17,75,0,0,44,221,131,64,57,4,222,0,11,157,0,17,20,0,0,15,7,22,16,0,119,7,7,40,16,7,177,22,164,34,34,0,201,199,193,42,176,0,167,104,57,201,193,194,7,127,20,94,17,1,175,25,0,7,177,71,0,0,107,0,63,0,0,7,0,190,104,44,43,233,0,180,157,59,95,197,141,33,15,0,0,0,0,17,81,0,5,155,43,0,0,0,1,19,105,0,7,191,0,19,19,201,57,64,0,139,180,103,17,19,19,0,9,0,0,103,162,7,19,19,13,0,16,0,0,96,7,7,19,139,17,60,66,54,19,170,183,0,0,0,162,1,10,57,0,0,0,0,0,19,222,0,0,0,0,0,36,0,0,0,17,0,0,0,7,80,166,162,19,0,0,0,191,0,0,154,74,7,4,1,0,0,7,100,0,74,7,0,0,0,20,16,27,0,0,0,0,0,19,11,12,0,0,120,199,22,20,156,19,0,19,12,22,0,0,92,4,180,19,22,4,0,48,71,16,0,16,53,0,184,34,0,53,0,0,7,3,162,19,92,177,147,48,128,100,59,32,0,55,174,0,191,16,177,75,136,70,0,128,89,112,19,74,191,48,0,177,16,105,15,48,92,0,0,0,114,7,3,70,22,0,31,112,0,30,22,0,32,11,0,0,72,183,0,0,7,152,44,114,0,17,0,175,19,0,0,0,0,11,0,184,176,19,0,72,0,0,115,59,0,0,0,0,0,0,0,0,0,9,0,0,85,0,43,7,0,37,0,0,0,39,0,177,0,3,15,0,0,0,0,0,9,181,121,7,0,20,7,9,12,0,0,42,9,7,74,177,0,0,0,0,0,9,0,0,3,13,22,81,0,3,0,0,174,145,15,0,175,22,9,60,7,128,0,0,89,74,172,7,9,7,0,0,0,20,167,30,104,22,0,0,181,9,0,23,139,175,0,9,0,64,64,191,233,205,13,0,12,15,99,166,43,166,0,0,30,24,71,0,0,67,13,43,0,0,0,0,22,11,0,12,22,99,15,77,145,191,0,0,0,0,182,145,92,0,0,0,77,0,174,7,94,0,0,0,0,0,0,23,0,3,103,94,77,0,0,0,0,0,22,191,9,0,9,0,138,175,3,0,76,11,8,31,25,0,172,0,0,17,0,15,132,11,0,0,61,152,0,0,221,15,121,145,5,15,0,0,16,8,0,5,10,0,0,5,209,42,140,0,170,15,0,8,0,0,0,0,91,0,44,11,0,0,44,105,22,15,5,0,22,53,0,0,194,132,17,85,0,0,0,0,5,3,0,91,112,36,27,8,0,27,47,177,0,0,5,44,0,0,0,0,75,57,32,8,58,0,117,5,0,33,148,191,0,0,0,0,0,16,44,15,16,22,153,17,0,11,0,112,0,0,10,153,61,128,0,132,0,0,0,0,152,3,23,16,5,17,1,0,16,0,0,22,0,0,16,0,16,99,0,0,107,58,0,133,0,201,32,99,36,0,0,0,0,0,0,0,105,133,11,166,0,0,0,0,0,0,107,99,11,0,0,0,0,0,0,27,0,0,0,16,5,0,15,22,0,0,0,0,0,0,0,0,0,0,0,0,0,0,0,0,0,0,0,0,0,0,0,0,0,0,0,0,0,0,0,0,0,0,0,0,0,0,0,0,0,0,0,0,0,0,0,0,0,0,0,0,0,0,0,0,0,0,0,0,0,0,0,0,0,0,0,0,0,0,0,0,0,0,0,0,0,0,0,0,0,0,0,0,0,0,0,0,0,0,0,0,0,0,0,0,0,0,0,0,0,0,0,0,0,0,0,0,0,0,0,0,0,0,0,0,0,0,0,0,0,0,0,0,0,0,0,0,0,0,0,0,0,0,0,0,0,0,0,0,0,0,0,0,0,0,0,0,0,0,0,0,0,0,0,0,0,0,0,0,0,0,0,0,0,0,0,0,0,0,0,0,0,0,0,0,0,0,0,0,0,0,0,0,0,0,0,0,0,0,0,0,0,0,0,0,0,0,0,0,0,0,0,0,0,0,0,0,0,0,0,0,0,0,0,0,0,0,0,0,0,0],"split_type":[0,0,0,0,0,0,0,0,0,0,0,0,0,0,0,0,0,0,0,0,0,0,0,0,0,0,0,0,0,0,0,0,0,0,0,0,0,0,0,0,0,0,0,0,0,0,0,0,0,0,0,0,0,0,0,0,0,0,0,0,0,0,0,0,